{"learner":{"attributes":{"scikit_learn":"{\"_estimator_type\": \"regressor\"}"},"feature_names":["index"],"feature_types":["int"],"gradient_booster":{"model":{"cats":{"enc":[],"feature_segments":[],"sorted_idx":[]},"gbtree_model_param":{"num_parallel_tree":"1","num_trees":"300"},"iteration_indptr":[0,1,2,3,4,5,6,7,8,9,10,11,12,13,14,15,16,17,18,19,20,21,22,23,24,25,26,27,28,29,30,31,32,33,34,35,36,37,38,39,40,41,42,43,44,45,46,47,48,49,50,51,52,53,54,55,56,57,58,59,60,61,62,63,64,65,66,67,68,69,70,71,72,73,74,75,76,77,78,79,80,81,82,83,84,85,86,87,88,89,90,91,92,93,94,95,96,97,98,99,100,101,102,103,104,105,106,107,108,109,110,111,112,113,114,115,116,117,118,119,120,121,122,123,124,125,126,127,128,129,130,131,132,133,134,135,136,137,138,139,140,141,142,143,144,145,146,147,148,149,150,151,152,153,154,155,156,157,158,159,160,161,162,163,164,165,166,167,168,169,170,171,172,173,174,175,176,177,178,179,180,181,182,183,184,185,186,187,188,189,190,191,192,193,194,195,196,197,198,199,200,201,202,203,204,205,206,207,208,209,210,211,212,213,214,215,216,217,218,219,220,221,222,223,224,225,226,227,228,229,230,231,232,233,234,235,236,237,238,239,240,241,242,243,244,245,246,247,248,249,250,251,252,253,254,255,256,257,258,259,260,261,262,263,264,265,266,267,268,269,270,271,272,273,274,275,276,277,278,279,280,281,282,283,284,285,286,287,288,289,290,291,292,293,294,295,296,297,298,299,300],"tree_info":[0,0,0,0,0,0,0,0,0,0,0,0,0,0,0,0,0,0,0,0,0,0,0,0,0,0,0,0,0,0,0,0,0,0,0,0,0,0,0,0,0,0,0,0,0,0,0,0,0,0,0,0,0,0,0,0,0,0,0,0,0,0,0,0,0,0,0,0,0,0,0,0,0,0,0,0,0,0,0,0,0,0,0,0,0,0,0,0,0,0,0,0,0,0,0,0,0,0,0,0,0,0,0,0,0,0,0,0,0,0,0,0,0,0,0,0,0,0,0,0,0,0,0,0,0,0,0,0,0,0,0,0,0,0,0,0,0,0,0,0,0,0,0,0,0,0,0,0,0,0,0,0,0,0,0,0,0,0,0,0,0,0,0,0,0,0,0,0,0,0,0,0,0,0,0,0,0,0,0,0,0,0,0,0,0,0,0,0,0,0,0,0,0,0,0,0,0,0,0,0,0,0,0,0,0,0,0,0,0,0,0,0,0,0,0,0,0,0,0,0,0,0,0,0,0,0,0,0,0,0,0,0,0,0,0,0,0,0,0,0,0,0,0,0,0,0,0,0,0,0,0,0,0,0,0,0,0,0,0,0,0,0,0,0,0,0,0,0,0,0,0,0,0,0,0,0,0,0,0,0,0,0,0,0,0,0,0,0,0,0,0,0,0,0,0,0,0,0,0,0],"trees":[{"base_weights":[3.7357952E1,-1.093567E3,3.221453E2,-1.2781781E1,-4.213595E0,-1.06490295E2,5.70797E2,-1.6890904E2,1.162627E0,7.129228E2,1.4401477E2,-1.7497063E0,-3.7255663E-1,2.1943471E0,7.505127E2,2.4521604E0,-1.0565108E0,8.10158E0,3.0815158E0],"categories":[],"categories_nodes":[],"categories_segments":[],"categories_sizes":[],"default_left":[0,0,0,0,0,0,0,0,0,0,0,0,0,0,0,0,0,0,0],"id":0,"left_children":[1,3,5,-1,-1,7,9,11,-1,13,15,-1,-1,-1,17,-1,-1,-1,-1],"loss_changes":[1.6793122E7,4.95159E5,4.514286E6,0E0,0E0,2.5887211E5,1.453397E6,9.9540625E2,0E0,1.14696E5,2.5362633E5,0E0,0E0,0E0,8.7256E4,0E0,0E0,0E0,0E0],"parents":[2147483647,0,0,1,1,2,2,5,5,6,6,7,7,9,9,10,10,14,14],"right_children":[2,4,6,-1,-1,8,10,12,-1,14,16,-1,-1,-1,18,-1,-1,-1,-1],"split_conditions":[1.2E1,8E0,3.1E1,-1.2781781E1,-4.213595E0,2.8E1,5.5E1,2.7E1,1.162627E0,3.6E1,6E1,-1.7497063E0,-3.7255663E-1,2.1943471E0,5.2E1,2.4521604E0,-1.0565108E0,8.10158E0,3.0815158E0],"split_indices":[0,0,0,0,0,0,0,0,0,0,0,0,0,0,0,0,0,0,0],"split_type":[0,0,0,0,0,0,0,0,0,0,0,0,0,0,0,0,0,0,0],"sum_hessian":[4.9E1,9E0,4E1,6E0,3E0,1.5E1,2.5E1,1.2E1,3E0,1.8E1,7E0,1.1E1,1E0,2E0,1.6E1,5E0,2E0,1.3E1,3E0],"tree_param":{"num_deleted":"0","num_feature":"1","num_nodes":"19","size_leaf_vector":"1"}},{"base_weights":[-3.1217136E1,-1.1357365E3,2.575434E2,-1.2679526E1,-3.6567187E0,-8.1450165E1,4.997331E2,-1.5863907E2,1.1619282E0,6.301022E2,1.303571E2,-9.0956345E1,-2.1997442E0,1.9995228E0,6.716111E0,2.1231694E0,4.9448786E0,-1.7065994E0,-9.380327E-3,2.8867048E-1,-3.1513086E-1],"categories":[],"categories_nodes":[],"categories_segments":[],"categories_sizes":[],"default_left":[0,0,0,0,0,0,0,0,0,0,0,0,0,0,0,0,0,0,0,0,0],"id":1,"left_children":[1,3,5,-1,-1,7,9,11,-1,13,15,17,-1,-1,-1,-1,19,-1,-1,-1,-1],"loss_changes":[1.4631653E7,2.71761E5,3.0577325E6,0E0,0E0,2.7937053E5,9.121295E5,2.1879688E4,0E0,7.53185E4,7.551593E4,6.0745523E4,0E0,0E0,0E0,0E0,5.2892256E3,0E0,0E0,0E0,0E0],"parents":[2147483647,0,0,1,1,2,2,5,5,6,6,7,7,9,9,10,10,11,11,16,16],"right_children":[2,4,6,-1,-1,8,10,12,-1,14,16,18,-1,-1,-1,-1,20,-1,-1,-1,-1],"split_conditions":[1.2E1,8E0,3.2E1,-1.2679526E1,-3.6567187E0,2.7E1,5.5E1,2.1E1,1.1619282E0,3.5E1,6E1,1.5E1,-2.1997442E0,1.9995228E0,6.716111E0,2.1231694E0,6.3E1,-1.7065994E0,-9.380327E-3,2.8867048E-1,-3.1513086E-1],"split_indices":[0,0,0,0,0,0,0,0,0,0,0,0,0,0,0,0,0,0,0,0,0],"split_type":[0,0,0,0,0,0,0,0,0,0,0,0,0,0,0,0,0,0,0,0,0],"sum_hessian":[4.3E1,8E0,3.5E1,6E0,2E0,1.5E1,2E1,1.1E1,4E0,1.4E1,6E0,7E0,4E0,2E0,1.2E1,3E0,3E0,3E0,4E0,2E0,1E0],"tree_param":{"num_deleted":"0","num_feature":"1","num_nodes":"21","size_leaf_vector":"1"}},{"base_weights":[-9.978375E0,-1.1566321E3,2.9729425E2,-1.2221218E1,-2.399877E0,-1.0290368E2,5.0821896E2,-1.4554259E2,8.1297153E-1,6.447536E2,2.3390925E0,-1.8664142E0,-8.629492E1,2.025335E0,7.1074457E0,1.129543E0,-4.857848E1,2.1190755E-1,-1.6501563E0,-1.1566856E0,4.88661E-2],"categories":[],"categories_nodes":[],"categories_segments":[],"categories_sizes":[],"default_left":[0,0,0,0,0,0,0,0,0,0,0,0,0,0,0,0,0,0,0,0,0],"id":2,"left_children":[1,3,5,-1,-1,7,9,11,-1,13,15,-1,17,-1,-1,-1,19,-1,-1,-1,-1],"loss_changes":[1.5842376E7,1.30351E5,3.0750598E6,0E0,0E0,1.2377892E5,1.620886E6,3.8433125E3,0E0,3.23952E5,4.48404E4,0E0,6.870533E4,0E0,0E0,0E0,2.0576219E4,0E0,0E0,0E0,0E0],"parents":[2147483647,0,0,1,1,2,2,5,5,6,6,7,7,9,9,10,10,12,12,16,16],"right_children":[2,4,6,-1,-1,8,10,12,-1,14,16,-1,18,-1,-1,-1,20,-1,-1,-1,-1],"split_conditions":[1.1E1,9E0,3.2E1,-1.2221218E1,-2.399877E0,2.7E1,5.5E1,1.7E1,8.1297153E-1,3.5E1,5.7E1,-1.8664142E0,2E1,2.025335E0,7.1074457E0,1.129543E0,6.1E1,2.1190755E-1,-1.6501563E0,-1.1566856E0,4.88661E-2],"split_indices":[0,0,0,0,0,0,0,0,0,0,0,0,0,0,0,0,0,0,0,0,0],"split_type":[0,0,0,0,0,0,0,0,0,0,0,0,0,0,0,0,0,0,0,0,0],"sum_hessian":[4.2E1,8E0,3.4E1,7E0,1E0,1.2E1,2.2E1,1E1,2E0,1.7E1,5E0,4E0,6E0,3E0,1.4E1,1E0,4E0,3E0,3E0,1E0,3E0],"tree_param":{"num_deleted":"0","num_feature":"1","num_nodes":"21","size_leaf_vector":"1"}},{"base_weights":[-2.6357569E1,-6.413208E2,5.0656107E2,-1.2130888E1,-2.759621E2,5.959022E2,1.2531315E2,-3.591067E0,-1.692314E2,2.0663931E0,7.1165186E2,2.1774244E0,-7.3638535E1,-4.676891E1,-2.3380011E2,7.474514E0,2.4811733E0,-1.1520585E0,1.21119134E-1,-6.480566E-1,-2.1158853E-1,-2.5908346E0,-3.7896678E-1],"categories":[],"categories_nodes":[],"categories_segments":[],"categories_sizes":[],"default_left":[0,0,0,0,0,0,0,0,0,0,0,0,0,0,0,0,0,0,0,0,0,0,0],"id":3,"left_children":[1,3,5,-1,7,9,11,-1,13,-1,15,-1,17,19,21,-1,-1,-1,-1,-1,-1,-1,-1],"loss_changes":[1.802061E7,4.824812E6,8.927915E5,0E0,6.413825E4,8.382585E5,1.6196858E5,0E0,6.662422E4,0E0,1.2217E4,0E0,1.4568506E4,4.8375293E2,1.74675E4,0E0,0E0,0E0,0E0,0E0,0E0,0E0,0E0],"parents":[2147483647,0,0,1,1,2,2,4,4,5,5,6,6,8,8,10,10,12,12,13,13,14,14],"right_children":[2,4,6,-1,8,10,12,-1,14,-1,16,-1,18,20,22,-1,-1,-1,-1,-1,-1,-1,-1],"split_conditions":[2.8E1,9E0,5.5E1,-1.2130888E1,1.6E1,3.6E1,6E1,-3.591067E0,2.1E1,2.0663931E0,5.2E1,2.1774244E0,6.1E1,1.7E1,2.7E1,7.474514E0,2.4811733E0,-1.1520585E0,1.21119134E-1,-6.480566E-1,-2.1158853E-1,-2.5908346E0,-3.7896678E-1],"split_indices":[0,0,0,0,0,0,0,0,0,0,0,0,0,0,0,0,0,0,0,0,0,0,0],"split_type":[0,0,0,0,0,0,0,0,0,0,0,0,0,0,0,0,0,0,0,0,0,0,0],"sum_hessian":[5.2E1,2.4E1,2.8E1,8E0,1.6E1,2.2E1,6E0,7E0,9E0,6E0,1.6E1,4E0,2E0,4E0,5E0,1.4E1,2E0,1E0,1E0,1E0,3E0,4E0,1E0],"tree_param":{"num_deleted":"0","num_feature":"1","num_nodes":"23","size_leaf_vector":"1"}},{"base_weights":[1.9044588E1,-5.655854E2,4.6398044E2,-1.0870498E1,-2.2488698E2,5.471689E2,-4.825142E1,-3.0834537E0,-1.2349029E2,1.7906117E0,6.719344E2,-1.1474512E0,4.773329E0,2.119043E1,-1.951561E2,7.1438518E0,1.8383719E0,2.860505E-1,-3.145508E-1,-9.552343E-2,3.4067938E-1,-3.944746E-1,-2.1270835E0],"categories":[],"categories_nodes":[],"categories_segments":[],"categories_sizes":[],"default_left":[0,0,0,0,0,0,0,0,0,0,0,0,0,0,0,0,0,0,0,0,0,0,0],"id":4,"left_children":[1,3,5,-1,7,9,11,-1,13,-1,15,-1,17,19,21,-1,-1,-1,-1,-1,-1,-1,-1],"loss_changes":[1.3529834E7,3.630702E6,1.2966495E6,0E0,7.405081E4,9.90667E5,2.021354E4,0E0,1.0470544E5,0E0,1.86326E5,0E0,5.2348945E3,2.26965E3,5.178547E3,0E0,0E0,0E0,0E0,0E0,0E0,0E0,0E0],"parents":[2147483647,0,0,1,1,2,2,4,4,5,5,6,6,8,8,10,10,12,12,13,13,14,14],"right_children":[2,4,6,-1,8,10,12,-1,14,-1,16,-1,18,20,22,-1,-1,-1,-1,-1,-1,-1,-1],"split_conditions":[2.7E1,1E1,5.9E1,-1.0870498E1,1.6E1,3.5E1,6.1E1,-3.0834537E0,2E1,1.7906117E0,5.5E1,-1.1474512E0,6.3E1,1.8E1,2.1E1,7.1438518E0,1.8383719E0,2.860505E-1,-3.145508E-1,-9.552343E-2,3.4067938E-1,-3.944746E-1,-2.1270835E0],"split_indices":[0,0,0,0,0,0,0,0,0,0,0,0,0,0,0,0,0,0,0,0,0,0,0],"split_type":[0,0,0,0,0,0,0,0,0,0,0,0,0,0,0,0,0,0,0,0,0,0,0],"sum_hessian":[4.9E1,2.1E1,2.8E1,7E0,1.4E1,2.4E1,4E0,6E0,8E0,7E0,1.7E1,1E0,3E0,3E0,5E0,1.5E1,2E0,2E0,1E0,1E0,2E0,1E0,4E0],"tree_param":{"num_deleted":"0","num_feature":"1","num_nodes":"23","size_leaf_vector":"1"}},{"base_weights":[-2.58511E1,-1.0835144E3,2.5465245E2,-1.2496924E1,-4.0845103E0,-9.20187E1,5.291333E2,-1.7495486E0,1.2698723E0,6.869212E2,1.1089935E2,2.473559E0,7.5227714E0,2.3214736E0,-7.425912E1,-1.1428612E0,-1.3843052E-1],"categories":[],"categories_nodes":[],"categories_segments":[],"categories_sizes":[],"default_left":[0,0,0,0,0,0,0,0,0,0,0,0,0,0,0,0,0],"id":5,"left_children":[1,3,5,-1,-1,7,9,-1,-1,11,13,-1,-1,-1,15,-1,-1],"loss_changes":[1.6286171E7,5.2442E5,4.212259E6,0E0,0E0,4.0567753E5,1.502542E6,0E0,0E0,2.236235E5,2.1668442E5,0E0,0E0,0E0,8.509135E3,0E0,0E0],"parents":[2147483647,0,0,1,1,2,2,5,5,6,6,9,9,10,10,14,14],"right_children":[2,4,6,-1,-1,8,10,-1,-1,12,14,-1,-1,-1,16,-1,-1],"split_conditions":[1.2E1,8E0,3.3E1,-1.2496924E1,-4.0845103E0,2.7E1,5.1E1,-1.7495486E0,1.2698723E0,3.6E1,6E1,2.473559E0,7.5227714E0,2.3214736E0,6.1E1,-1.1428612E0,-1.3843052E-1],"split_indices":[0,0,0,0,0,0,0,0,0,0,0,0,0,0,0,0,0],"split_type":[0,0,0,0,0,0,0,0,0,0,0,0,0,0,0,0,0],"sum_hessian":[5.2E1,1E1,4.2E1,7E0,3E0,1.9E1,2.3E1,1.4E1,5E0,1.6E1,7E0,3E0,1.3E1,4E0,3E0,1E0,2E0],"tree_param":{"num_deleted":"0","num_feature":"1","num_nodes":"17","size_leaf_vector":"1"}},{"base_weights":[-7.704852E1,-7.032742E2,4.3092004E2,-1.2014954E1,-3.1143773E0,7.813663E1,4.9110275E2,-3.8969338E-1,1.1714995E0,6.0246844E2,1.6272643E2,2.4570682E0,6.5860645E2,2.3065846E0,-1.3763811E1,7.297319E0,2.889172E0,1.2004492E-1,-3.1273827E-1],"categories":[],"categories_nodes":[],"categories_segments":[],"categories_sizes":[],"default_left":[0,0,0,0,0,0,0,0,0,0,0,0,0,0,0,0,0,0,0],"id":6,"left_children":[1,3,5,-1,-1,7,9,-1,-1,11,13,-1,15,-1,17,-1,-1,-1,-1],"loss_changes":[1.4610163E7,3.440748E6,4.83843E5,0E0,0E0,3.19757E4,6.39195E5,0E0,0E0,6.76965E4,9.468219E4,0E0,1.2431E4,0E0,2.1423516E3,0E0,0E0,0E0,0E0],"parents":[2147483647,0,0,1,1,2,2,5,5,6,6,9,9,10,10,12,12,14,14],"right_children":[2,4,6,-1,-1,8,10,-1,-1,12,14,-1,16,-1,18,-1,-1,-1,-1],"split_conditions":[2.6E1,9E0,3.3E1,-1.2014954E1,-3.1143773E0,2.8E1,5.5E1,-3.8969338E-1,1.1714995E0,3.6E1,6E1,2.4570682E0,5.2E1,2.3065846E0,6.2E1,7.297319E0,2.889172E0,1.2004492E-1,-3.1273827E-1],"split_indices":[0,0,0,0,0,0,0,0,0,0,0,0,0,0,0,0,0,0,0],"split_type":[0,0,0,0,0,0,0,0,0,0,0,0,0,0,0,0,0,0,0],"sum_hessian":[4.3E1,1.9E1,2.4E1,7E0,1.2E1,4E0,2E1,1E0,3E0,1.4E1,6E0,3E0,1.1E1,4E0,2E0,8E0,3E0,1E0,1E0],"tree_param":{"num_deleted":"0","num_feature":"1","num_nodes":"19","size_leaf_vector":"1"}},{"base_weights":[7.5956764E1,-5.2439197E2,4.9541785E2,-1.0406036E1,-2.2386455E2,5.84241E2,1.0617858E2,-2.326115E0,-3.8813475E-1,2.0615234E0,7.178063E2,1.7204362E0,4.9206815E0,8.056561E0,3.0640926E0,2.8575754E-1,-3.1148827E-1],"categories":[],"categories_nodes":[],"categories_segments":[],"categories_sizes":[],"default_left":[0,0,0,0,0,0,0,0,0,0,0,0,0,0,0,0,0],"id":7,"left_children":[1,3,5,-1,7,9,11,-1,-1,-1,13,-1,15,-1,-1,-1,-1],"loss_changes":[1.3106748E7,2.985988E6,9.614405E5,0E0,1.15460625E4,1.0152725E6,4.8750305E4,0E0,0E0,0E0,2.62179E5,0E0,5.174673E3,0E0,0E0,0E0,0E0],"parents":[2147483647,0,0,1,1,2,2,4,4,5,5,6,6,10,10,12,12],"right_children":[2,4,6,-1,8,10,12,-1,-1,-1,14,-1,16,-1,-1,-1,-1],"split_conditions":[2.8E1,1E1,5.6E1,-1.0406036E1,2.6E1,3.6E1,6E1,-2.326115E0,-3.8813475E-1,2.0615234E0,4.9E1,1.7204362E0,6.3E1,8.056561E0,3.0640926E0,2.8575754E-1,-3.1148827E-1],"split_indices":[0,0,0,0,0,0,0,0,0,0,0,0,0,0,0,0,0],"split_type":[0,0,0,0,0,0,0,0,0,0,0,0,0,0,0,0,0],"sum_hessian":[4.9E1,2E1,2.9E1,6E0,1.4E1,2.3E1,6E0,1.3E1,1E0,7E0,1.6E1,3E0,3E0,1.2E1,4E0,2E0,1E0],"tree_param":{"num_deleted":"0","num_feature":"1","num_nodes":"17","size_leaf_vector":"1"}},{"base_weights":[2.7527977E1,-1.2105493E1,2.6156058E2,-1.507376E2,5.2321686E2,-1.8789413E2,6.7798406E-1,6.433497E2,1.22245964E2,-1.9465329E2,-3.8658202E-1,2.0531423E0,7.082616E0,2.0581534E0,-6.146847E1,-1.1910547E0,-2.485266E0,-1.1399121E0,2.7935353E-1],"categories":[],"categories_nodes":[],"categories_segments":[],"categories_sizes":[],"default_left":[0,0,0,0,0,0,0,0,0,0,0,0,0,0,0,0,0,0,0],"id":8,"left_children":[1,-1,3,5,7,9,-1,11,13,15,-1,-1,-1,-1,17,-1,-1,-1,-1],"loss_changes":[1.3658595E7,0E0,4.3795795E6,1.5308903E5,1.0621885E6,3.338875E3,0E0,3.07899E5,1.341235E5,1.0543844E4,0E0,0E0,0E0,0E0,2.1211645E4,0E0,0E0,0E0,0E0],"parents":[2147483647,0,0,2,2,3,3,4,4,5,5,7,7,8,8,9,9,14,14],"right_children":[2,-1,4,6,8,10,-1,12,14,16,-1,-1,-1,-1,18,-1,-1,-1,-1],"split_conditions":[8E0,-1.2105493E1,3.2E1,2.8E1,5.4E1,2.7E1,6.7798406E-1,3.6E1,6E1,2.1E1,-3.8658202E-1,2.0531423E0,7.082616E0,2.0581534E0,6.1E1,-1.1910547E0,-2.485266E0,-1.1399121E0,2.7935353E-1],"split_indices":[0,0,0,0,0,0,0,0,0,0,0,0,0,0,0,0,0,0,0],"split_type":[0,0,0,0,0,0,0,0,0,0,0,0,0,0,0,0,0,0,0],"sum_hessian":[4.4E1,6E0,3.8E1,1.5E1,2.3E1,1.3E1,2E0,1.7E1,6E0,1.2E1,1E0,3E0,1.4E1,4E0,2E0,7E0,5E0,1E0,1E0],"tree_param":{"num_deleted":"0","num_feature":"1","num_nodes":"19","size_leaf_vector":"1"}},{"base_weights":[4.5764446E1,-4.9875058E2,4.152383E2,-9.22337E0,-1.988464E2,5.1346686E2,5.883163E1,-2.5522394E0,-1.2887552E2,1.7224879E0,6.351899E2,1.6952473E0,-4.7780453E1,-3.9048395E0,-1.8565317E2,6.518141E0,1.4435624E0,-1.1353515E0,4.676758E0,-6.115586E-1,3.866225E-1,-2.0190668E0,-3.8503516E-1,2.825293E-1,-3.1135935E-1],"categories":[],"categories_nodes":[],"categories_segments":[],"categories_sizes":[],"default_left":[0,0,0,0,0,0,0,0,0,0,0,0,0,0,0,0,0,0,0,0,0,0,0,0,0],"id":9,"left_children":[1,3,5,-1,7,9,11,-1,13,-1,15,-1,17,19,21,-1,-1,-1,23,-1,-1,-1,-1,-1,-1],"loss_changes":[1.0671629E7,2.4561545E6,1.0574815E6,0E0,7.8611875E3,8.53469E5,1.12460336E5,0E0,6.6320234E4,0E0,1.655E3,0E0,1.9767658E4,1.4513176E4,3.884875E3,0E0,0E0,0E0,5.1189907E3,0E0,0E0,0E0,0E0,0E0,0E0],"parents":[2147483647,0,0,1,1,2,2,4,4,5,5,6,6,8,8,10,10,12,12,13,13,14,14,18,18],"right_children":[2,4,6,-1,8,10,12,-1,14,-1,16,-1,18,20,22,-1,-1,-1,24,-1,-1,-1,-1,-1,-1],"split_conditions":[2.8E1,1.1E1,5.6E1,-9.22337E0,1.6E1,3.5E1,6E1,-2.5522394E0,2E1,1.7224879E0,5.5E1,1.6952473E0,6.1E1,1.7E1,2.6E1,6.518141E0,1.4435624E0,-1.1353515E0,6.3E1,-6.115586E-1,3.866225E-1,-2.0190668E0,-3.8503516E-1,2.825293E-1,-3.1135935E-1],"split_indices":[0,0,0,0,0,0,0,0,0,0,0,0,0,0,0,0,0,0,0,0,0,0,0,0,0],"split_type":[0,0,0,0,0,0,0,0,0,0,0,0,0,0,0,0,0,0,0,0,0,0,0,0,0],"sum_hessian":[5E1,2E1,3E1,7E0,1.3E1,2.3E1,7E0,5E0,8E0,7E0,1.6E1,3E0,4E0,3E0,5E0,1.5E1,1E0,1E0,3E0,1E0,2E0,4E0,1E0,2E0,1E0],"tree_param":{"num_deleted":"0","num_feature":"1","num_nodes":"25","size_leaf_vector":"1"}},{"base_weights":[1.4997955E1,-1.076097E3,2.7194177E2,-1.1826206E1,-3.5621245E0,-1.9380573E0,4.3355167E2,5.0121667E2,-4.7620205E1,1.471657E0,5.6446185E2,-1.1308105E0,4.620334E0,6.714713E0,2.8947775E0,2.809138E-1,-3.1011328E-1],"categories":[],"categories_nodes":[],"categories_segments":[],"categories_sizes":[],"default_left":[0,0,0,0,0,0,0,0,0,0,0,0,0,0,0,0,0],"id":10,"left_children":[1,3,5,-1,-1,-1,7,9,11,-1,13,-1,15,-1,-1,-1,-1],"loss_changes":[1.5437685E7,1.73293E5,3.4755255E6,0E0,0E0,0E0,1.1265125E6,5.3596E5,1.9592113E4,0E0,4.293705E5,0E0,5.0701323E3,0E0,0E0,0E0,0E0],"parents":[2147483647,0,0,1,1,2,2,6,6,7,7,8,8,10,10,12,12],"right_children":[2,4,6,-1,-1,-1,8,10,12,-1,14,-1,16,-1,-1,-1,-1],"split_conditions":[1.1E1,9E0,2.7E1,-1.1826206E1,-3.5621245E0,-1.9380573E0,6E1,3.4E1,6.1E1,1.471657E0,5.2E1,-1.1308105E0,6.3E1,6.714713E0,2.8947775E0,2.809138E-1,-3.1011328E-1],"split_indices":[0,0,0,0,0,0,0,0,0,0,0,0,0,0,0,0,0],"split_type":[0,0,0,0,0,0,0,0,0,0,0,0,0,0,0,0,0],"sum_hessian":[5.2E1,9E0,4.3E1,7E0,2E0,1.1E1,3.2E1,2.8E1,4E0,5E0,2.3E1,1E0,3E0,1.5E1,8E0,2E0,1E0],"tree_param":{"num_deleted":"0","num_feature":"1","num_nodes":"17","size_leaf_vector":"1"}},{"base_weights":[-7.034351E1,-1.1242999E3,2.3917583E2,-1.1773386E1,-2.2695742E0,-7.968669E1,5.4053766E2,-1.5585431E0,1.20333E0,6.3998315E2,1.7865895E2,1.9948535E0,6.8307705E0,2.0591283E0,1.1505078E-1],"categories":[],"categories_nodes":[],"categories_segments":[],"categories_sizes":[],"default_left":[0,0,0,0,0,0,0,0,0,0,0,0,0,0,0],"id":11,"left_children":[1,3,5,-1,-1,7,9,-1,-1,11,13,-1,-1,-1,-1],"loss_changes":[1.6551244E7,1.4652E5,3.860284E6,0E0,0E0,3.4044962E5,5.662295E5,0E0,0E0,8.98375E4,2.6057781E4,0E0,0E0,0E0,0E0],"parents":[2147483647,0,0,1,1,2,2,5,5,6,6,9,9,10,10],"right_children":[2,4,6,-1,-1,8,10,-1,-1,12,14,-1,-1,-1,-1],"split_conditions":[1.1E1,9E0,3.3E1,-1.1773386E1,-2.2695742E0,2.8E1,5.5E1,-1.5585431E0,1.20333E0,3.6E1,6E1,1.9948535E0,6.8307705E0,2.0591283E0,1.1505078E-1],"split_indices":[0,0,0,0,0,0,0,0,0,0,0,0,0,0,0],"split_type":[0,0,0,0,0,0,0,0,0,0,0,0,0,0,0],"sum_hessian":[4.8E1,1E1,3.8E1,9E0,1E0,1.9E1,1.9E1,1.4E1,5E0,1.4E1,5E0,2E0,1.2E1,4E0,1E0],"tree_param":{"num_deleted":"0","num_feature":"1","num_nodes":"15","size_leaf_vector":"1"}},{"base_weights":[-7.074431E1,-1.1008947E3,2.4799821E2,-1.2067123E1,-3.4186285E0,-1.6093771E2,4.4990558E2,-1.8366774E2,4.9275002E-1,5.0347287E2,-1.0257728E0,-1.0019883E2,-2.3759315E0,1.8451742E0,5.747162E2,-1.5420843E0,-1.2789606E-1,6.6107254E0,2.6273384E0],"categories":[],"categories_nodes":[],"categories_segments":[],"categories_sizes":[],"default_left":[0,0,0,0,0,0,0,0,0,0,0,0,0,0,0,0,0,0,0],"id":12,"left_children":[1,3,5,-1,-1,7,9,11,-1,13,-1,15,-1,-1,17,-1,-1,-1,-1],"loss_changes":[1.6006284E7,3.04874E5,3.2048798E6,0E0,0E0,7.808022E4,8.3214E5,2.0553844E4,0E0,3.749335E5,0E0,3.244864E4,0E0,0E0,2.378915E5,0E0,0E0,0E0,0E0],"parents":[2147483647,0,0,1,1,2,2,5,5,6,6,7,7,9,9,11,11,14,14],"right_children":[2,4,6,-1,-1,8,10,12,-1,14,-1,16,-1,-1,18,-1,-1,-1,-1],"split_conditions":[1.2E1,8E0,2.9E1,-1.2067123E1,-3.4186285E0,2.6E1,5.8E1,2.1E1,4.9275002E-1,3.5E1,-1.0257728E0,1.5E1,-2.3759315E0,1.8451742E0,5.2E1,-1.5420843E0,-1.2789606E-1,6.6107254E0,2.6273384E0],"split_indices":[0,0,0,0,0,0,0,0,0,0,0,0,0,0,0,0,0,0,0],"split_type":[0,0,0,0,0,0,0,0,0,0,0,0,0,0,0,0,0,0,0],"sum_hessian":[4.6E1,1E1,3.6E1,8E0,2E0,1.2E1,2.4E1,1.1E1,1E0,2.2E1,2E0,6E0,5E0,5E0,1.7E1,3E0,3E0,1.2E1,5E0],"tree_param":{"num_deleted":"0","num_feature":"1","num_nodes":"19","size_leaf_vector":"1"}},{"base_weights":[1.9217384E1,-5.3516644E2,4.5986804E2,-1.0233946E1,-2.350035E2,5.227611E2,-6.3791668E1,-2.4395344E0,-3.8511717E-1,1.685172E0,5.933864E2,-1.1226444E0,-1.8289621E0,7.269972E2,3.0982585E0,2.79625E-1,-3.0523047E-1,1.5925937E0,7.533051E0],"categories":[],"categories_nodes":[],"categories_segments":[],"categories_sizes":[],"default_left":[0,0,0,0,0,0,0,0,0,0,0,0,0,0,0,0,0,0,0],"id":13,"left_children":[1,3,5,-1,7,9,11,-1,-1,-1,13,-1,15,17,-1,-1,-1,-1,-1],"loss_changes":[1.2950074E7,3.083127E6,1.021592E6,0E0,1.49241875E4,5.129985E5,1.3207781E4,0E0,0E0,0E0,4.767015E5,0E0,4.2721865E3,2.16795E4,0E0,0E0,0E0,0E0,0E0],"parents":[2147483647,0,0,1,1,2,2,4,4,5,5,6,6,10,10,12,12,13,13],"right_children":[2,4,6,-1,8,10,12,-1,-1,-1,14,-1,16,18,-1,-1,-1,-1,-1],"split_conditions":[2.8E1,1E1,5.9E1,-1.0233946E1,2.7E1,3.5E1,6.1E1,-2.4395344E0,-3.8511717E-1,1.685172E0,4.9E1,-1.1226444E0,6.3E1,3.6E1,3.0982585E0,2.79625E-1,-3.0523047E-1,1.5925937E0,7.533051E0],"split_indices":[0,0,0,0,0,0,0,0,0,0,0,0,0,0,0,0,0,0,0],"split_type":[0,0,0,0,0,0,0,0,0,0,0,0,0,0,0,0,0,0,0],"sum_hessian":[5E1,2.2E1,2.8E1,7E0,1.5E1,2.5E1,3E0,1.4E1,1E0,5E0,2E1,1E0,2E0,1.2E1,8E0,1E0,1E0,1E0,1.1E1],"tree_param":{"num_deleted":"0","num_feature":"1","num_nodes":"19","size_leaf_vector":"1"}},{"base_weights":[2.3786648E1,-4.4515033E2,4.5298672E2,-9.807284E0,-2.0806557E2,5.3136383E2,-7.247721E1,-2.8901436E0,-1.2813388E2,1.622326E0,6.0183105E2,-1.1181543E0,-1.3316825E1,-1.4782227E1,-1.8563164E2,7.198091E2,3.0056508E0,1.17574215E-1,-3.0400977E-1,-5.848574E-1,1.4424913E-1,-1.9943742E0,-3.8357615E-1,1.5862226E0,7.5059514E0],"categories":[],"categories_nodes":[],"categories_segments":[],"categories_sizes":[],"default_left":[0,0,0,0,0,0,0,0,0,0,0,0,0,0,0,0,0,0,0,0,0,0,0,0,0],"id":14,"left_children":[1,3,5,-1,7,9,11,-1,13,-1,15,-1,17,19,21,23,-1,-1,-1,-1,-1,-1,-1,-1,-1],"loss_changes":[9.460154E6,2.550908E6,1.0667845E6,0E0,5.768275E4,4.127955E5,8.239148E3,0E0,7.08348E4,0E0,2.974745E5,0E0,2.0354585E3,8.285979E3,3.7743281E3,2.0091E4,0E0,0E0,0E0,0E0,0E0,0E0,0E0,0E0,0E0],"parents":[2147483647,0,0,1,1,2,2,4,4,5,5,6,6,8,8,10,10,12,12,13,13,14,14,15,15],"right_children":[2,4,6,-1,8,10,12,-1,14,-1,16,-1,18,20,22,24,-1,-1,-1,-1,-1,-1,-1,-1,-1],"split_conditions":[2.8E1,1E1,6E1,-9.807284E0,1.6E1,3.5E1,6.1E1,-2.8901436E0,2.1E1,1.622326E0,4.9E1,-1.1181543E0,6.2E1,1.7E1,2.7E1,3.6E1,3.0056508E0,1.17574215E-1,-3.0400977E-1,-5.848574E-1,1.4424913E-1,-1.9943742E0,-3.8357615E-1,1.5862226E0,7.5059514E0],"split_indices":[0,0,0,0,0,0,0,0,0,0,0,0,0,0,0,0,0,0,0,0,0,0,0,0,0],"split_type":[0,0,0,0,0,0,0,0,0,0,0,0,0,0,0,0,0,0,0,0,0,0,0,0,0],"sum_hessian":[4.4E1,2.1E1,2.3E1,5E0,1.6E1,2E1,3E0,6E0,1E1,4E0,1.6E1,1E0,2E0,4E0,6E0,1E1,6E0,1E0,1E0,1E0,3E0,5E0,1E0,1E0,9E0],"tree_param":{"num_deleted":"0","num_feature":"1","num_nodes":"25","size_leaf_vector":"1"}},{"base_weights":[-7.193218E1,-9.600052E2,1.9613893E2,-1.0963965E1,-3.8237522E0,-1.8772113E2,3.5992227E2,-1.9573947E0,-3.82041E-1,4.32033E2,-4.6347656E1,1.296087E0,5.0326044E2,-1.1136817E0,5.2240667E0,6.3548107E0,2.776597E0,2.8344727E-1,-3.0279297E-1],"categories":[],"categories_nodes":[],"categories_segments":[],"categories_sizes":[],"default_left":[0,0,0,0,0,0,0,0,0,0,0,0,0,0,0,0,0,0,0],"id":15,"left_children":[1,3,5,-1,-1,7,9,-1,-1,11,13,-1,15,-1,17,-1,-1,-1,-1],"loss_changes":[1.1828677E7,2.77161E5,2.5218382E6,0E0,0E0,3.7689062E3,8.356865E5,0E0,0E0,4.08371E5,1.9315398E4,0E0,2.871665E5,0E0,4.9812627E3,0E0,0E0,0E0,0E0],"parents":[2147483647,0,0,1,1,2,2,5,5,6,6,9,9,10,10,12,12,14,14],"right_children":[2,4,6,-1,-1,8,10,-1,-1,12,14,-1,16,-1,18,-1,-1,-1,-1],"split_conditions":[1.2E1,9E0,2.8E1,-1.0963965E1,-3.8237522E0,2.5E1,6E1,-1.9573947E0,-3.82041E-1,3.4E1,6.1E1,1.296087E0,5.1E1,-1.1136817E0,6.3E1,6.3548107E0,2.776597E0,2.8344727E-1,-3.0279297E-1],"split_indices":[0,0,0,0,0,0,0,0,0,0,0,0,0,0,0,0,0,0,0],"split_type":[0,0,0,0,0,0,0,0,0,0,0,0,0,0,0,0,0,0,0],"sum_hessian":[4.7E1,1E1,3.7E1,7E0,3E0,1.1E1,2.6E1,1E1,1E0,2.2E1,4E0,5E0,1.7E1,1E0,3E0,9E0,8E0,2E0,1E0],"tree_param":{"num_deleted":"0","num_feature":"1","num_nodes":"19","size_leaf_vector":"1"}},{"base_weights":[-5.5084972E1,-1.0032047E3,1.990387E2,-1.0986381E1,-3.41493E0,-1.1472701E2,4.6973047E2,-1.8000983E2,1.0054101E0,5.7218976E2,1.6403522E2,-1.8586372E0,-3.8051367E-1,1.9197732E0,6.404034E0,2.0575E0,2.8182617E-1],"categories":[],"categories_nodes":[],"categories_segments":[],"categories_sizes":[],"default_left":[0,0,0,0,0,0,0,0,0,0,0,0,0,0,0,0,0],"id":16,"left_children":[1,3,5,-1,-1,7,9,11,-1,13,15,-1,-1,-1,-1,-1,-1],"loss_changes":[1.1985088E7,1.00303E5,3.4357212E6,0E0,0E0,3.0118694E5,5.32619E5,2.272125E3,0E0,2.17589E5,3.3805094E4,0E0,0E0,0E0,0E0,0E0,0E0],"parents":[2147483647,0,0,1,1,2,2,5,5,6,6,7,7,9,9,10,10],"right_children":[2,4,6,-1,-1,8,10,12,-1,14,16,-1,-1,-1,-1,-1,-1],"split_conditions":[1.1E1,9E0,3.2E1,-1.0986381E1,-3.41493E0,2.8E1,5.2E1,2.6E1,1.0054101E0,3.6E1,6E1,-1.8586372E0,-3.8051367E-1,1.9197732E0,6.404034E0,2.0575E0,2.8182617E-1],"split_indices":[0,0,0,0,0,0,0,0,0,0,0,0,0,0,0,0,0],"split_type":[0,0,0,0,0,0,0,0,0,0,0,0,0,0,0,0,0],"sum_hessian":[4.7E1,9E0,3.8E1,7E0,2E0,1.8E1,2E1,1.4E1,4E0,1.4E1,6E0,1.3E1,1E0,3E0,1.1E1,4E0,2E0],"tree_param":{"num_deleted":"0","num_feature":"1","num_nodes":"17","size_leaf_vector":"1"}},{"base_weights":[-3.0186678E1,-1.0208868E3,2.4118036E2,-1.1761336E1,-4.218464E0,-8.824707E1,4.5708597E2,-1.3984776E2,9.59707E-1,5.451463E2,1.6019466E2,-8.789767E1,-1.9143945E0,2.256123E0,5.879176E2,2.195949E0,-1.8034319E0,-1.6452734E0,1.2704101E-1,6.783349E0,3.2009592E0,2.7746093E-1,-3.0270898E-1],"categories":[],"categories_nodes":[],"categories_segments":[],"categories_sizes":[],"default_left":[0,0,0,0,0,0,0,0,0,0,0,0,0,0,0,0,0,0,0,0,0,0,0],"id":17,"left_children":[1,3,5,-1,-1,7,9,11,-1,13,15,17,-1,-1,19,-1,21,-1,-1,-1,-1,-1,-1],"loss_changes":[1.3139386E7,2.32269E5,2.7988265E6,0E0,0E0,1.7697706E5,4.833975E5,1.0942E4,0E0,4.02085E4,7.276447E4,7.637153E4,0E0,0E0,2.54295E4,0E0,4.2040493E3,0E0,0E0,0E0,0E0,0E0,0E0],"parents":[2147483647,0,0,1,1,2,2,5,5,6,6,7,7,9,9,10,10,11,11,14,14,16,16],"right_children":[2,4,6,-1,-1,8,10,12,-1,14,16,18,-1,-1,20,-1,22,-1,-1,-1,-1,-1,-1],"split_conditions":[1.2E1,8E0,3.2E1,-1.1761336E1,-4.218464E0,2.7E1,5.5E1,2.1E1,9.59707E-1,3.6E1,6E1,1.7E1,-1.9143945E0,2.256123E0,4.6E1,2.195949E0,6.3E1,-1.6452734E0,1.2704101E-1,6.783349E0,3.2009592E0,2.7746093E-1,-3.0270898E-1],"split_indices":[0,0,0,0,0,0,0,0,0,0,0,0,0,0,0,0,0,0,0,0,0,0,0],"split_type":[0,0,0,0,0,0,0,0,0,0,0,0,0,0,0,0,0,0,0,0,0,0,0],"sum_hessian":[4.6E1,9E0,3.7E1,6E0,3E0,1.5E1,2.2E1,1.2E1,3E0,1.6E1,6E0,8E0,4E0,3E0,1.3E1,4E0,2E0,4E0,4E0,8E0,5E0,1E0,1E0],"tree_param":{"num_deleted":"0","num_feature":"1","num_nodes":"23","size_leaf_vector":"1"}},{"base_weights":[1.3407838E1,-1.0373514E3,2.9403043E2,-1.0996382E1,-2.03166E0,-4.6512226E1,4.708934E2,-1.6013379E2,1.1280341E0,5.852949E2,1.0977786E2,-1.9167818E0,-6.820161E1,6.5424347E2,3.1763349E0,1.9504848E0,-7.1266464E1,-2.4728514E-2,-8.5921454E-1,2.0847461E0,7.0936975E0,-1.1114628E0,1.1373242E-1],"categories":[],"categories_nodes":[],"categories_segments":[],"categories_sizes":[],"default_left":[0,0,0,0,0,0,0,0,0,0,0,0,0,0,0,0,0,0,0,0,0,0,0],"id":18,"left_children":[1,3,5,-1,-1,7,9,11,-1,13,15,-1,17,19,-1,-1,21,-1,-1,-1,-1,-1,-1],"loss_changes":[1.3284225E7,1.58493E5,2.1709965E6,0E0,0E0,2.714683E5,8.744575E5,5.0403906E3,0E0,1.12455E4,1.3663381E5,0E0,4.922459E3,8.53415E4,0E0,0E0,1.3430941E4,0E0,0E0,0E0,0E0,0E0,0E0],"parents":[2147483647,0,0,1,1,2,2,5,5,6,6,7,7,9,9,10,10,12,12,13,13,16,16],"right_children":[2,4,6,-1,-1,8,10,12,-1,14,16,-1,18,20,-1,-1,22,-1,-1,-1,-1,-1,-1],"split_conditions":[1.2E1,8E0,3.3E1,-1.0996382E1,-2.03166E0,2.7E1,5.5E1,1.6E1,1.1280341E0,4.9E1,6E1,-1.9167818E0,1.8E1,3.6E1,3.1763349E0,1.9504848E0,6.1E1,-2.4728514E-2,-8.5921454E-1,2.0847461E0,7.0936975E0,-1.1114628E0,1.1373242E-1],"split_indices":[0,0,0,0,0,0,0,0,0,0,0,0,0,0,0,0,0,0,0,0,0,0,0],"split_type":[0,0,0,0,0,0,0,0,0,0,0,0,0,0,0,0,0,0,0,0,0,0,0],"sum_hessian":[4.2E1,8E0,3.4E1,7E0,1E0,1.2E1,2.2E1,7E0,5E0,1.6E1,6E0,4E0,3E0,1.1E1,5E0,4E0,2E0,1E0,2E0,2E0,9E0,1E0,1E0],"tree_param":{"num_deleted":"0","num_feature":"1","num_nodes":"23","size_leaf_vector":"1"}},{"base_weights":[-1.8966387E1,-1.00663745E3,2.3779893E2,-1.1707006E1,-3.9765282E0,-1.405311E2,4.6861255E2,-1.7943608E2,8.0874306E-1,6.6427094E2,1.4377573E2,-1.8555465E0,-3.873418E-1,1.3725528E0,6.86418E0,2.5444934E0,-4.6354404E1,-1.1070175E0,4.8455942E-2],"categories":[],"categories_nodes":[],"categories_segments":[],"categories_sizes":[],"default_left":[0,0,0,0,0,0,0,0,0,0,0,0,0,0,0,0,0,0,0],"id":19,"left_children":[1,3,5,-1,-1,7,9,11,-1,13,15,-1,-1,-1,-1,-1,17,-1,-1],"loss_changes":[1.291225E7,3.50778E5,3.635393E6,0E0,0E0,1.638949E5,1.477446E6,1.7020312E3,0E0,3.9592E4,2.5967977E5,0E0,0E0,0E0,0E0,0E0,1.8924836E4,0E0,0E0],"parents":[2147483647,0,0,1,1,2,2,5,5,6,6,7,7,9,9,10,10,16,16],"right_children":[2,4,6,-1,-1,8,10,12,-1,14,16,-1,-1,-1,-1,-1,18,-1,-1],"split_conditions":[1.2E1,7E0,3.2E1,-1.1707006E1,-3.9765282E0,2.8E1,5.2E1,2.7E1,8.0874306E-1,3.5E1,6E1,-1.8555465E0,-3.873418E-1,1.3725528E0,6.86418E0,2.5444934E0,6.1E1,-1.1070175E0,4.8455942E-2],"split_indices":[0,0,0,0,0,0,0,0,0,0,0,0,0,0,0,0,0,0,0],"split_type":[0,0,0,0,0,0,0,0,0,0,0,0,0,0,0,0,0,0,0],"sum_hessian":[4.8E1,9E0,3.9E1,6E0,3E0,1.5E1,2.4E1,1.3E1,2E0,1.4E1,1E1,1.2E1,1E0,1E0,1.3E1,6E0,4E0,1E0,3E0],"tree_param":{"num_deleted":"0","num_feature":"1","num_nodes":"19","size_leaf_vector":"1"}},{"base_weights":[-6.123098E1,-9.281815E2,2.0211186E2,-1.0455179E1,-3.7107756E0,-1.2679545E2,4.3809625E2,-1.768612E2,8.79184E-1,5.365378E2,1.07654625E2,-1.8240692E2,-3.8579294E-1,1.7838639E0,5.885942E2,1.9177929E0,-7.067899E1,-1.1240573E0,-2.252602E0,7.117472E0,3.148815E0,-1.1025898E0,1.1308398E-1],"categories":[],"categories_nodes":[],"categories_segments":[],"categories_sizes":[],"default_left":[0,0,0,0,0,0,0,0,0,0,0,0,0,0,0,0,0,0,0,0,0,0,0],"id":20,"left_children":[1,3,5,-1,-1,7,9,11,-1,13,15,17,-1,-1,19,-1,21,-1,-1,-1,-1,-1,-1],"loss_changes":[1.2267418E7,2.35156E5,3.3044278E6,0E0,0E0,2.2219553E5,7.10324E5,1.3308125E3,0E0,1.874195E5,1.3284906E5,5.5160625E3,0E0,0E0,1.863085E5,0E0,1.322799E4,0E0,0E0,0E0,0E0,0E0,0E0],"parents":[2147483647,0,0,1,1,2,2,5,5,6,6,7,7,9,9,10,10,11,11,14,14,16,16],"right_children":[2,4,6,-1,-1,8,10,12,-1,14,16,18,-1,-1,20,-1,22,-1,-1,-1,-1,-1,-1],"split_conditions":[1.2E1,9E0,3.2E1,-1.0455179E1,-3.7107756E0,2.8E1,5.6E1,2.7E1,8.79184E-1,3.5E1,6E1,2.1E1,-3.8579294E-1,1.7838639E0,4.9E1,1.9177929E0,6.1E1,-1.1240573E0,-2.252602E0,7.117472E0,3.148815E0,-1.1025898E0,1.1308398E-1],"split_indices":[0,0,0,0,0,0,0,0,0,0,0,0,0,0,0,0,0,0,0,0,0,0,0],"split_type":[0,0,0,0,0,0,0,0,0,0,0,0,0,0,0,0,0,0,0,0,0,0,0],"sum_hessian":[5.1E1,1.1E1,4E1,8E0,3E0,1.7E1,2.3E1,1.4E1,3E0,1.7E1,6E0,1.3E1,1E0,3E0,1.4E1,4E0,2E0,7E0,6E0,8E0,6E0,1E0,1E0],"tree_param":{"num_deleted":"0","num_feature":"1","num_nodes":"23","size_leaf_vector":"1"}},{"base_weights":[4.9614873E0,-1.0001771E3,2.788969E2,-1.1033344E1,-3.2100472E0,-7.3764824E1,5.0870853E2,-1.3982687E2,9.649387E-1,6.007653E2,1.9216757E2,-8.0984505E1,-1.7545418E2,2.1820822E0,6.5734186E0,2.3337026E0,-3.025996E-1,-1.4272211E0,7.747938E-2,-1.8988901E0,-3.8425E-1],"categories":[],"categories_nodes":[],"categories_segments":[],"categories_sizes":[],"default_left":[0,0,0,0,0,0,0,0,0,0,0,0,0,0,0,0,0,0,0,0,0],"id":21,"left_children":[1,3,5,-1,-1,7,9,11,-1,13,15,17,19,-1,-1,-1,-1,-1,-1,-1,-1],"loss_changes":[1.3497215E7,2.04384E5,3.176549E6,0E0,0E0,2.0582469E5,5.11613E5,4.891328E3,0E0,1.63609E5,7.932725E4,4.2744676E4,1.91225E3,0E0,0E0,0E0,0E0,0E0,0E0,0E0,0E0],"parents":[2147483647,0,0,1,1,2,2,5,5,6,6,7,7,9,9,10,10,11,11,12,12],"right_children":[2,4,6,-1,-1,8,10,12,-1,14,16,18,20,-1,-1,-1,-1,-1,-1,-1,-1],"split_conditions":[1.2E1,8E0,3.3E1,-1.1033344E1,-3.2100472E0,2.8E1,5.2E1,2.1E1,9.649387E-1,3.6E1,5.8E1,1.5E1,2.7E1,2.1820822E0,6.5734186E0,2.3337026E0,-3.025996E-1,-1.4272211E0,7.747938E-2,-1.8988901E0,-3.8425E-1],"split_indices":[0,0,0,0,0,0,0,0,0,0,0,0,0,0,0,0,0,0,0,0,0],"split_type":[0,0,0,0,0,0,0,0,0,0,0,0,0,0,0,0,0,0,0,0,0],"sum_hessian":[4.6E1,9E0,3.7E1,7E0,2E0,1.5E1,2.2E1,1.1E1,4E0,1.6E1,6E0,6E0,5E0,3E0,1.3E1,5E0,1E0,3E0,3E0,4E0,1E0],"tree_param":{"num_deleted":"0","num_feature":"1","num_nodes":"21","size_leaf_vector":"1"}},{"base_weights":[1.6853485E1,-9.5187775E2,2.3800208E2,-1.1081102E1,-4.0891604E0,-7.1646034E1,4.3650558E2,-1.101935E2,7.644444E-1,5.760122E2,1.1059771E2,-7.280356E1,-1.3941106E0,6.4709845E2,3.06382E0,2.1104724E0,-7.136198E1,-1.4094708E0,1.5195489E-1,2.0113964E0,7.0330877E0,-1.0969688E0,-1.3396205E-1],"categories":[],"categories_nodes":[],"categories_segments":[],"categories_sizes":[],"default_left":[0,0,0,0,0,0,0,0,0,0,0,0,0,0,0,0,0,0,0,0,0,0,0],"id":22,"left_children":[1,3,5,-1,-1,7,9,11,-1,13,15,17,-1,19,-1,-1,21,-1,-1,-1,-1,-1,-1],"loss_changes":[1.0944384E7,1.26182E5,2.5977592E6,0E0,0E0,1.1253448E5,1.0638325E6,6.159844E2,0E0,3.80335E4,1.9622994E5,6.018002E4,0E0,1.011485E5,0E0,0E0,7.7952207E3,0E0,0E0,0E0,0E0,0E0,0E0],"parents":[2147483647,0,0,1,1,2,2,5,5,6,6,7,7,9,9,10,10,11,11,13,13,16,16],"right_children":[2,4,6,-1,-1,8,10,12,-1,14,16,18,-1,20,-1,-1,22,-1,-1,-1,-1,-1,-1],"split_conditions":[1.2E1,8E0,3.2E1,-1.1081102E1,-4.0891604E0,2.8E1,5.5E1,2.1E1,7.644444E-1,4.9E1,6E1,1.7E1,-1.3941106E0,3.6E1,3.06382E0,2.1104724E0,6.1E1,-1.4094708E0,1.5195489E-1,2.0113964E0,7.0330877E0,-1.0969688E0,-1.3396205E-1],"split_indices":[0,0,0,0,0,0,0,0,0,0,0,0,0,0,0,0,0,0,0,0,0,0,0],"split_type":[0,0,0,0,0,0,0,0,0,0,0,0,0,0,0,0,0,0,0,0,0,0,0],"sum_hessian":[4.8E1,8E0,4E1,5E0,3E0,1.6E1,2.4E1,1.3E1,3E0,1.6E1,8E0,8E0,5E0,1.1E1,5E0,5E0,3E0,4E0,4E0,2E0,9E0,1E0,2E0],"tree_param":{"num_deleted":"0","num_feature":"1","num_nodes":"23","size_leaf_vector":"1"}},{"base_weights":[3.7944324E1,-1.01824884E3,2.84288E2,-1.0759369E1,-2.1116016E0,-1.2857198E2,4.6489072E2,-1.4998801E0,5.5651367E-1,5.4381757E2,7.225736E1,2.0912774E0,5.9638513E2,1.4968196E0,-5.8256E1,6.7039227E0,2.9366498E0,-1.0925801E0,2.769961E-1],"categories":[],"categories_nodes":[],"categories_segments":[],"categories_sizes":[],"default_left":[0,0,0,0,0,0,0,0,0,0,0,0,0,0,0,0,0,0,0],"id":23,"left_children":[1,3,5,-1,-1,7,9,-1,-1,11,13,-1,15,-1,17,-1,-1,-1,-1],"loss_changes":[1.305326E7,1.01523E5,3.1094848E6,0E0,0E0,6.578255E4,8.24253E5,0E0,0E0,2.263745E5,7.876195E4,0E0,1.41561E5,0E0,1.988329E4,0E0,0E0,0E0,0E0],"parents":[2147483647,0,0,1,1,2,2,5,5,6,6,9,9,10,10,12,12,14,14],"right_children":[2,4,6,-1,-1,8,10,-1,-1,12,14,-1,16,-1,18,-1,-1,-1,-1],"split_conditions":[1.1E1,9E0,3.1E1,-1.0759369E1,-2.1116016E0,2.5E1,5.6E1,-1.4998801E0,5.5651367E-1,3.6E1,6E1,2.0912774E0,5.1E1,1.4968196E0,6.1E1,6.7039227E0,2.9366498E0,-1.0925801E0,2.769961E-1],"split_indices":[0,0,0,0,0,0,0,0,0,0,0,0,0,0,0,0,0,0,0],"split_type":[0,0,0,0,0,0,0,0,0,0,0,0,0,0,0,0,0,0,0],"sum_hessian":[4.7E1,8E0,3.9E1,7E0,1E0,1.2E1,2.7E1,1.1E1,1E0,2.2E1,5E0,4E0,1.8E1,3E0,2E0,1.3E1,5E0,1E0,1E0],"tree_param":{"num_deleted":"0","num_feature":"1","num_nodes":"19","size_leaf_vector":"1"}},{"base_weights":[-6.758008E1,-8.66369E2,2.2725938E2,-9.802527E0,-3.6246548E0,-1.1473199E2,4.4654114E2,-1.5446599E0,6.499345E-1,5.539466E2,2.2069159E1,6.0315366E0,2.3261132E0,1.3397795E0,-9.929785E-1],"categories":[],"categories_nodes":[],"categories_segments":[],"categories_sizes":[],"default_left":[0,0,0,0,0,0,0,0,0,0,0,0,0,0,0],"id":24,"left_children":[1,3,5,-1,-1,7,9,-1,-1,11,13,-1,-1,-1,-1],"loss_changes":[1.0069188E7,1.26982E5,2.4391115E6,0E0,0E0,1.11465266E5,8.7067925E5,0E0,0E0,3.4635E4,9.465678E4,0E0,0E0,0E0,0E0],"parents":[2147483647,0,0,1,1,2,2,5,5,6,6,9,9,10,10],"right_children":[2,4,6,-1,-1,8,10,-1,-1,12,14,-1,-1,-1,-1],"split_conditions":[1.2E1,9E0,3.2E1,-9.802527E0,-3.6246548E0,2.6E1,5.6E1,-1.5446599E0,6.499345E-1,5.1E1,6E1,6.0315366E0,2.3261132E0,1.3397795E0,-9.929785E-1],"split_indices":[0,0,0,0,0,0,0,0,0,0,0,0,0,0,0],"split_type":[0,0,0,0,0,0,0,0,0,0,0,0,0,0,0],"sum_hessian":[4E1,1E1,3E1,7E0,3E0,1.2E1,1.8E1,1E1,2E0,1.4E1,4E0,1.1E1,3E0,2E0,2E0],"tree_param":{"num_deleted":"0","num_feature":"1","num_nodes":"15","size_leaf_vector":"1"}},{"base_weights":[1.8705677E1,-5.6806573E2,4.4942206E2,-1.0194976E1,-1.9292418E2,1.5085052E0,5.449977E2,-2.0139666E0,-3.819629E-1,6.7091785E2,2.0934193E2,1.4242188E0,6.9610686E0,2.3703907E0,1.1724218E-1],"categories":[],"categories_nodes":[],"categories_segments":[],"categories_sizes":[],"default_left":[0,0,0,0,0,0,0,0,0,0,0,0,0,0,0],"id":25,"left_children":[1,3,5,-1,7,-1,9,-1,-1,11,13,-1,-1,-1,-1],"loss_changes":[1.1629529E7,3.0073135E6,6.328885E5,0E0,4.8477188E3,0E0,6.13507E5,0E0,0E0,3.1005E4,3.6882156E4,0E0,0E0,0E0,0E0],"parents":[2147483647,0,0,1,1,2,2,4,4,6,6,9,9,10,10],"right_children":[2,4,6,-1,8,-1,10,-1,-1,12,14,-1,-1,-1,-1],"split_conditions":[2.8E1,9E0,3.5E1,-1.0194976E1,2.7E1,1.5085052E0,5.1E1,-2.0139666E0,-3.819629E-1,3.6E1,6E1,1.4242188E0,6.9610686E0,2.3703907E0,1.1724218E-1],"split_indices":[0,0,0,0,0,0,0,0,0,0,0,0,0,0,0],"split_type":[0,0,0,0,0,0,0,0,0,0,0,0,0,0,0],"sum_hessian":[4.3E1,1.8E1,2.5E1,7E0,1.1E1,7E0,1.8E1,1E1,1E0,1.2E1,6E0,1E0,1.1E1,5E0,1E0],"tree_param":{"num_deleted":"0","num_feature":"1","num_nodes":"15","size_leaf_vector":"1"}},{"base_weights":[4.153342E1,-4.070894E2,3.9000943E2,-8.464504E0,-1.5509958E2,4.6689398E2,-4.486346E1,-9.263199E1,-2.0320528E2,1.1912304E0,5.512275E2,-1.084705E0,5.428277E0,-1.7876474E2,1.8764027E1,-2.1983547E0,-3.8043556E-1,5.825159E0,1.6748437E0,2.8297573E-1,-2.9845703E-1,-2.1915584E0,-6.176018E-1,3.8388777E-1,-2.7818945E-1],"categories":[],"categories_nodes":[],"categories_segments":[],"categories_sizes":[],"default_left":[0,0,0,0,0,0,0,0,0,0,0,0,0,0,0,0,0,0,0,0,0,0,0,0,0],"id":26,"left_children":[1,3,5,-1,7,9,11,13,15,-1,17,-1,19,21,23,-1,-1,-1,-1,-1,-1,-1,-1,-1,-1],"loss_changes":[7.6640315E6,2.1834355E6,9.5088225E5,0E0,1.834325E4,5.907295E5,1.847721E4,9.618253E4,8.0550938E3,0E0,7.5781E4,0E0,4.8969517E3,5.690047E3,6.629889E3,0E0,0E0,0E0,0E0,0E0,0E0,0E0,0E0,0E0,0E0],"parents":[2147483647,0,0,1,1,2,2,4,4,5,5,6,6,7,7,8,8,10,10,12,12,13,13,14,14],"right_children":[2,4,6,-1,8,10,12,14,16,-1,18,-1,20,22,24,-1,-1,-1,-1,-1,-1,-1,-1,-1,-1],"split_conditions":[2.8E1,1.1E1,5.9E1,-8.464504E0,2.1E1,3.4E1,6.1E1,1.7E1,2.7E1,1.1912304E0,5.5E1,-1.084705E0,6.3E1,1.3E1,2E1,-2.1983547E0,-3.8043556E-1,5.825159E0,1.6748437E0,2.8297573E-1,-2.9845703E-1,-2.1915584E0,-6.176018E-1,3.8388777E-1,-2.7818945E-1],"split_indices":[0,0,0,0,0,0,0,0,0,0,0,0,0,0,0,0,0,0,0,0,0,0,0,0,0],"split_type":[0,0,0,0,0,0,0,0,0,0,0,0,0,0,0,0,0,0,0,0,0,0,0,0,0],"sum_hessian":[4.6E1,2E1,2.6E1,6E0,1.4E1,2.2E1,4E0,8E0,6E0,5E0,1.7E1,1E0,3E0,4E0,4E0,5E0,1E0,1.5E1,2E0,2E0,1E0,2E0,2E0,3E0,1E0],"tree_param":{"num_deleted":"0","num_feature":"1","num_nodes":"25","size_leaf_vector":"1"}},{"base_weights":[1.191641E1,-9.225188E2,2.3705882E2,-1.0227288E1,-2.8378627E0,-5.9706398E1,4.3081613E2,-1.3217528E2,1.0458428E0,5.624295E2,1.06492805E2,-8.350701E1,-1.653164E2,6.013618E2,2.4085274E0,2.041814E0,-7.0110565E1,-1.6025594E0,3.8132918E-1,-1.7815057E0,-3.7891406E-1,1.2813281E0,6.2074323E0,-1.0803672E0,-1.2973075E-1],"categories":[],"categories_nodes":[],"categories_segments":[],"categories_sizes":[],"default_left":[0,0,0,0,0,0,0,0,0,0,0,0,0,0,0,0,0,0,0,0,0,0,0,0,0],"id":27,"left_children":[1,3,5,-1,-1,7,9,11,-1,13,15,17,19,21,-1,-1,23,-1,-1,-1,-1,-1,-1,-1,-1],"loss_changes":[1.1373039E7,2.36723E5,2.539853E6,0E0,0E0,2.4099545E5,1.041318E6,1.0668281E3,0E0,1.43555E4,1.8536822E5,8.852028E4,5.0448438E2,2.2857E4,0E0,0E0,7.649172E3,0E0,0E0,0E0,0E0,0E0,0E0,0E0,0E0],"parents":[2147483647,0,0,1,1,2,2,5,5,6,6,7,7,9,9,10,10,11,11,12,12,13,13,16,16],"right_children":[2,4,6,-1,-1,8,10,12,-1,14,16,18,20,22,-1,-1,24,-1,-1,-1,-1,-1,-1,-1,-1],"split_conditions":[1.2E1,8E0,3.3E1,-1.0227288E1,-2.8378627E0,2.8E1,5.5E1,2E1,1.0458428E0,5.2E1,6E1,1.7E1,2.6E1,3.5E1,2.4085274E0,2.041814E0,6.1E1,-1.6025594E0,3.8132918E-1,-1.7815057E0,-3.7891406E-1,1.2813281E0,6.2074323E0,-1.0803672E0,-1.2973075E-1],"split_indices":[0,0,0,0,0,0,0,0,0,0,0,0,0,0,0,0,0,0,0,0,0,0,0,0,0],"split_type":[0,0,0,0,0,0,0,0,0,0,0,0,0,0,0,0,0,0,0,0,0,0,0,0,0],"sum_hessian":[5.1E1,9E0,4.2E1,7E0,2E0,1.7E1,2.5E1,1.2E1,5E0,1.7E1,8E0,7E0,5E0,1.4E1,3E0,5E0,3E0,4E0,3E0,4E0,1E0,1E0,1.3E1,1E0,2E0],"tree_param":{"num_deleted":"0","num_feature":"1","num_nodes":"25","size_leaf_vector":"1"}},{"base_weights":[-7.927143E1,-9.898278E0,2.1904704E2,-1.5070383E2,3.942844E2,-4.217533E1,-2.146211E0,4.508071E2,7.607679E1,-1.0749149E0,2.268457E1,1.8698196E0,5.4063315E0,1.0946853E0,-2.9674414E-1,4.8447964E-1,-2.6994923E-1],"categories":[],"categories_nodes":[],"categories_segments":[],"categories_sizes":[],"default_left":[0,0,0,0,0,0,0,0,0,0,0,0,0,0,0,0,0],"id":28,"left_children":[1,-1,3,5,7,9,-1,11,13,-1,15,-1,-1,-1,-1,-1,-1],"loss_changes":[1.2684657E7,0E0,2.389323E6,7.3133E4,3.89212E5,3.1194195E4,0E0,3.3418375E5,2.429431E4,0E0,7.7213784E3,0E0,0E0,0E0,0E0,0E0,0E0],"parents":[2147483647,0,0,2,2,3,3,4,4,5,5,7,7,8,8,10,10],"right_children":[2,-1,4,6,8,10,-1,12,14,-1,16,-1,-1,-1,-1,-1,-1],"split_conditions":[1E1,-9.898278E0,2.7E1,2.1E1,5.5E1,1.7E1,-2.146211E0,3.6E1,6.3E1,-1.0749149E0,2E1,1.8698196E0,5.4063315E0,1.0946853E0,-2.9674414E-1,4.8447964E-1,-2.6994923E-1],"split_indices":[0,0,0,0,0,0,0,0,0,0,0,0,0,0,0,0,0],"split_type":[0,0,0,0,0,0,0,0,0,0,0,0,0,0,0,0,0],"sum_hessian":[4.4E1,1E1,3.4E1,1.1E1,2.3E1,5E0,6E0,1.9E1,4E0,2E0,3E0,6E0,1.3E1,3E0,1E0,2E0,1E0],"tree_param":{"num_deleted":"0","num_feature":"1","num_nodes":"17","size_leaf_vector":"1"}},{"base_weights":[-3.8856857E1,-9.3881067E2,2.0603146E2,-1.0757548E1,-3.6720123E0,-1.0181041E2,3.976611E2,-1.4810265E2,8.129025E-1,5.03943E2,2.762513E1,-6.478895E1,-2.1290429E0,2.0296135E0,5.381431E2,1.2989662E0,-4.4990856E1,-1.4499773E0,1.8506126E-1,6.384687E0,3.192451E0,-1.0804238E0,5.0347224E-2],"categories":[],"categories_nodes":[],"categories_segments":[],"categories_sizes":[],"default_left":[0,0,0,0,0,0,0,0,0,0,0,0,0,0,0,0,0,0,0,0,0,0,0],"id":29,"left_children":[1,3,5,-1,-1,7,9,11,-1,13,15,17,-1,-1,19,-1,21,-1,-1,-1,-1,-1,-1],"loss_changes":[1.1860516E7,3.07677E5,2.5678735E6,0E0,0E0,1.6639138E5,1.021313E6,5.759278E4,0E0,4.71855E4,6.446533E4,6.0813492E4,0E0,0E0,7.8577E4,0E0,1.8163984E4,0E0,0E0,0E0,0E0,0E0,0E0],"parents":[2147483647,0,0,1,1,2,2,5,5,6,6,7,7,9,9,10,10,11,11,14,14,16,16],"right_children":[2,4,6,-1,-1,8,10,12,-1,14,16,18,-1,-1,20,-1,22,-1,-1,-1,-1,-1,-1],"split_conditions":[1.2E1,8E0,3.2E1,-1.0757548E1,-3.6720123E0,2.7E1,5.6E1,2.1E1,8.129025E-1,3.6E1,6E1,1.7E1,-2.1290429E0,2.0296135E0,4.8E1,1.2989662E0,6.1E1,-1.4499773E0,1.8506126E-1,6.384687E0,3.192451E0,-1.0804238E0,5.0347224E-2],"split_indices":[0,0,0,0,0,0,0,0,0,0,0,0,0,0,0,0,0,0,0,0,0,0,0],"split_type":[0,0,0,0,0,0,0,0,0,0,0,0,0,0,0,0,0,0,0,0,0,0,0],"sum_hessian":[5.1E1,1E1,4.1E1,7E0,3E0,1.6E1,2.5E1,1.3E1,3E0,1.9E1,6E0,7E0,6E0,3E0,1.6E1,2E0,4E0,3E0,4E0,9E0,7E0,1E0,3E0],"tree_param":{"num_deleted":"0","num_feature":"1","num_nodes":"23","size_leaf_vector":"1"}},{"base_weights":[-4.3432617E1,-9.245302E2,2.6097845E2,-1.066896E1,-3.474403E0,-5.1389378E1,4.6282556E2,-1.2391792E2,1.0108948E0,5.7243677E2,2.0706215E2,-6.141256E1,-1.639921E0,1.0135487E0,5.9796066E0,2.309511E0,1.11580074E-1,-1.0040288E0,1.5037528E-1],"categories":[],"categories_nodes":[],"categories_segments":[],"categories_sizes":[],"default_left":[0,0,0,0,0,0,0,0,0,0,0,0,0,0,0,0,0,0,0],"id":30,"left_children":[1,3,5,-1,-1,7,9,11,-1,13,15,17,-1,-1,-1,-1,-1,-1,-1],"loss_changes":[1.2029314E7,3.88791E5,2.1478695E6,0E0,0E0,1.7914672E5,3.96913E5,1.1194172E4,0E0,7.1413E4,3.5914094E4,2.1640006E4,0E0,0E0,0E0,0E0,0E0,0E0,0E0],"parents":[2147483647,0,0,1,1,2,2,5,5,6,6,7,7,9,9,10,10,11,11],"right_children":[2,4,6,-1,-1,8,10,12,-1,14,16,18,-1,-1,-1,-1,-1,-1,-1],"split_conditions":[1.2E1,8E0,3.3E1,-1.066896E1,-3.474403E0,2.8E1,5.2E1,1.9E1,1.0108948E0,3.4E1,6E1,1.7E1,-1.639921E0,1.0135487E0,5.9796066E0,2.309511E0,1.11580074E-1,-1.0040288E0,1.5037528E-1],"split_indices":[0,0,0,0,0,0,0,0,0,0,0,0,0,0,0,0,0,0,0],"split_type":[0,0,0,0,0,0,0,0,0,0,0,0,0,0,0,0,0,0,0],"sum_hessian":[4.2E1,1E1,3.2E1,7E0,3E0,1.3E1,1.9E1,9E0,4E0,1.2E1,7E0,5E0,4E0,1E0,1.1E1,6E0,1E0,3E0,2E0],"tree_param":{"num_deleted":"0","num_feature":"1","num_nodes":"19","size_leaf_vector":"1"}},{"base_weights":[-1.2346893E1,-9.387585E2,2.1169547E2,-1.03582735E1,-3.006946E0,-8.988508E1,4.510774E2,-1.4512686E2,1.003544E0,5.4664136E2,1.251375E2,-7.631928E1,-1.9641882E2,1.9872537E0,5.9474845E0,1.7166264E0,-1.6037947E0,-1.5073749E0,1.8913263E-1,-2.0988905E0,-3.8156837E-1,2.7375194E-1,-2.9620507E-1],"categories":[],"categories_nodes":[],"categories_segments":[],"categories_sizes":[],"default_left":[0,0,0,0,0,0,0,0,0,0,0,0,0,0,0,0,0,0,0,0,0,0,0],"id":31,"left_children":[1,3,5,-1,-1,7,9,11,-1,13,15,17,19,-1,-1,-1,21,-1,-1,-1,-1,-1,-1],"loss_changes":[1.1194757E7,1.83128E5,3.2012105E6,0E0,0E0,2.3728416E5,6.605205E5,3.574722E4,0E0,1.323515E5,4.4637883E4,7.160325E4,6.1074688E3,0E0,0E0,0E0,4.057937E3,0E0,0E0,0E0,0E0,0E0,0E0],"parents":[2147483647,0,0,1,1,2,2,5,5,6,6,7,7,9,9,10,10,11,11,12,12,16,16],"right_children":[2,4,6,-1,-1,8,10,12,-1,14,16,18,20,-1,-1,-1,22,-1,-1,-1,-1,-1,-1],"split_conditions":[1.2E1,8E0,3.3E1,-1.03582735E1,-3.006946E0,2.8E1,5.5E1,2.1E1,1.003544E0,3.6E1,6E1,1.7E1,2.7E1,1.9872537E0,5.9474845E0,1.7166264E0,6.3E1,-1.5073749E0,1.8913263E-1,-2.0988905E0,-3.8156837E-1,2.7375194E-1,-2.9620507E-1],"split_indices":[0,0,0,0,0,0,0,0,0,0,0,0,0,0,0,0,0,0,0,0,0,0,0],"split_type":[0,0,0,0,0,0,0,0,0,0,0,0,0,0,0,0,0,0,0,0,0,0,0],"sum_hessian":[5.1E1,9E0,4.2E1,7E0,2E0,1.9E1,2.3E1,1.5E1,4E0,1.7E1,6E0,8E0,7E0,3E0,1.4E1,4E0,2E0,4E0,4E0,6E0,1E0,1E0,1E0],"tree_param":{"num_deleted":"0","num_feature":"1","num_nodes":"23","size_leaf_vector":"1"}},{"base_weights":[-8.9555435E1,-9.205657E2,2.0683784E2,-1.0288115E1,-3.8519156E0,-1.0580559E2,3.5368628E2,-1.2386973E0,4.077285E-1,4.5936423E2,1.4715886E2,1.5779898E0,5.8042397E0,2.0309992E0,4.870768E0,2.7335238E-1,-2.9501954E-1],"categories":[],"categories_nodes":[],"categories_segments":[],"categories_sizes":[],"default_left":[0,0,0,0,0,0,0,0,0,0,0,0,0,0,0,0,0],"id":32,"left_children":[1,3,5,-1,-1,7,9,-1,-1,11,13,-1,-1,-1,15,-1,-1],"loss_changes":[1.1738834E7,1.29965E5,1.6859802E6,0E0,0E0,4.067347E4,4.3332325E5,0E0,0E0,4.284795E5,8.2093484E4,0E0,0E0,0E0,4.684407E3,0E0,0E0],"parents":[2147483647,0,0,1,1,2,2,5,5,6,6,9,9,10,10,14,14],"right_children":[2,4,6,-1,-1,8,10,-1,-1,12,14,-1,-1,-1,16,-1,-1],"split_conditions":[1.1E1,8E0,2.9E1,-1.0288115E1,-3.8519156E0,2.8E1,5.2E1,-1.2386973E0,4.077285E-1,3.5E1,6E1,1.5779898E0,5.8042397E0,2.0309992E0,6.3E1,2.7335238E-1,-2.9501954E-1],"split_indices":[0,0,0,0,0,0,0,0,0,0,0,0,0,0,0,0,0],"split_type":[0,0,0,0,0,0,0,0,0,0,0,0,0,0,0,0,0],"sum_hessian":[4.5E1,1.1E1,3.4E1,8E0,3E0,1.1E1,2.3E1,1E1,1E0,1.4E1,9E0,5E0,9E0,6E0,3E0,2E0,1E0],"tree_param":{"num_deleted":"0","num_feature":"1","num_nodes":"17","size_leaf_vector":"1"}},{"base_weights":[-5.17493E1,-8.981918E2,1.8732457E2,-1.0424015E1,-3.5844502E0,-1.8535011E0,3.5251123E2,4.2620294E2,-4.5094193E1,1.175468E0,5.0431494E2,-1.0787382E0,4.814779E0,6.2126074E0,2.7085574E0,2.7178988E-1,-2.9383984E-1],"categories":[],"categories_nodes":[],"categories_segments":[],"categories_sizes":[],"default_left":[0,0,0,0,0,0,0,0,0,0,0,0,0,0,0,0,0],"id":33,"left_children":[1,3,5,-1,-1,-1,7,9,11,-1,13,-1,15,-1,-1,-1,-1],"loss_changes":[9.662225E6,2.5682E5,2.4065405E6,0E0,0E0,0E0,8.0528475E5,4.5354825E5,1.801205E4,0E0,2.25378E5,0E0,4.639668E3,0E0,0E0,0E0,0E0],"parents":[2147483647,0,0,1,1,2,2,6,6,7,7,8,8,10,10,12,12],"right_children":[2,4,6,-1,-1,-1,8,10,12,-1,14,-1,16,-1,-1,-1,-1],"split_conditions":[1.2E1,8E0,2.6E1,-1.0424015E1,-3.5844502E0,-1.8535011E0,6E1,3.4E1,6.1E1,1.175468E0,5.1E1,-1.0787382E0,6.3E1,6.2126074E0,2.7085574E0,2.7178988E-1,-2.9383984E-1],"split_indices":[0,0,0,0,0,0,0,0,0,0,0,0,0,0,0,0,0],"split_type":[0,0,0,0,0,0,0,0,0,0,0,0,0,0,0,0,0],"sum_hessian":[4.5E1,9E0,3.6E1,6E0,3E0,1.1E1,2.5E1,2.1E1,4E0,5E0,1.6E1,1E0,3E0,9E0,7E0,2E0,1E0],"tree_param":{"num_deleted":"0","num_feature":"1","num_nodes":"17","size_leaf_vector":"1"}},{"base_weights":[3.2247528E1,-8.510626E2,2.2110234E2,-1.0381257E1,-3.387424E0,-9.188996E1,3.9834656E2,-1.2232368E2,6.4878625E-1,4.839547E2,-4.494354E1,-5.4181316E1,-1.660013E2,1.8655486E0,5.359414E2,-1.0744238E0,4.759223E0,-1.0373969E0,1.3437499E-1,-1.7693269E0,-3.7978902E-1,6.102538E0,2.6935413E0,2.7023575E-1,-2.9266405E-1],"categories":[],"categories_nodes":[],"categories_segments":[],"categories_sizes":[],"default_left":[0,0,0,0,0,0,0,0,0,0,0,0,0,0,0,0,0,0,0,0,0,0,0,0,0],"id":34,"left_children":[1,3,5,-1,-1,7,9,11,-1,13,15,17,19,-1,21,-1,23,-1,-1,-1,-1,-1,-1,-1,-1],"loss_changes":[8.0392655E6,2.871225E5,2.2462108E6,0E0,0E0,8.585558E4,1.00033175E6,2.668875E4,0E0,1.824345E5,1.785202E4,2.722409E4,4.1640625E2,0E0,1.00126E5,0E0,4.595338E3,0E0,0E0,0E0,0E0,0E0,0E0,0E0,0E0],"parents":[2147483647,0,0,1,1,2,2,5,5,6,6,7,7,9,9,10,10,11,11,12,12,14,14,16,16],"right_children":[2,4,6,-1,-1,8,10,12,-1,14,16,18,20,-1,22,-1,24,-1,-1,-1,-1,-1,-1,-1,-1],"split_conditions":[1.2E1,5E0,3.1E1,-1.0381257E1,-3.387424E0,2.8E1,5.5E1,2.1E1,6.4878625E-1,3.6E1,6.1E1,1.7E1,2.7E1,1.8655486E0,4.9E1,-1.0744238E0,6.3E1,-1.0373969E0,1.3437499E-1,-1.7693269E0,-3.7978902E-1,6.102538E0,2.6935413E0,2.7023575E-1,-2.9266405E-1],"split_indices":[0,0,0,0,0,0,0,0,0,0,0,0,0,0,0,0,0,0,0,0,0,0,0,0,0],"split_type":[0,0,0,0,0,0,0,0,0,0,0,0,0,0,0,0,0,0,0,0,0,0,0,0,0],"sum_hessian":[4.5E1,7E0,3.8E1,4E0,3E0,1.4E1,2.4E1,1.2E1,2E0,2E1,4E0,6E0,6E0,4E0,1.6E1,1E0,3E0,3E0,3E0,5E0,1E0,1.1E1,5E0,2E0,1E0],"tree_param":{"num_deleted":"0","num_feature":"1","num_nodes":"25","size_leaf_vector":"1"}},{"base_weights":[-3.9288054E0,-8.634689E2,2.3689955E2,-9.857384E0,-3.7186334E0,-7.5108574E1,4.4991223E2,-1.4365523E2,1.0116345E0,5.580527E2,1.2202077E2,-8.321668E1,-1.9788158E2,1.2673965E0,5.7361417E0,1.7478826E0,-1.3194197E1,-1.2767587E0,-1.1387804E-2,-2.2084026E0,-3.7826952E-1,1.0677539E-1,-2.9149413E-1],"categories":[],"categories_nodes":[],"categories_segments":[],"categories_sizes":[],"default_left":[0,0,0,0,0,0,0,0,0,0,0,0,0,0,0,0,0,0,0,0,0,0,0],"id":35,"left_children":[1,3,5,-1,-1,7,9,11,-1,13,15,17,19,-1,-1,-1,21,-1,-1,-1,-1,-1,-1],"loss_changes":[9.932408E6,8.1298E4,2.5430015E6,0E0,0E0,2.2116612E5,6.956715E5,1.6266469E4,0E0,1.697E3,5.6971445E4,3.0799402E4,7.68E3,0E0,0E0,0E0,1.7999418E3,0E0,0E0,0E0,0E0,0E0,0E0],"parents":[2147483647,0,0,1,1,2,2,5,5,6,6,7,7,9,9,10,10,11,11,12,12,16,16],"right_children":[2,4,6,-1,-1,8,10,12,-1,14,16,18,20,-1,-1,-1,22,-1,-1,-1,-1,-1,-1],"split_conditions":[1.2E1,7E0,3.3E1,-9.857384E0,-3.7186334E0,2.8E1,5.5E1,2.1E1,1.0116345E0,3.6E1,6E1,1.7E1,2.6E1,1.2673965E0,5.7361417E0,1.7478826E0,6.2E1,-1.2767587E0,-1.1387804E-2,-2.2084026E0,-3.7826952E-1,1.0677539E-1,-2.9149413E-1],"split_indices":[0,0,0,0,0,0,0,0,0,0,0,0,0,0,0,0,0,0,0,0,0,0,0],"split_type":[0,0,0,0,0,0,0,0,0,0,0,0,0,0,0,0,0,0,0,0,0,0,0],"sum_hessian":[4.5E1,9E0,3.6E1,6E0,3E0,1.5E1,2.1E1,1.1E1,4E0,1.5E1,6E0,7E0,4E0,1E0,1.4E1,4E0,2E0,4E0,3E0,3E0,1E0,1E0,1E0],"tree_param":{"num_deleted":"0","num_feature":"1","num_nodes":"23","size_leaf_vector":"1"}},{"base_weights":[-8.12679E1,-8.835189E0,1.7382275E2,-1.8251668E2,3.6020093E2,-1.9019735E0,-3.7675586E-1,3.997684E2,6.867491E-1,1.1180229E0,4.6326265E0],"categories":[],"categories_nodes":[],"categories_segments":[],"categories_sizes":[],"default_left":[0,0,0,0,0,0,0,0,0,0,0],"id":36,"left_children":[1,-1,3,5,7,-1,-1,9,-1,-1,-1],"loss_changes":[8.92785E6,0E0,2.3234795E6,3.15725E3,2.18355E5,0E0,0E0,2.7885125E5,0E0,0E0,0E0],"parents":[2147483647,0,0,2,2,3,3,4,4,7,7],"right_children":[2,-1,4,6,8,-1,-1,10,-1,-1,-1],"split_conditions":[1E1,-8.835189E0,2.8E1,2.6E1,5.6E1,-1.9019735E0,-3.7675586E-1,3.4E1,6.867491E-1,1.1180229E0,4.6326265E0],"split_indices":[0,0,0,0,0,0,0,0,0,0,0],"split_type":[0,0,0,0,0,0,0,0,0,0,0],"sum_hessian":[4.1E1,9E0,3.2E1,1.1E1,2.1E1,1E1,1E0,1.8E1,3E0,4E0,1.4E1],"tree_param":{"num_deleted":"0","num_feature":"1","num_nodes":"11","size_leaf_vector":"1"}},{"base_weights":[7.687436E0,-8.169377E2,2.2119441E2,-8.991766E0,-2.6709847E0,-7.1166824E1,4.1648135E2,-1.2667025E2,8.447798E-1,5.3419415E2,1.00634766E2,-1.7176971E0,-8.055947E1,1.5285978E0,5.686057E0,1.8743031E0,-3.89936E1,-9.164151E-2,-1.2998402E0,-1.0733007E0,2.6529714E-1],"categories":[],"categories_nodes":[],"categories_segments":[],"categories_sizes":[],"default_left":[0,0,0,0,0,0,0,0,0,0,0,0,0,0,0,0,0,0,0,0,0],"id":37,"left_children":[1,3,5,-1,-1,7,9,11,-1,13,15,-1,17,-1,-1,-1,19,-1,-1,-1,-1],"loss_changes":[8.986182E6,1.145375E5,2.35678E6,0E0,0E0,1.672306E5,8.30252E5,7.317703E3,0E0,9.9265E4,1.13975375E5,0E0,3.1735684E4,0E0,0E0,0E0,2.4420504E4,0E0,0E0,0E0,0E0],"parents":[2147483647,0,0,1,1,2,2,5,5,6,6,7,7,9,9,10,10,12,12,16,16],"right_children":[2,4,6,-1,-1,8,10,12,-1,14,16,-1,18,-1,-1,-1,20,-1,-1,-1,-1],"split_conditions":[1.2E1,9E0,3.2E1,-8.991766E0,-2.6709847E0,2.7E1,5.4E1,1.6E1,8.447798E-1,3.5E1,5.9E1,-1.7176971E0,2.1E1,1.5285978E0,5.686057E0,1.8743031E0,6.1E1,-9.164151E-2,-1.2998402E0,-1.0733007E0,2.6529714E-1],"split_indices":[0,0,0,0,0,0,0,0,0,0,0,0,0,0,0,0,0,0,0,0,0],"split_type":[0,0,0,0,0,0,0,0,0,0,0,0,0,0,0,0,0,0,0,0,0],"sum_hessian":[4.8E1,9E0,3.9E1,7E0,2E0,1.6E1,2.3E1,1.2E1,4E0,1.6E1,7E0,4E0,8E0,2E0,1.4E1,4E0,3E0,4E0,4E0,1E0,2E0],"tree_param":{"num_deleted":"0","num_feature":"1","num_nodes":"21","size_leaf_vector":"1"}},{"base_weights":[-1.9415699E1,-9.647273E2,2.2083987E2,-1.0131812E1,-2.2114747E0,-1.5779759E2,4.083044E2,-1.7815945E2,3.8690233E-1,4.6373294E2,-4.93967E0,-1.8542056E0,-3.7862694E-1,1.5562544E0,5.177325E2,7.133398E-1,-5.7303852E1,5.87636E0,2.5307167E0,-1.0690078E0,2.6675388E-1],"categories":[],"categories_nodes":[],"categories_segments":[],"categories_sizes":[],"default_left":[0,0,0,0,0,0,0,0,0,0,0,0,0,0,0,0,0,0,0,0,0],"id":38,"left_children":[1,3,5,-1,-1,7,9,11,-1,13,15,-1,-1,-1,17,-1,19,-1,-1,-1,-1],"loss_changes":[1.0653371E7,6.185E3,2.7584352E6,0E0,0E0,6.4351094E4,5.87527E5,2.2030938E3,0E0,2.53489E5,2.4104602E4,0E0,0E0,0E0,1.191915E5,0E0,1.8855324E4,0E0,0E0,0E0,0E0],"parents":[2147483647,0,0,1,1,2,2,5,5,6,6,7,7,9,9,10,10,14,14,16,16],"right_children":[2,4,6,-1,-1,8,10,12,-1,14,16,-1,-1,-1,18,-1,20,-1,-1,-1,-1],"split_conditions":[1E1,7E0,2.9E1,-1.0131812E1,-2.2114747E0,2.8E1,5.6E1,2.7E1,3.8690233E-1,3.5E1,5.8E1,-1.8542056E0,-3.7862694E-1,1.5562544E0,5.1E1,7.133398E-1,6.1E1,5.87636E0,2.5307167E0,-1.0690078E0,2.6675388E-1],"split_indices":[0,0,0,0,0,0,0,0,0,0,0,0,0,0,0,0,0,0,0,0,0],"split_type":[0,0,0,0,0,0,0,0,0,0,0,0,0,0,0,0,0,0,0,0,0],"sum_hessian":[4.4E1,8E0,3.6E1,7E0,1E0,1.2E1,2.4E1,1.1E1,1E0,2.1E1,3E0,1E1,1E0,4E0,1.7E1,1E0,2E0,1.2E1,5E0,1E0,1E0],"tree_param":{"num_deleted":"0","num_feature":"1","num_nodes":"21","size_leaf_vector":"1"}},{"base_weights":[-1.7003576E1,-8.521075E2,1.8972351E2,-8.995149E0,-1.796578E0,-7.738797E1,4.2992294E2,-1.4610274E2,9.375758E-1,5.503698E2,2.3658736E0,-7.3328064E1,-1.9936014E0,2.0405805E0,6.365873E0,-1.4781045E0,4.2148653E-1],"categories":[],"categories_nodes":[],"categories_segments":[],"categories_sizes":[],"default_left":[0,0,0,0,0,0,0,0,0,0,0,0,0,0,0,0,0],"id":39,"left_children":[1,3,5,-1,-1,7,9,11,-1,13,-1,15,-1,-1,-1,-1,-1],"loss_changes":[8.270192E6,6.04445E4,2.5200672E6,0E0,0E0,2.4987183E5,2.8206125E5,3.4270875E4,0E0,1.48517E5,0E0,8.245337E4,0E0,0E0,0E0,0E0,0E0],"parents":[2147483647,0,0,1,1,2,2,5,5,6,6,7,7,9,9,11,11],"right_children":[2,4,6,-1,-1,8,10,12,-1,14,-1,16,-1,-1,-1,-1,-1],"split_conditions":[1.2E1,9E0,3.3E1,-8.995149E0,-1.796578E0,2.7E1,4.9E1,2E1,9.375758E-1,3.7E1,2.3658736E0,1.7E1,-1.9936014E0,2.0405805E0,6.365873E0,-1.4781045E0,4.2148653E-1],"split_indices":[0,0,0,0,0,0,0,0,0,0,0,0,0,0,0,0,0],"split_type":[0,0,0,0,0,0,0,0,0,0,0,0,0,0,0,0,0],"sum_hessian":[4.5E1,8E0,3.7E1,7E0,1E0,1.8E1,1.9E1,1.3E1,5E0,1E1,9E0,7E0,6E0,3E0,7E0,4E0,3E0],"tree_param":{"num_deleted":"0","num_feature":"1","num_nodes":"17","size_leaf_vector":"1"}},{"base_weights":[-1.5426018E2,-7.932586E2,9.4260216E1,-9.384215E0,-3.7896593E0,-1.4647435E2,2.6228867E2,-9.4606865E1,-2.186737E0,2.9730322E2,-1.5189453E1,-1.5958743E0,7.9902344E0,9.2606443E-1,3.5169344E0,9.201172E-2,-3.0466405E-1,4.1867727E-1,-5.7783395E-1],"categories":[],"categories_nodes":[],"categories_segments":[],"categories_sizes":[],"default_left":[0,0,0,0,0,0,0,0,0,0,0,0,0,0,0,0,0,0,0],"id":40,"left_children":[1,3,5,-1,-1,7,9,11,-1,13,15,-1,17,-1,-1,-1,-1,-1,-1],"loss_changes":[6.543726E6,1.581645E5,1.2913606E6,0E0,0E0,1.952275E4,1.8651562E5,7.191431E4,0E0,1.3484912E5,1.7246403E3,0E0,1.5884241E4,0E0,0E0,0E0,0E0,0E0,0E0],"parents":[2147483647,0,0,1,1,2,2,5,5,6,6,7,7,9,9,10,10,12,12],"right_children":[2,4,6,-1,-1,8,10,12,-1,14,16,-1,18,-1,-1,-1,-1,-1,-1],"split_conditions":[1.2E1,8E0,2.7E1,-9.384215E0,-3.7896593E0,2.2E1,5.9E1,1.7E1,-2.186737E0,3.3E1,6.2E1,-1.5958743E0,2E1,9.2606443E-1,3.5169344E0,9.201172E-2,-3.0466405E-1,4.1867727E-1,-5.7783395E-1],"split_indices":[0,0,0,0,0,0,0,0,0,0,0,0,0,0,0,0,0,0,0],"split_type":[0,0,0,0,0,0,0,0,0,0,0,0,0,0,0,0,0,0,0],"sum_hessian":[3.9E1,1E1,2.9E1,6E0,4E0,1.2E1,1.7E1,9E0,3E0,1.5E1,2E0,5E0,4E0,4E0,1.1E1,1E0,1E0,3E0,1E0],"tree_param":{"num_deleted":"0","num_feature":"1","num_nodes":"19","size_leaf_vector":"1"}},{"base_weights":[-3.2461155E1,-8.4996936E2,2.1299432E2,-9.587119E0,-3.6124353E0,-8.203988E1,3.8660815E2,-1.4959634E2,8.1589043E-1,4.5088486E2,4.1592773E1,-7.250338E1,-1.9216707E2,5.0131766E2,2.2657166E0,6.769369E1,-3.034453E-1,-1.3341535E0,3.6884907E-1,-2.0962615E0,-3.8456836E-1,1.8034505E0,5.567097E0,8.693984E-1,2.4934848E-1],"categories":[],"categories_nodes":[],"categories_segments":[],"categories_sizes":[],"default_left":[0,0,0,0,0,0,0,0,0,0,0,0,0,0,0,0,0,0,0,0,0,0,0,0,0],"id":41,"left_children":[1,3,5,-1,-1,7,9,11,-1,13,15,17,19,21,-1,23,-1,-1,-1,-1,-1,-1,-1,-1,-1],"loss_changes":[1.0003659E7,9.1679E4,2.0196236E6,0E0,0E0,1.8964806E5,5.1519275E5,1.6842734E4,0E0,6.153475E4,1.340816E4,5.0691395E4,5.3513438E3,1.2497975E5,0E0,4.514961E2,0E0,0E0,0E0,0E0,0E0,0E0,0E0,0E0,0E0],"parents":[2147483647,0,0,1,1,2,2,5,5,6,6,7,7,9,9,10,10,11,11,12,12,13,13,15,15],"right_children":[2,4,6,-1,-1,8,10,12,-1,14,16,18,20,22,-1,24,-1,-1,-1,-1,-1,-1,-1,-1,-1],"split_conditions":[1.1E1,8E0,3.2E1,-9.587119E0,-3.6124353E0,2.8E1,5.9E1,2E1,8.1589043E-1,5.2E1,6.3E1,1.7E1,2.7E1,3.6E1,2.2657166E0,6E1,-3.034453E-1,-1.3341535E0,3.6884907E-1,-2.0962615E0,-3.8456836E-1,1.8034505E0,5.567097E0,8.693984E-1,2.4934848E-1],"split_indices":[0,0,0,0,0,0,0,0,0,0,0,0,0,0,0,0,0,0,0,0,0,0,0,0,0],"split_type":[0,0,0,0,0,0,0,0,0,0,0,0,0,0,0,0,0,0,0,0,0,0,0,0,0],"sum_hessian":[4.7E1,1E1,3.7E1,7E0,3E0,1.4E1,2.3E1,1E1,4E0,1.9E1,4E0,5E0,5E0,1.4E1,5E0,3E0,1E0,3E0,2E0,4E0,1E0,3E0,1.1E1,1E0,2E0],"tree_param":{"num_deleted":"0","num_feature":"1","num_nodes":"25","size_leaf_vector":"1"}},{"base_weights":[-3.0158527E1,-8.8847974E2,2.0510408E2,-9.818063E0,-2.8105245E0,-1.1311529E2,4.3893445E2,-1.607817E2,7.8181535E-1,5.538636E2,1.5189873E2,-1.067334E2,-2.0267186E0,1.1681015E0,5.719214E0,1.8528711E0,2.479227E-1,-1.5733383E0,1.9339193E-2],"categories":[],"categories_nodes":[],"categories_segments":[],"categories_sizes":[],"default_left":[0,0,0,0,0,0,0,0,0,0,0,0,0,0,0,0,0,0,0],"id":42,"left_children":[1,3,5,-1,-1,7,9,11,-1,13,15,17,-1,-1,-1,-1,-1,-1,-1],"loss_changes":[9.865063E6,1.813275E5,2.939235E6,0E0,0E0,1.784278E5,6.160505E5,3.8153125E2,0E0,2.21205E4,2.9182438E4,5.2693234E4,0E0,0E0,0E0,0E0,0E0,0E0,0E0],"parents":[2147483647,0,0,1,1,2,2,5,5,6,6,7,7,9,9,10,10,11,11],"right_children":[2,4,6,-1,-1,8,10,12,-1,14,16,18,-1,-1,-1,-1,-1,-1,-1],"split_conditions":[1.2E1,7E0,3.2E1,-9.818063E0,-2.8105245E0,2.7E1,5.1E1,2.1E1,7.8181535E-1,3.6E1,6E1,1.7E1,-2.0267186E0,1.1681015E0,5.719214E0,1.8528711E0,2.479227E-1,-1.5733383E0,1.9339193E-2],"split_indices":[0,0,0,0,0,0,0,0,0,0,0,0,0,0,0,0,0,0,0],"split_type":[0,0,0,0,0,0,0,0,0,0,0,0,0,0,0,0,0,0,0],"sum_hessian":[4.6E1,9E0,3.7E1,7E0,2E0,1.6E1,2.1E1,1.3E1,3E0,1.4E1,7E0,8E0,5E0,1E0,1.3E1,5E0,2E0,5E0,3E0],"tree_param":{"num_deleted":"0","num_feature":"1","num_nodes":"19","size_leaf_vector":"1"}},{"base_weights":[1.9690226E1,-8.0509845E2,2.227666E2,-9.163245E0,-3.5135553E0,-6.565957E1,4.006273E2,-1.2389515E2,9.518945E-1,4.921193E2,7.04237E1,-1.6482226E0,-8.063811E1,1.7836425E0,5.3061748E0,1.5800868E0,-4.063585E1,2.3908824E-1,-1.6319282E0,-1.0765527E0,2.4650529E-1],"categories":[],"categories_nodes":[],"categories_segments":[],"categories_sizes":[],"default_left":[0,0,0,0,0,0,0,0,0,0,0,0,0,0,0,0,0,0,0,0,0],"id":43,"left_children":[1,3,5,-1,-1,7,9,11,-1,13,15,-1,17,-1,-1,-1,19,-1,-1,-1,-1],"loss_changes":[8.895021E6,4.69815E4,2.2196938E6,0E0,0E0,1.8161512E5,7.486055E5,3.9637812E3,0E0,1.056545E5,8.258484E4,0E0,8.784562E4,0E0,0E0,0E0,2.3670188E4,0E0,0E0,0E0,0E0],"parents":[2147483647,0,0,1,1,2,2,5,5,6,6,7,7,9,9,10,10,12,12,16,16],"right_children":[2,4,6,-1,-1,8,10,12,-1,14,16,-1,18,-1,-1,-1,20,-1,-1,-1,-1],"split_conditions":[1.2E1,8E0,3.3E1,-9.163245E0,-3.5135553E0,2.7E1,5.5E1,1.6E1,9.518945E-1,3.6E1,6E1,-1.6482226E0,2.1E1,1.7836425E0,5.3061748E0,1.5800868E0,6.1E1,2.3908824E-1,-1.6319282E0,-1.0765527E0,2.4650529E-1],"split_indices":[0,0,0,0,0,0,0,0,0,0,0,0,0,0,0,0,0,0,0,0,0],"split_type":[0,0,0,0,0,0,0,0,0,0,0,0,0,0,0,0,0,0,0,0,0],"sum_hessian":[5E1,9E0,4.1E1,6E0,3E0,1.6E1,2.5E1,1.2E1,4E0,1.9E1,6E0,4E0,8E0,3E0,1.6E1,3E0,3E0,4E0,4E0,1E0,2E0],"tree_param":{"num_deleted":"0","num_feature":"1","num_nodes":"21","size_leaf_vector":"1"}},{"base_weights":[-1.8982725E1,-4.648983E2,3.2312817E2,-8.838811E0,-2.2898549E2,3.9235876E2,7.850293E1,-2.3872583E0,-3.8996288E-1,7.351693E-1,4.4364667E2,1.2867578E0,2.1624348E0,4.918391E2,2.1312385E0,2.4509625E-1,-3.0421093E-1,1.6208692E0,5.3149376E0],"categories":[],"categories_nodes":[],"categories_segments":[],"categories_sizes":[],"default_left":[0,0,0,0,0,0,0,0,0,0,0,0,0,0,0,0,0,0,0],"id":44,"left_children":[1,3,5,-1,7,9,11,-1,-1,-1,13,-1,15,17,-1,-1,-1,-1,-1],"loss_changes":[6.861369E6,1.6238525E6,3.8565475E5,0E0,1.28689375E4,2.6995475E5,2.830927E4,0E0,0E0,0E0,2.607175E4,0E0,4.3950913E3,3.42305E4,0E0,0E0,0E0,0E0,0E0],"parents":[2147483647,0,0,1,1,2,2,4,4,5,5,6,6,10,10,12,12,13,13],"right_children":[2,4,6,-1,8,10,12,-1,-1,-1,14,-1,16,18,-1,-1,-1,-1,-1],"split_conditions":[2.8E1,8E0,5.4E1,-8.838811E0,2.7E1,3.3E1,6E1,-2.3872583E0,-3.8996288E-1,7.351693E-1,4.9E1,1.2867578E0,6.3E1,3.6E1,2.1312385E0,2.4509625E-1,-3.0421093E-1,1.6208692E0,5.3149376E0],"split_indices":[0,0,0,0,0,0,0,0,0,0,0,0,0,0,0,0,0,0,0],"split_type":[0,0,0,0,0,0,0,0,0,0,0,0,0,0,0,0,0,0,0],"sum_hessian":[4.2E1,1.8E1,2.4E1,5E0,1.3E1,1.8E1,6E0,1.2E1,1E0,3E0,1.5E1,3E0,3E0,1.1E1,4E0,2E0,1E0,2E0,9E0],"tree_param":{"num_deleted":"0","num_feature":"1","num_nodes":"19","size_leaf_vector":"1"}},{"base_weights":[-1.4625303E1,-4.1304706E2,3.5082175E2,-7.696044E0,-2.00547E0,3.994589E2,-9.8301476E-1,1.3386328E0,4.67773E2,5.535549E0,2.0805738E0],"categories":[],"categories_nodes":[],"categories_segments":[],"categories_sizes":[],"default_left":[0,0,0,0,0,0,0,0,0,0,0],"id":45,"left_children":[1,3,5,-1,-1,7,-1,-1,9,-1,-1],"loss_changes":[6.5510485E6,1.3975092E6,5.72237E5,0E0,0E0,2.9616825E5,0E0,0E0,1.9484525E5,0E0,0E0],"parents":[2147483647,0,0,1,1,2,2,5,5,8,8],"right_children":[2,4,6,-1,-1,8,-1,-1,10,-1,-1],"split_conditions":[2.7E1,1E1,5.9E1,-7.696044E0,-2.00547E0,3.6E1,-9.8301476E-1,1.3386328E0,4.9E1,5.535549E0,2.0805738E0],"split_indices":[0,0,0,0,0,0,0,0,0,0,0],"split_type":[0,0,0,0,0,0,0,0,0,0,0],"sum_hessian":[4.2E1,2E1,2.2E1,6E0,1.4E1,2E1,2E0,5E0,1.5E1,1E1,5E0],"tree_param":{"num_deleted":"0","num_feature":"1","num_nodes":"11","size_leaf_vector":"1"}},{"base_weights":[-4.5530667E0,-8.348007E2,1.9036502E2,-9.29873E0,-2.7330272E0,-7.1313E1,3.4848816E2,-1.2855281E0,7.822647E-1,4.6379065E2,1.4762547E2,1.4392512E0,5.2328735E2,1.9825872E0,2.7763672E0,5.616694E0,1.83875E0,2.4931222E-1,-2.990625E-1],"categories":[],"categories_nodes":[],"categories_segments":[],"categories_sizes":[],"default_left":[0,0,0,0,0,0,0,0,0,0,0,0,0,0,0,0,0,0,0],"id":46,"left_children":[1,3,5,-1,-1,7,9,-1,-1,11,13,-1,15,-1,17,-1,-1,-1,-1],"loss_changes":[8.087144E6,1.25932E5,1.7130602E6,0E0,0E0,1.5631792E5,4.8787825E5,0E0,0E0,1.8200825E5,8.351745E4,0E0,7.9265E3,0E0,4.376753E3,0E0,0E0,0E0,0E0],"parents":[2147483647,0,0,1,1,2,2,5,5,6,6,9,9,10,10,12,12,14,14],"right_children":[2,4,6,-1,-1,8,10,-1,-1,12,14,-1,16,-1,18,-1,-1,-1,-1],"split_conditions":[1.2E1,8E0,3.2E1,-9.29873E0,-2.7330272E0,2.8E1,5.2E1,-1.2855281E0,7.822647E-1,3.5E1,6E1,1.4392512E0,4.9E1,1.9825872E0,6.3E1,5.616694E0,1.83875E0,2.4931222E-1,-2.990625E-1],"split_indices":[0,0,0,0,0,0,0,0,0,0,0,0,0,0,0,0,0,0,0],"split_type":[0,0,0,0,0,0,0,0,0,0,0,0,0,0,0,0,0,0,0],"sum_hessian":[4.7E1,8E0,3.9E1,6E0,2E0,1.5E1,2.4E1,1.1E1,4E0,1.4E1,1E1,3E0,1.1E1,7E0,3E0,9E0,2E0,2E0,1E0],"tree_param":{"num_deleted":"0","num_feature":"1","num_nodes":"19","size_leaf_vector":"1"}},{"base_weights":[-3.5479794E1,-4.8141498E2,3.398219E2,-7.961658E0,-1.8443457E2,4.1276678E2,9.192676E1,-1.920242E0,-3.8861522E-1,1.4315029E0,4.7233508E2,1.5047938E0,2.7318792E0,5.3308544E0,2.2753851E0,2.4788645E-1,-2.9786718E-1],"categories":[],"categories_nodes":[],"categories_segments":[],"categories_sizes":[],"default_left":[0,0,0,0,0,0,0,0,0,0,0,0,0,0,0,0,0],"id":47,"left_children":[1,3,5,-1,7,9,11,-1,-1,-1,13,-1,15,-1,-1,-1,-1],"loss_changes":[7.5255625E6,1.6959735E6,3.861095E5,0E0,2.617E3,1.9569875E5,3.8552824E4,0E0,0E0,0E0,3.369E4,0E0,4.3352065E3,0E0,0E0,0E0,0E0],"parents":[2147483647,0,0,1,1,2,2,4,4,5,5,6,6,10,10,12,12],"right_children":[2,4,6,-1,8,10,12,-1,-1,-1,14,-1,16,-1,-1,-1,-1],"split_conditions":[2.8E1,1E1,5.5E1,-7.961658E0,2.6E1,3.6E1,5.9E1,-1.920242E0,-3.8861522E-1,1.4315029E0,4.9E1,1.5047938E0,6.3E1,5.3308544E0,2.2753851E0,2.4788645E-1,-2.9786718E-1],"split_indices":[0,0,0,0,0,0,0,0,0,0,0,0,0,0,0,0,0],"split_type":[0,0,0,0,0,0,0,0,0,0,0,0,0,0,0,0,0],"sum_hessian":[4.2E1,1.9E1,2.3E1,8E0,1.1E1,1.7E1,6E0,1E1,1E0,4E0,1.3E1,3E0,3E0,9E0,4E0,2E0,1E0],"tree_param":{"num_deleted":"0","num_feature":"1","num_nodes":"17","size_leaf_vector":"1"}},{"base_weights":[-4.3583836E1,-7.308453E2,2.1480852E2,-9.43586E0,-3.1671863E0,-8.0181984E1,3.454544E2,-9.107777E-1,-1.222778E2,4.511058E2,1.7636957E2,-4.036875E-1,2.1313911E1,-1.5457249E0,3.5055077E-1,1.6992054E0,5.4267E0,2.1458547E0,-2.946289E0,4.086844E-1,-1.885078E-1,2.5542775E-1,-2.9667577E-1],"categories":[],"categories_nodes":[],"categories_segments":[],"categories_sizes":[],"default_left":[0,0,0,0,0,0,0,0,0,0,0,0,0,0,0,0,0,0,0,0,0,0,0],"id":48,"left_children":[1,3,5,-1,-1,7,9,11,13,15,17,-1,19,-1,-1,-1,-1,-1,21,-1,-1,-1,-1],"loss_changes":[8.137936E6,6.52993E5,1.3326151E6,0E0,0E0,3.820829E4,3.00463E5,6.1138E3,4.6235453E4,2.0926175E5,7.975459E4,0E0,4.689911E3,0E0,0E0,0E0,0E0,0E0,3.801114E3,0E0,0E0,0E0,0E0],"parents":[2147483647,0,0,1,1,2,2,5,5,6,6,7,7,8,8,9,9,10,10,12,12,18,18],"right_children":[2,4,6,-1,-1,8,10,12,14,16,18,-1,20,-1,-1,-1,-1,-1,22,-1,-1,-1,-1],"split_conditions":[1.6E1,7E0,2.9E1,-9.43586E0,-3.1671863E0,2.1E1,5.1E1,1.7E1,2.7E1,3.6E1,6E1,-4.036875E-1,2E1,-1.5457249E0,3.5055077E-1,1.6992054E0,5.4267E0,2.1458547E0,6.3E1,4.086844E-1,-1.885078E-1,2.5542775E-1,-2.9667577E-1],"split_indices":[0,0,0,0,0,0,0,0,0,0,0,0,0,0,0,0,0,0,0,0,0,0,0],"split_type":[0,0,0,0,0,0,0,0,0,0,0,0,0,0,0,0,0,0,0,0,0,0,0],"sum_hessian":[4.3E1,1.1E1,3.2E1,6E0,5E0,1E1,2.2E1,4E0,6E0,1.2E1,1E1,1E0,3E0,5E0,1E0,4E0,8E0,8E0,2E0,2E0,1E0,1E0,1E0],"tree_param":{"num_deleted":"0","num_feature":"1","num_nodes":"23","size_leaf_vector":"1"}},{"base_weights":[5.150312E1,-4.0653265E2,3.82707E2,-6.9574414E2,-1.1481106E2,4.4700375E2,1.4497318E2,-7.8953605E0,-3.0750954E0,-1.765084E1,-1.7605437E2,1.3201953E0,5.2568326E0,1.7638747E0,2.4500977E-1,-7.4917686E-1,3.2773655E1,-1.8819876E0,-3.884629E-1,5.554855E-1,-1.877539E-1],"categories":[],"categories_nodes":[],"categories_segments":[],"categories_sizes":[],"default_left":[0,0,0,0,0,0,0,0,0,0,0,0,0,0,0,0,0,0,0,0,0],"id":49,"left_children":[1,3,5,7,9,11,13,-1,-1,15,17,-1,-1,-1,-1,-1,19,-1,-1,-1,-1],"loss_changes":[7.7426835E6,1.69412E6,3.537175E5,1.81545E4,6.971889E4,4.535125E5,2.5686172E4,0E0,0E0,2.2452727E4,1.5310781E3,0E0,0E0,0E0,0E0,0E0,6.8475264E3,0E0,0E0,0E0,0E0],"parents":[2147483647,0,0,1,1,2,2,3,3,4,4,5,5,6,6,9,9,10,10,16,16],"right_children":[2,4,6,8,10,12,14,-1,-1,16,18,-1,-1,-1,-1,-1,20,-1,-1,-1,-1],"split_conditions":[2.8E1,1.2E1,5.5E1,9E0,2.1E1,3.6E1,6E1,-7.8953605E0,-3.0750954E0,1.5E1,2.7E1,1.3201953E0,5.2568326E0,1.7638747E0,2.4500977E-1,-7.4917686E-1,2E1,-1.8819876E0,-3.884629E-1,5.554855E-1,-1.877539E-1],"split_indices":[0,0,0,0,0,0,0,0,0,0,0,0,0,0,0,0,0,0,0,0,0],"split_type":[0,0,0,0,0,0,0,0,0,0,0,0,0,0,0,0,0,0,0,0,0],"sum_hessian":[4.8E1,2E1,2.8E1,9E0,1.1E1,2.1E1,7E0,6E0,3E0,5E0,6E0,5E0,1.6E1,5E0,2E0,2E0,3E0,5E0,1E0,2E0,1E0],"tree_param":{"num_deleted":"0","num_feature":"1","num_nodes":"21","size_leaf_vector":"1"}},{"base_weights":[-2.0008812E1,-7.788895E2,1.9383438E2,-9.549741E0,-3.9597125E0,-6.361067E1,3.564519E2,-1.09479866E2,7.466557E-1,4.114902E2,-6.2018337E1,-5.695864E1,-1.4710793E0,4.9779697E2,2.4899597E0,-1.0732871E0,-3.0744977E0,-1.4279286E0,2.8803533E-1,1.8488204E0,5.5531187E0,2.5342578E-1,-2.9646873E-1],"categories":[],"categories_nodes":[],"categories_segments":[],"categories_sizes":[],"default_left":[0,0,0,0,0,0,0,0,0,0,0,0,0,0,0,0,0,0,0,0,0,0,0],"id":50,"left_children":[1,3,5,-1,-1,7,9,11,-1,13,15,17,-1,19,-1,-1,21,-1,-1,-1,-1,-1,-1],"loss_changes":[9.233084E6,2.75612E5,1.897007E6,0E0,0E0,1.2960004E5,6.71657E5,1.6087344E4,0E0,1.576725E5,1.152348E4,6.87407E4,0E0,1.0696E5,0E0,0E0,3.7698745E3,0E0,0E0,0E0,0E0,0E0,0E0],"parents":[2147483647,0,0,1,1,2,2,5,5,6,6,7,7,9,9,10,10,11,11,13,13,16,16],"right_children":[2,4,6,-1,-1,8,10,12,-1,14,16,18,-1,20,-1,-1,22,-1,-1,-1,-1,-1,-1],"split_conditions":[1.2E1,6E0,3.2E1,-9.549741E0,-3.9597125E0,2.8E1,5.9E1,2.1E1,7.466557E-1,4.9E1,6.1E1,1.6E1,-1.4710793E0,3.7E1,2.4899597E0,-1.0732871E0,6.3E1,-1.4279286E0,2.8803533E-1,1.8488204E0,5.5531187E0,2.5342578E-1,-2.9646873E-1],"split_indices":[0,0,0,0,0,0,0,0,0,0,0,0,0,0,0,0,0,0,0,0,0,0,0],"split_type":[0,0,0,0,0,0,0,0,0,0,0,0,0,0,0,0,0,0,0,0,0,0,0],"sum_hessian":[5.4E1,1.1E1,4.3E1,6E0,5E0,1.7E1,2.6E1,1.3E1,4E0,2.3E1,3E0,7E0,6E0,1.3E1,1E1,1E0,2E0,3E0,4E0,3E0,1E1,1E0,1E0],"tree_param":{"num_deleted":"0","num_feature":"1","num_nodes":"23","size_leaf_vector":"1"}},{"base_weights":[2.6091272E1,-7.771289E2,1.8934837E2,-8.195379E0,-1.6666113E0,-8.166211E1,3.6481088E2,-1.2903777E2,7.41226E-1,4.885925E2,1.1809991E2,-7.9929306E1,-1.9652699E0,1.6911404E0,5.3406115E0,1.9736058E0,-7.098134E1,-1.4628086E0,4.8674878E-2,-1.0689942E0,-1.4904994E-1],"categories":[],"categories_nodes":[],"categories_segments":[],"categories_sizes":[],"default_left":[0,0,0,0,0,0,0,0,0,0,0,0,0,0,0,0,0,0,0,0,0],"id":51,"left_children":[1,3,5,-1,-1,7,9,11,-1,13,15,17,-1,-1,-1,-1,19,-1,-1,-1,-1],"loss_changes":[7.367384E6,4.10705E4,2.2558632E6,0E0,0E0,1.5826478E5,7.837875E5,2.7809125E4,0E0,1.332595E5,1.9336052E5,6.577163E4,0E0,0E0,0E0,0E0,6.6736934E3,0E0,0E0,0E0,0E0],"parents":[2147483647,0,0,1,1,2,2,5,5,6,6,7,7,9,9,10,10,11,11,16,16],"right_children":[2,4,6,-1,-1,8,10,12,-1,14,16,18,-1,-1,-1,-1,20,-1,-1,-1,-1],"split_conditions":[1.2E1,9E0,3.2E1,-8.195379E0,-1.6666113E0,2.7E1,5.2E1,2.2E1,7.41226E-1,3.6E1,6E1,1.7E1,-1.9652699E0,1.6911404E0,5.3406115E0,1.9736058E0,6.1E1,-1.4628086E0,4.8674878E-2,-1.0689942E0,-1.4904994E-1],"split_indices":[0,0,0,0,0,0,0,0,0,0,0,0,0,0,0,0,0,0,0,0,0],"split_type":[0,0,0,0,0,0,0,0,0,0,0,0,0,0,0,0,0,0,0,0,0],"sum_hessian":[5.3E1,8E0,4.5E1,7E0,1E0,1.8E1,2.7E1,1.4E1,4E0,1.7E1,1E1,1E1,4E0,3E0,1.4E1,7E0,3E0,5E0,5E0,1E0,2E0],"tree_param":{"num_deleted":"0","num_feature":"1","num_nodes":"21","size_leaf_vector":"1"}},{"base_weights":[-4.5444557E1,-7.8757166E2,1.587243E2,-8.649444E0,-2.6213589E0,-1.4033441E2,3.0209058E2,-7.837925E1,-1.8896785E0,3.5418936E2,-7.067763E1,-1.4086578E0,-5.8777523E0,1.028045E0,3.9784744E2,-1.0647187E0,-1.4819894E1,4.0124857E-1,-4.9361327E-1,4.674347E0,1.930209E0,8.720899E-2,-2.9468748E-1],"categories":[],"categories_nodes":[],"categories_segments":[],"categories_sizes":[],"default_left":[0,0,0,0,0,0,0,0,0,0,0,0,0,0,0,0,0,0,0,0,0,0,0],"id":52,"left_children":[1,3,5,-1,-1,7,9,11,-1,13,15,-1,17,-1,19,-1,21,-1,-1,-1,-1,-1,-1],"loss_changes":[7.3846735E6,8.6772E4,1.7142755E6,0E0,0E0,1.846E4,5.5220025E5,3.7266156E4,0E0,1.9656125E5,6.630383E3,0E0,1.3972895E4,0E0,1.4260275E5,0E0,1.5924509E3,0E0,0E0,0E0,0E0,0E0,0E0],"parents":[2147483647,0,0,1,1,2,2,5,5,6,6,7,7,9,9,10,10,12,12,14,14,16,16],"right_children":[2,4,6,-1,-1,8,10,12,-1,14,16,-1,18,-1,20,-1,22,-1,-1,-1,-1,-1,-1],"split_conditions":[1.2E1,8E0,2.7E1,-8.649444E0,-2.6213589E0,2.2E1,6E1,1.6E1,-1.8896785E0,3.4E1,6.1E1,-1.4086578E0,2E1,1.028045E0,5.2E1,-1.0647187E0,6.2E1,4.0124857E-1,-4.9361327E-1,4.674347E0,1.930209E0,8.720899E-2,-2.9468748E-1],"split_indices":[0,0,0,0,0,0,0,0,0,0,0,0,0,0,0,0,0,0,0,0,0,0,0],"split_type":[0,0,0,0,0,0,0,0,0,0,0,0,0,0,0,0,0,0,0,0,0,0,0],"sum_hessian":[4.6E1,9E0,3.7E1,7E0,2E0,1.2E1,2.5E1,7E0,5E0,2.2E1,3E0,3E0,4E0,4E0,1.8E1,1E0,2E0,2E0,2E0,1.2E1,6E0,1E0,1E0],"tree_param":{"num_deleted":"0","num_feature":"1","num_nodes":"23","size_leaf_vector":"1"}},{"base_weights":[7.306509E1,-3.8072192E2,3.216897E2,-6.4955344E0,-1.0870754E2,3.7768927E2,-4.6041813E1,8.951438E0,-1.8317878E0,9.7038704E-1,4.1926562E2,-1.060459E0,2.641059E0,2.1294813E1,-1.86375E-1,5.215437E2,2.1812942E0,2.436049E-1,-2.9350778E-1,-9.338448E-2,5.140449E-1,1.6878809E0,5.5772996E0],"categories":[],"categories_nodes":[],"categories_segments":[],"categories_sizes":[],"default_left":[0,0,0,0,0,0,0,0,0,0,0,0,0,0,0,0,0,0,0,0,0,0,0],"id":53,"left_children":[1,3,5,-1,7,9,11,13,-1,-1,15,-1,17,19,-1,21,-1,-1,-1,-1,-1,-1,-1],"loss_changes":[5.5427855E6,1.173789E6,6.74758E5,0E0,9.446277E4,2.59854E5,1.6486553E4,2.4682966E3,0E0,0E0,3.127915E5,0E0,4.1993003E3,4.870667E3,0E0,4.38845E4,0E0,0E0,0E0,0E0,0E0,0E0,0E0],"parents":[2147483647,0,0,1,1,2,2,4,4,5,5,6,6,7,7,10,10,12,12,13,13,15,15],"right_children":[2,4,6,-1,8,10,12,14,-1,-1,16,-1,18,20,-1,22,-1,-1,-1,-1,-1,-1,-1],"split_conditions":[2.7E1,1.2E1,6E1,-6.4955344E0,2.1E1,3.4E1,6.1E1,2E1,-1.8317878E0,9.7038704E-1,4.8E1,-1.060459E0,6.3E1,1.8E1,-1.86375E-1,3.7E1,2.1812942E0,2.436049E-1,-2.9350778E-1,-9.338448E-2,5.140449E-1,1.6878809E0,5.5772996E0],"split_indices":[0,0,0,0,0,0,0,0,0,0,0,0,0,0,0,0,0,0,0,0,0,0,0],"split_type":[0,0,0,0,0,0,0,0,0,0,0,0,0,0,0,0,0,0,0,0,0,0,0],"sum_hessian":[4.6E1,1.6E1,3E1,7E0,9E0,2.6E1,4E0,4E0,5E0,4E0,2.2E1,1E0,3E0,3E0,1E0,1.3E1,9E0,2E0,1E0,2E0,1E0,2E0,1.1E1],"tree_param":{"num_deleted":"0","num_feature":"1","num_nodes":"23","size_leaf_vector":"1"}},{"base_weights":[-6.2574608E1,-7.7915643E2,1.7900664E2,-8.976425E0,-2.9563065E0,-8.160777E1,3.0620538E2,-1.1028901E0,3.9410713E-1,3.6641428E2,-7.014811E1,1.5911967E0,4.022021E2,-1.0562168E0,-1.4746373E1,4.933481E0,2.2935615E0,8.588476E-2,-2.92334E-1],"categories":[],"categories_nodes":[],"categories_segments":[],"categories_sizes":[],"default_left":[0,0,0,0,0,0,0,0,0,0,0,0,0,0,0,0,0,0,0],"id":54,"left_children":[1,3,5,-1,-1,7,9,-1,-1,11,13,-1,15,-1,17,-1,-1,-1,-1],"loss_changes":[7.912728E6,2.60791E5,1.181152E6,0E0,0E0,4.990686E4,5.71061E5,0E0,0E0,5.60845E4,6.5075312E3,0E0,9.021575E4,0E0,1.5597896E3,0E0,0E0,0E0,0E0],"parents":[2147483647,0,0,1,1,2,2,5,5,6,6,9,9,10,10,12,12,14,14],"right_children":[2,4,6,-1,-1,8,10,-1,-1,12,14,-1,16,-1,18,-1,-1,-1,-1],"split_conditions":[1.2E1,7E0,3.2E1,-8.976425E0,-2.9563065E0,2.7E1,6E1,-1.1028901E0,3.9410713E-1,3.6E1,6.1E1,1.5911967E0,5.1E1,-1.0562168E0,6.2E1,4.933481E0,2.2935615E0,8.588476E-2,-2.92334E-1],"split_indices":[0,0,0,0,0,0,0,0,0,0,0,0,0,0,0,0,0,0,0],"split_type":[0,0,0,0,0,0,0,0,0,0,0,0,0,0,0,0,0,0,0],"sum_hessian":[4.3E1,1E1,3.3E1,7E0,3E0,1.1E1,2.2E1,9E0,2E0,1.9E1,3E0,4E0,1.5E1,1E0,2E0,8E0,7E0,1E0,1E0],"tree_param":{"num_deleted":"0","num_feature":"1","num_nodes":"19","size_leaf_vector":"1"}},{"base_weights":[-2.5767494E1,-8.6322516E2,1.4275475E2,-9.340425E0,-1.6116503E0,-1.3614787E2,3.1759976E2,-8.502477E1,-1.7367422E2,3.956104E2,-4.5601475E1,-1.5148951E0,4.628551E0,-1.8525653E0,-3.9355662E-1,1.336766E0,4.721038E2,-1.0519922E0,2.708876E0,5.5145645E-1,-4.787221E-1,5.467832E0,2.0077841E0,2.4280272E-1,-2.9116404E-1],"categories":[],"categories_nodes":[],"categories_segments":[],"categories_sizes":[],"default_left":[0,0,0,0,0,0,0,0,0,0,0,0,0,0,0,0,0,0,0,0,0,0,0,0,0],"id":55,"left_children":[1,3,5,-1,-1,7,9,11,13,15,17,-1,19,-1,-1,-1,21,-1,23,-1,-1,-1,-1,-1,-1],"loss_changes":[6.3240095E6,1.470825E5,1.8935385E6,0E0,0E0,7.5862188E3,6.9289925E5,5.7660234E4,7.315781E2,2.96042E5,1.6262993E4,0E0,1.8546938E4,0E0,0E0,0E0,1.291315E5,0E0,4.1497524E3,0E0,0E0,0E0,0E0,0E0,0E0],"parents":[2147483647,0,0,1,1,2,2,5,5,6,6,7,7,8,8,9,9,10,10,12,12,16,16,18,18],"right_children":[2,4,6,-1,-1,8,10,12,14,16,18,-1,20,-1,-1,-1,22,-1,24,-1,-1,-1,-1,-1,-1],"split_conditions":[1.2E1,5E0,2.8E1,-9.340425E0,-1.6116503E0,2.2E1,5.9E1,1.6E1,2.7E1,3.6E1,6.1E1,-1.5148951E0,2E1,-1.8525653E0,-3.9355662E-1,1.336766E0,4.9E1,-1.0519922E0,6.3E1,5.5145645E-1,-4.787221E-1,5.467832E0,2.0077841E0,2.4280272E-1,-2.9116404E-1],"split_indices":[0,0,0,0,0,0,0,0,0,0,0,0,0,0,0,0,0,0,0,0,0,0,0,0,0],"split_type":[0,0,0,0,0,0,0,0,0,0,0,0,0,0,0,0,0,0,0,0,0,0,0,0,0],"sum_hessian":[4.2E1,6E0,3.6E1,5E0,1E0,1.4E1,2.2E1,8E0,6E0,1.8E1,4E0,4E0,4E0,5E0,1E0,5E0,1.3E1,1E0,3E0,2E0,2E0,9E0,4E0,2E0,1E0],"tree_param":{"num_deleted":"0","num_feature":"1","num_nodes":"25","size_leaf_vector":"1"}},{"base_weights":[-1.9951437E1,-7.5446153E0,2.2583533E2,-4.1575367E1,3.53113E2,-9.3469154E1,7.0304686E-1,4.689545E2,1.6476176E2,-1.2059418E0,-4.578436E1,1.3406209E0,5.1359177E0,1.9358858E0,2.41416E-1,2.534336E-1,-7.00383E-1],"categories":[],"categories_nodes":[],"categories_segments":[],"categories_sizes":[],"default_left":[0,0,0,0,0,0,0,0,0,0,0,0,0,0,0,0,0],"id":56,"left_children":[1,-1,3,5,7,9,-1,11,13,-1,15,-1,-1,-1,-1,-1,-1],"loss_changes":[7.5671575E6,0E0,1.0941366E6,7.662459E4,3.532075E5,2.7123438E3,0E0,8.357875E4,3.5552812E4,0E0,1.2150711E4,0E0,0E0,0E0,0E0,0E0,0E0],"parents":[2147483647,0,0,2,2,3,3,4,4,5,5,7,7,8,8,10,10],"right_children":[2,-1,4,6,8,10,-1,12,14,-1,16,-1,-1,-1,-1,-1,-1],"split_conditions":[1E1,-7.5446153E0,3.3E1,2.5E1,4.9E1,1.7E1,7.0304686E-1,3.5E1,6E1,-1.2059418E0,1.9E1,1.3406209E0,5.1359177E0,1.9358858E0,2.41416E-1,2.534336E-1,-7.00383E-1],"split_indices":[0,0,0,0,0,0,0,0,0,0,0,0,0,0,0,0,0],"split_type":[0,0,0,0,0,0,0,0,0,0,0,0,0,0,0,0,0],"sum_hessian":[3.9E1,9E0,3E1,1E1,2E1,7E0,3E0,1.1E1,9E0,3E0,4E0,2E0,9E0,7E0,2E0,1E0,3E0],"tree_param":{"num_deleted":"0","num_feature":"1","num_nodes":"17","size_leaf_vector":"1"}},{"base_weights":[-3.3488728E1,-7.9483264E2,1.7545528E2,-8.781633E0,-2.5181541E0,-1.1591939E2,3.490522E2,-1.4294962E2,3.801981E-1,4.402801E2,1.3549023E2,-8.492142E1,-1.723879E2,1.5544087E0,5.1277575E0,1.7853293E0,-1.4811384E1,-1.0526286E0,-1.6561384E-1,-1.8372468E0,-3.947949E-1,8.360547E-2,-2.9096484E-1],"categories":[],"categories_nodes":[],"categories_segments":[],"categories_sizes":[],"default_left":[0,0,0,0,0,0,0,0,0,0,0,0,0,0,0,0,0,0,0,0,0,0,0],"id":57,"left_children":[1,3,5,-1,-1,7,9,11,-1,13,15,17,19,-1,-1,-1,21,-1,-1,-1,-1,-1,-1],"loss_changes":[7.7654035E6,1.434225E5,2.0080901E6,0E0,0E0,7.264808E4,3.8784825E5,1.10225E3,0E0,2.21159E5,6.5425656E4,7.814121E3,4.20625E2,0E0,0E0,0E0,1.5234404E3,0E0,0E0,0E0,0E0,0E0,0E0],"parents":[2147483647,0,0,1,1,2,2,5,5,6,6,7,7,9,9,10,10,11,11,12,12,16,16],"right_children":[2,4,6,-1,-1,8,10,12,-1,14,16,18,20,-1,-1,-1,22,-1,-1,-1,-1,-1,-1],"split_conditions":[1.2E1,7E0,3.2E1,-8.781633E0,-2.5181541E0,2.8E1,5.1E1,2.2E1,3.801981E-1,3.6E1,6E1,1.7E1,2.7E1,1.5544087E0,5.1277575E0,1.7853293E0,6.2E1,-1.0526286E0,-1.6561384E-1,-1.8372468E0,-3.947949E-1,8.360547E-2,-2.9096484E-1],"split_indices":[0,0,0,0,0,0,0,0,0,0,0,0,0,0,0,0,0,0,0,0,0,0,0],"split_type":[0,0,0,0,0,0,0,0,0,0,0,0,0,0,0,0,0,0,0,0,0,0,0],"sum_hessian":[4.6E1,9E0,3.7E1,7E0,2E0,1.4E1,2.3E1,1.2E1,2E0,1.5E1,8E0,6E0,6E0,4E0,1.1E1,6E0,2E0,4E0,2E0,5E0,1E0,1E0,1E0],"tree_param":{"num_deleted":"0","num_feature":"1","num_nodes":"23","size_leaf_vector":"1"}},{"base_weights":[-5.9737904E1,-8.014621E2,1.6216945E2,-8.413208E0,-1.6912167E0,-6.2466736E1,3.3110812E2,-1.3434048E2,7.91099E-1,4.1944823E0,1.6259093E2,-7.665254E1,-1.7636754E2,1.902428E0,-2.8980076E-1,-1.7316873E0,4.5414495E-1,-1.9371505E0,-3.9321482E-1],"categories":[],"categories_nodes":[],"categories_segments":[],"categories_sizes":[],"default_left":[0,0,0,0,0,0,0,0,0,0,0,0,0,0,0,0,0,0,0],"id":58,"left_children":[1,3,5,-1,-1,7,9,11,-1,-1,13,15,17,-1,-1,-1,-1,-1,-1],"loss_changes":[7.5193945E6,5.1217E4,1.3782408E6,0E0,0E0,1.8383962E5,2.028825E5,7.602703E3,0E0,0E0,5.859422E4,1.0015738E5,1.65E3,0E0,0E0,0E0,0E0,0E0,0E0],"parents":[2147483647,0,0,1,1,2,2,5,5,6,6,7,7,10,10,11,11,12,12],"right_children":[2,4,6,-1,-1,8,10,12,-1,-1,14,16,18,-1,-1,-1,-1,-1,-1],"split_conditions":[1.1E1,8E0,3.3E1,-8.413208E0,-1.6912167E0,2.8E1,5.1E1,2E1,7.91099E-1,4.1944823E0,6E1,1.6E1,2.5E1,1.902428E0,-2.8980076E-1,-1.7316873E0,4.5414495E-1,-1.9371505E0,-3.9321482E-1],"split_indices":[0,0,0,0,0,0,0,0,0,0,0,0,0,0,0,0,0,0,0],"split_type":[0,0,0,0,0,0,0,0,0,0,0,0,0,0,0,0,0,0,0],"sum_hessian":[4.3E1,9E0,3.4E1,8E0,1E0,1.5E1,1.9E1,1E1,5E0,1.1E1,8E0,6E0,4E0,7E0,1E0,3E0,3E0,3E0,1E0],"tree_param":{"num_deleted":"0","num_feature":"1","num_nodes":"19","size_leaf_vector":"1"}},{"base_weights":[-3.1053574E1,-7.795799E0,1.548576E2,-1.3910975E0,2.653256E2,3.1882123E2,-4.5334606E1,1.281715E0,3.996055E2,-1.0479238E0,2.8090277E0,5.0217175E0,2.1445398E0,2.4228793E-1,-2.8864062E-1],"categories":[],"categories_nodes":[],"categories_segments":[],"categories_sizes":[],"default_left":[0,0,0,0,0,0,0,0,0,0,0,0,0,0,0],"id":59,"left_children":[1,-1,3,-1,5,7,9,-1,11,-1,13,-1,-1,-1,-1],"loss_changes":[6.651998E6,0E0,1.3056125E6,0E0,4.9532075E5,3.0051E5,1.6185371E4,0E0,1.5180075E5,0E0,4.101948E3,0E0,0E0,0E0,0E0],"parents":[2147483647,0,0,2,2,4,4,5,5,6,6,8,8,10,10],"right_children":[2,-1,4,-1,6,8,10,-1,12,-1,14,-1,-1,-1,-1],"split_conditions":[1E1,-7.795799E0,2.7E1,-1.3910975E0,6E1,3.6E1,6.1E1,1.281715E0,4.9E1,-1.0479238E0,6.3E1,5.0217175E0,2.1445398E0,2.4228793E-1,-2.8864062E-1],"split_indices":[0,0,0,0,0,0,0,0,0,0,0,0,0,0,0],"split_type":[0,0,0,0,0,0,0,0,0,0,0,0,0,0,0],"sum_hessian":[4.5E1,8E0,3.7E1,1E1,2.7E1,2.3E1,4E0,8E0,1.5E1,1E0,3E0,8E0,7E0,2E0,1E0],"tree_param":{"num_deleted":"0","num_feature":"1","num_nodes":"15","size_leaf_vector":"1"}},{"base_weights":[-2.066659E1,-6.9698234E0,1.514934E2,-8.07761E1,2.796839E2,-1.0395332E2,3.661802E-1,3.4637778E2,-4.5179688E1,-4.4236026E0,-1.6942173E0,3.909446E2,1.6016961E0,-1.0437324E0,2.7655165E0,-6.7408484E-1,4.6039167E-1,1.300989E0,4.15133E0,2.4090402E-1,-2.874863E-1],"categories":[],"categories_nodes":[],"categories_segments":[],"categories_sizes":[],"default_left":[0,0,0,0,0,0,0,0,0,0,0,0,0,0,0,0,0,0,0,0,0],"id":60,"left_children":[1,-1,3,5,7,9,-1,11,13,15,-1,17,-1,-1,19,-1,-1,-1,-1,-1,-1],"loss_changes":[5.4561525E6,0E0,1.1504406E6,4.5162453E4,5.5430075E5,8.0326484E4,0E0,7.619725E4,1.6042227E4,2.5314693E4,0E0,1.678375E4,0E0,0E0,4.0630095E3,0E0,0E0,0E0,0E0,0E0,0E0],"parents":[2147483647,0,0,2,2,3,3,4,4,5,5,7,7,8,8,9,9,11,11,14,14],"right_children":[2,-1,4,6,8,10,-1,12,14,16,-1,18,-1,-1,20,-1,-1,-1,-1,-1,-1],"split_conditions":[1.1E1,-6.9698234E0,3.2E1,2.8E1,6E1,2E1,3.661802E-1,5.5E1,6.1E1,1.5E1,-1.6942173E0,3.6E1,1.6016961E0,-1.0437324E0,6.3E1,-6.7408484E-1,4.6039167E-1,1.300989E0,4.15133E0,2.4090402E-1,-2.874863E-1],"split_indices":[0,0,0,0,0,0,0,0,0,0,0,0,0,0,0,0,0,0,0,0,0],"split_type":[0,0,0,0,0,0,0,0,0,0,0,0,0,0,0,0,0,0,0,0,0],"sum_hessian":[4.4E1,8E0,3.6E1,1.3E1,2.3E1,1.1E1,2E0,1.9E1,4E0,5E0,6E0,1.4E1,5E0,1E0,3E0,2E0,3E0,2E0,1.2E1,2E0,1E0],"tree_param":{"num_deleted":"0","num_feature":"1","num_nodes":"21","size_leaf_vector":"1"}},{"base_weights":[1.104963E1,-3.790437E2,3.416355E2,-7.3935294E0,-1.4477312E2,3.9333823E2,3.6951084E1,-1.8719937E0,-9.782738E1,1.2547779E0,4.7933493E2,6.106999E-1,-2.8633595E-1,4.5732204E1,-1.6439766E0,5.4944396E0,2.4468014E0,4.8626952E-2,5.532519E-1],"categories":[],"categories_nodes":[],"categories_segments":[],"categories_sizes":[],"default_left":[0,0,0,0,0,0,0,0,0,0,0,0,0,0,0,0,0,0,0],"id":61,"left_children":[1,3,5,-1,7,9,11,-1,13,-1,15,-1,-1,17,-1,-1,-1,-1,-1],"loss_changes":[6.3198115E6,1.738664E6,3.9565325E5,0E0,3.4020312E3,4.2807125E5,1.1323049E4,0E0,1.1162381E5,0E0,6.97915E4,0E0,0E0,1.3607285E3,0E0,0E0,0E0,0E0,0E0],"parents":[2147483647,0,0,1,1,2,2,4,4,5,5,6,6,8,8,10,10,13,13],"right_children":[2,4,6,-1,8,10,12,-1,14,-1,16,-1,-1,18,-1,-1,-1,-1,-1],"split_conditions":[2.8E1,1E1,5.5E1,-7.3935294E0,1.6E1,3.7E1,6.3E1,-1.8719937E0,2E1,1.2547779E0,4.9E1,6.106999E-1,-2.8633595E-1,1.8E1,-1.6439766E0,5.4944396E0,2.4468014E0,4.8626952E-2,5.532519E-1],"split_indices":[0,0,0,0,0,0,0,0,0,0,0,0,0,0,0,0,0,0,0],"split_type":[0,0,0,0,0,0,0,0,0,0,0,0,0,0,0,0,0,0,0],"sum_hessian":[4.6E1,2.1E1,2.5E1,7E0,1.4E1,2.1E1,4E0,5E0,9E0,6E0,1.5E1,3E0,1E0,3E0,6E0,1E1,5E0,1E0,2E0],"tree_param":{"num_deleted":"0","num_feature":"1","num_nodes":"19","size_leaf_vector":"1"}},{"base_weights":[-1.4149799E1,-3.9996844E2,2.6411362E2,-7.673136E0,-2.0721384E2,3.0216174E2,-3.953038E1,-2.694754E0,-1.25342E2,8.806535E-1,3.4793658E2,-1.0419999E0,2.3603794E-1,9.248326E0,-1.6308242E0,3.966408E2,1.8418776E0,-3.87875E-1,5.1735157E-1,1.7334852E0,4.3228025E0],"categories":[],"categories_nodes":[],"categories_segments":[],"categories_sizes":[],"default_left":[0,0,0,0,0,0,0,0,0,0,0,0,0,0,0,0,0,0,0,0,0],"id":62,"left_children":[1,3,5,-1,7,9,11,-1,13,-1,15,-1,-1,17,-1,19,-1,-1,-1,-1,-1],"loss_changes":[5.258018E6,1.2130565E6,3.4718012E5,0E0,2.8345875E4,2.0394375E5,2.2062156E4,0E0,5.0517547E4,0E0,5.390825E4,0E0,0E0,1.015313E4,0E0,2.98875E3,0E0,0E0,0E0,0E0,0E0],"parents":[2147483647,0,0,1,1,2,2,4,4,5,5,6,6,8,8,10,10,13,13,15,15],"right_children":[2,4,6,-1,8,10,12,-1,14,-1,16,-1,-1,18,-1,20,-1,-1,-1,-1,-1],"split_conditions":[2.8E1,9E0,6E1,-7.673136E0,1.6E1,3.4E1,6.1E1,-2.694754E0,2E1,8.806535E-1,5.2E1,-1.0419999E0,2.3603794E-1,1.7E1,-1.6308242E0,3.7E1,1.8418776E0,-3.87875E-1,5.1735157E-1,1.7334852E0,4.3228025E0],"split_indices":[0,0,0,0,0,0,0,0,0,0,0,0,0,0,0,0,0,0,0,0,0],"split_type":[0,0,0,0,0,0,0,0,0,0,0,0,0,0,0,0,0,0,0,0,0],"sum_hessian":[4.6E1,1.9E1,2.7E1,5E0,1.4E1,2.4E1,3E0,6E0,8E0,5E0,1.9E1,1E0,2E0,2E0,6E0,1.3E1,6E0,1E0,1E0,3E0,1E1],"tree_param":{"num_deleted":"0","num_feature":"1","num_nodes":"21","size_leaf_vector":"1"}},{"base_weights":[-3.071841E1,-6.9159326E2,1.6604959E2,-7.952099E0,-2.883678E0,-1.3245219E0,2.9090042E2,3.2974265E2,-9.456905E-1,1.0425694E0,3.55112E2,4.0229363E0,1.6065301E0],"categories":[],"categories_nodes":[],"categories_segments":[],"categories_sizes":[],"default_left":[0,0,0,0,0,0,0,0,0,0,0,0,0],"id":63,"left_children":[1,3,5,-1,-1,-1,7,9,-1,-1,11,-1,-1],"loss_changes":[5.958995E6,9.47295E4,1.3808165E6,0E0,0E0,0E0,4.2857375E5,7.88955E4,0E0,0E0,9.114075E4,0E0,0E0],"parents":[2147483647,0,0,1,1,2,2,6,6,7,7,10,10],"right_children":[2,4,6,-1,-1,-1,8,10,-1,-1,12,-1,-1],"split_conditions":[1.2E1,7E0,2.6E1,-7.952099E0,-2.883678E0,-1.3245219E0,6E1,3.4E1,-9.456905E-1,1.0425694E0,5.2E1,4.0229363E0,1.6065301E0],"split_indices":[0,0,0,0,0,0,0,0,0,0,0,0,0],"split_type":[0,0,0,0,0,0,0,0,0,0,0,0,0],"sum_hessian":[4.3E1,9E0,3.4E1,6E0,3E0,1E1,2.4E1,2.2E1,2E0,3E0,1.9E1,1.4E1,5E0],"tree_param":{"num_deleted":"0","num_feature":"1","num_nodes":"13","size_leaf_vector":"1"}},{"base_weights":[-4.204858E1,-7.4969446E2,1.751501E2,-8.650198E0,-3.0758734E0,-7.432257E1,3.3117932E2,-1.188364E0,6.42092E-1,4.1239676E2,1.6347359E2,1.2644433E0,4.456349E0,1.7525764E0,2.5323632E-1],"categories":[],"categories_nodes":[],"categories_segments":[],"categories_sizes":[],"default_left":[0,0,0,0,0,0,0,0,0,0,0,0,0,0,0],"id":64,"left_children":[1,3,5,-1,-1,7,9,-1,-1,11,13,-1,-1,-1,-1],"loss_changes":[6.882902E6,1.362515E5,1.3798346E6,0E0,0E0,1.0086101E5,1.917195E5,0E0,0E0,4.3789E4,8.8084375E3,0E0,0E0,0E0,0E0],"parents":[2147483647,0,0,1,1,2,2,5,5,6,6,9,9,10,10],"right_children":[2,4,6,-1,-1,8,10,-1,-1,12,14,-1,-1,-1,-1],"split_conditions":[1.2E1,6E0,3.2E1,-8.650198E0,-3.0758734E0,2.8E1,5.2E1,-1.188364E0,6.42092E-1,3.6E1,6E1,1.2644433E0,4.456349E0,1.7525764E0,2.5323632E-1],"split_indices":[0,0,0,0,0,0,0,0,0,0,0,0,0,0,0],"split_type":[0,0,0,0,0,0,0,0,0,0,0,0,0,0,0],"sum_hessian":[4.2E1,9E0,3.3E1,6E0,3E0,1.3E1,2E1,1E1,3E0,1.2E1,8E0,2E0,1E1,7E0,1E0],"tree_param":{"num_deleted":"0","num_feature":"1","num_nodes":"15","size_leaf_vector":"1"}},{"base_weights":[-1.088443E1,-5.754352E2,2.1383646E2,-7.8267117E0,-2.9103246E0,-4.9278873E1,3.1591464E2,1.2832182E1,-1.00017876E2,4.350732E2,7.218634E1,-3.7627146E-1,3.2268555E1,-1.358877E0,3.8906443E-1,1.9802402E0,5.0613E0,1.5446725E0,-4.474192E1,4.680588E-1,-1.3259766E-1,-1.0350624E0,2.818902E-2],"categories":[],"categories_nodes":[],"categories_segments":[],"categories_sizes":[],"default_left":[0,0,0,0,0,0,0,0,0,0,0,0,0,0,0,0,0,0,0,0,0,0,0],"id":65,"left_children":[1,3,5,-1,-1,7,9,11,13,15,17,-1,19,-1,-1,-1,-1,-1,21,-1,-1,-1,-1],"loss_changes":[6.4644575E6,5.12934E5,1.0036811E6,0E0,0E0,3.816689E4,7.2251175E5,8.196111E3,4.032109E4,1.444305E5,1.1138686E5,0E0,4.5711836E3,0E0,0E0,0E0,0E0,0E0,1.58095E4,0E0,0E0,0E0,0E0],"parents":[2147483647,0,0,1,1,2,2,5,5,6,6,7,7,8,8,9,9,10,10,12,12,18,18],"right_children":[2,4,6,-1,-1,8,10,12,14,16,18,-1,20,-1,-1,-1,-1,-1,22,-1,-1,-1,-1],"split_conditions":[1.6E1,7E0,3.1E1,-7.8267117E0,-2.9103246E0,2.1E1,5.2E1,1.7E1,2.7E1,3.8E1,6E1,-3.7627146E-1,2E1,-1.358877E0,3.8906443E-1,1.9802402E0,5.0613E0,1.5446725E0,6.1E1,4.680588E-1,-1.3259766E-1,-1.0350624E0,2.818902E-2],"split_indices":[0,0,0,0,0,0,0,0,0,0,0,0,0,0,0,0,0,0,0,0,0,0,0],"split_type":[0,0,0,0,0,0,0,0,0,0,0,0,0,0,0,0,0,0,0,0,0,0,0],"sum_hessian":[4.8E1,1.3E1,3.5E1,6E0,7E0,1E1,2.5E1,5E0,5E0,1.6E1,9E0,1E0,4E0,4E0,1E0,5E0,1.1E1,5E0,4E0,3E0,1E0,1E0,3E0],"tree_param":{"num_deleted":"0","num_feature":"1","num_nodes":"23","size_leaf_vector":"1"}},{"base_weights":[-1.9101091E1,-5.0918588E2,2.7599167E2,-7.764098E0,-2.4557076E2,5.090215E1,3.35256E2,-2.5707824E0,-5.4499805E-1,-3.7786523E-1,7.3266524E-1,4.4411526E2,9.039212E1,4.981898E0,2.1975975E0,1.3740599E0,2.8000216E0,2.3848493E-1,-2.834785E-1],"categories":[],"categories_nodes":[],"categories_segments":[],"categories_sizes":[],"default_left":[0,0,0,0,0,0,0,0,0,0,0,0,0,0,0,0,0,0,0],"id":66,"left_children":[1,3,5,-1,7,9,11,-1,-1,-1,-1,13,15,-1,-1,-1,17,-1,-1],"loss_changes":[6.357167E6,8.763355E5,3.412465E5,0E0,2.0708125E3,1.9028734E4,5.1288075E5,0E0,0E0,0E0,0E0,1.16895E4,3.4426258E4,0E0,0E0,0E0,3.9643484E3,0E0,0E0],"parents":[2147483647,0,0,1,1,2,2,4,4,5,5,6,6,11,11,12,12,16,16],"right_children":[2,4,6,-1,8,10,12,-1,-1,-1,-1,14,16,-1,-1,-1,18,-1,-1],"split_conditions":[2.6E1,7E0,3.3E1,-7.764098E0,2.4E1,2.8E1,5.5E1,-2.5707824E0,-5.4499805E-1,-3.7786523E-1,7.3266524E-1,4.9E1,6E1,4.981898E0,2.1975975E0,1.3740599E0,6.3E1,2.3848493E-1,-2.834785E-1],"split_indices":[0,0,0,0,0,0,0,0,0,0,0,0,0,0,0,0,0,0,0],"split_type":[0,0,0,0,0,0,0,0,0,0,0,0,0,0,0,0,0,0,0],"sum_hessian":[4.1E1,1.5E1,2.6E1,6E0,9E0,6E0,2E1,8E0,1E0,1E0,5E0,1.3E1,7E0,9E0,4E0,4E0,3E0,2E0,1E0],"tree_param":{"num_deleted":"0","num_feature":"1","num_nodes":"19","size_leaf_vector":"1"}},{"base_weights":[-7.401931E0,-6.6314667E2,1.4668889E2,-6.967201E0,-1.5110898E0,-1.17729996E2,2.6421948E2,-5.4862705E1,-1.7277261E0,2.9152582E2,-5.5765625E1,-9.4433683E-1,1.1789388E1,9.1057694E-1,3.3179346E2,-1.031875E0,2.5115624E-1,2.3856585E-1,-1.217832E-1,3.905348E0,1.7303584E0],"categories":[],"categories_nodes":[],"categories_segments":[],"categories_sizes":[],"default_left":[0,0,0,0,0,0,0,0,0,0,0,0,0,0,0,0,0,0,0,0,0],"id":67,"left_children":[1,3,5,-1,-1,7,9,11,-1,13,15,-1,17,-1,19,-1,-1,-1,-1,-1,-1],"loss_changes":[5.046561E6,5.39225E3,1.3052908E6,0E0,0E0,3.2496969E4,2.73408E5,2.4088623E4,0E0,1.685995E5,1.731182E4,0E0,1.7373036E3,0E0,9.91365E4,0E0,0E0,0E0,0E0,0E0,0E0],"parents":[2147483647,0,0,1,1,2,2,5,5,6,6,7,7,9,9,10,10,12,12,14,14],"right_children":[2,4,6,-1,-1,8,10,12,-1,14,16,-1,18,-1,20,-1,-1,-1,-1,-1,-1],"split_conditions":[1.2E1,9E0,2.7E1,-6.967201E0,-1.5110898E0,2.1E1,6E1,1.7E1,-1.7277261E0,3.4E1,6.1E1,-9.4433683E-1,1.9E1,9.1057694E-1,5.2E1,-1.031875E0,2.5115624E-1,2.3856585E-1,-1.217832E-1,3.905348E0,1.7303584E0],"split_indices":[0,0,0,0,0,0,0,0,0,0,0,0,0,0,0,0,0,0,0,0,0],"split_type":[0,0,0,0,0,0,0,0,0,0,0,0,0,0,0,0,0,0,0,0,0],"sum_hessian":[4.7E1,8E0,3.9E1,7E0,1E0,1.2E1,2.7E1,7E0,5E0,2.5E1,2E0,4E0,3E0,5E0,2E1,1E0,1E0,2E0,1E0,1.3E1,7E0],"tree_param":{"num_deleted":"0","num_feature":"1","num_nodes":"21","size_leaf_vector":"1"}},{"base_weights":[-6.0344063E1,-6.572841E2,1.4104971E2,-8.344976E0,-3.722422E0,-1.0074055E2,2.9152524E2,-1.1261059E0,2.855E-1,3.3396567E2,1.0345816E2,1.192566E0,4.002368E2,1.3514818E0,-2.8334767E-1,4.566997E0,1.9355443E0],"categories":[],"categories_nodes":[],"categories_segments":[],"categories_sizes":[],"default_left":[0,0,0,0,0,0,0,0,0,0,0,0,0,0,0,0,0],"id":68,"left_children":[1,3,5,-1,-1,7,9,-1,-1,11,13,-1,15,-1,-1,-1,-1],"loss_changes":[5.969735E6,1.65464E5,1.4084345E6,0E0,0E0,2.861014E4,1.357415E5,0E0,0E0,1.916405E5,3.289147E4,0E0,2.4949E4,0E0,0E0,0E0,0E0],"parents":[2147483647,0,0,1,1,2,2,5,5,6,6,9,9,10,10,12,12],"right_children":[2,4,6,-1,-1,8,10,-1,-1,12,14,-1,16,-1,-1,-1,-1],"split_conditions":[1.2E1,6E0,2.9E1,-8.344976E0,-3.722422E0,2.8E1,5.6E1,-1.1261059E0,2.855E-1,3.6E1,6E1,1.192566E0,4.9E1,1.3514818E0,-2.8334767E-1,4.566997E0,1.9355443E0],"split_indices":[0,0,0,0,0,0,0,0,0,0,0,0,0,0,0,0,0],"split_type":[0,0,0,0,0,0,0,0,0,0,0,0,0,0,0,0,0],"sum_hessian":[4.7E1,1.1E1,3.6E1,5E0,6E0,1.4E1,2.2E1,1.3E1,1E0,1.7E1,5E0,5E0,1.2E1,4E0,1E0,8E0,4E0],"tree_param":{"num_deleted":"0","num_feature":"1","num_nodes":"17","size_leaf_vector":"1"}},{"base_weights":[1.7986086E1,-7.5430457E2,1.4767206E2,-8.202671E0,-1.5660429E0,-3.5946987E1,2.806421E2,-8.736273E1,7.1224904E-1,3.3737604E2,-5.8752495E1,-3.9767693E1,-1.3709251E0,3.6339736E0,1.2950586E0,-1.0266151E0,-2.2092633E0,-1.1750737E0,3.468324E-1,2.5128514E-1,-2.8221485E-1],"categories":[],"categories_nodes":[],"categories_segments":[],"categories_sizes":[],"default_left":[0,0,0,0,0,0,0,0,0,0,0,0,0,0,0,0,0,0,0,0,0],"id":69,"left_children":[1,3,5,-1,-1,7,9,11,-1,13,15,17,-1,-1,-1,-1,19,-1,-1,-1,-1],"loss_changes":[4.523839E6,6.358175E4,9.5514175E5,0E0,0E0,1.05764266E5,4.629745E5,2.1408352E4,0E0,3.48835E4,1.0832204E4,5.530954E4,0E0,0E0,0E0,0E0,3.5526533E3,0E0,0E0,0E0,0E0],"parents":[2147483647,0,0,1,1,2,2,5,5,6,6,7,7,9,9,10,10,11,11,16,16],"right_children":[2,4,6,-1,-1,8,10,12,-1,14,16,18,-1,-1,-1,-1,20,-1,-1,-1,-1],"split_conditions":[1.1E1,5E0,3.3E1,-8.202671E0,-1.5660429E0,2.7E1,6E1,2.1E1,7.1224904E-1,5.5E1,6.1E1,1.6E1,-1.3709251E0,3.6339736E0,1.2950586E0,-1.0266151E0,6.3E1,-1.1750737E0,3.468324E-1,2.5128514E-1,-2.8221485E-1],"split_indices":[0,0,0,0,0,0,0,0,0,0,0,0,0,0,0,0,0,0,0,0,0],"split_type":[0,0,0,0,0,0,0,0,0,0,0,0,0,0,0,0,0,0,0,0,0],"sum_hessian":[4.2E1,5E0,3.7E1,4E0,1E0,1.6E1,2.1E1,1.1E1,5E0,1.8E1,3E0,7E0,4E0,1.5E1,3E0,1E0,2E0,3E0,4E0,1E0,1E0],"tree_param":{"num_deleted":"0","num_feature":"1","num_nodes":"21","size_leaf_vector":"1"}},{"base_weights":[-2.836686E1,-4.788028E2,2.6551437E2,-7.572686E0,-2.1052768E0,6.478447E1,3.2634845E2,-3.783418E-1,8.603379E-1,4.3389536E2,1.2198993E2,1.5674609E0,4.9068856E0,1.6641543E0,-1.0225078E0],"categories":[],"categories_nodes":[],"categories_segments":[],"categories_sizes":[],"default_left":[0,0,0,0,0,0,0,0,0,0,0,0,0,0,0],"id":70,"left_children":[1,3,5,-1,-1,7,9,-1,-1,11,13,-1,-1,-1,-1],"loss_changes":[6.2137405E6,1.142912E6,3.1630638E5,0E0,0E0,2.341743E4,3.9313375E5,0E0,0E0,9.712225E4,1.20163266E5,0E0,0E0,0E0,0E0],"parents":[2147483647,0,0,1,1,2,2,5,5,6,6,9,9,10,10],"right_children":[2,4,6,-1,-1,8,10,-1,-1,12,14,-1,-1,-1,-1],"split_conditions":[2.4E1,8E0,3.4E1,-7.572686E0,-2.1052768E0,2.8E1,5.1E1,-3.783418E-1,8.603379E-1,3.7E1,6E1,1.5674609E0,4.9068856E0,1.6641543E0,-1.0225078E0],"split_indices":[0,0,0,0,0,0,0,0,0,0,0,0,0,0,0],"split_type":[0,0,0,0,0,0,0,0,0,0,0,0,0,0,0],"sum_hessian":[4.4E1,1.7E1,2.7E1,7E0,1E1,7E0,2E1,1E0,6E0,1.2E1,8E0,3E0,9E0,7E0,1E0],"tree_param":{"num_deleted":"0","num_feature":"1","num_nodes":"15","size_leaf_vector":"1"}},{"base_weights":[-3.9787106E1,-3.5988974E2,3.1142157E2,-6.766504E0,-1.4479517E2,3.9223785E2,7.134141E1,-1.9859903E0,-8.56788E1,1.3666937E0,4.3384537E2,1.3201323E0,-5.4574917E1,2.5080168E1,-1.596259E0,4.646847E0,1.4658244E0,-1.018418E0,2.5436914E-1,-3.4916604E-1,5.005165E-1],"categories":[],"categories_nodes":[],"categories_segments":[],"categories_sizes":[],"default_left":[0,0,0,0,0,0,0,0,0,0,0,0,0,0,0,0,0,0,0,0,0],"id":71,"left_children":[1,3,5,-1,7,9,11,-1,13,-1,15,-1,17,19,-1,-1,-1,-1,-1,-1,-1],"loss_changes":[5.283355E6,1.5223072E6,3.945795E5,0E0,2.6957781E4,8.65135E4,6.81037E4,0E0,9.200335E4,0E0,1.742475E4,0E0,1.7122496E4,1.0861596E4,0E0,0E0,0E0,0E0,0E0,0E0,0E0],"parents":[2147483647,0,0,1,1,2,2,4,4,5,5,6,6,8,8,10,10,12,12,13,13],"right_children":[2,4,6,-1,8,10,12,-1,14,-1,16,-1,18,20,-1,-1,-1,-1,-1,-1,-1],"split_conditions":[2.8E1,1E1,5.5E1,-6.766504E0,1.6E1,3.7E1,6E1,-1.9859903E0,2E1,1.3666937E0,4.9E1,1.3201323E0,6.1E1,1.7E1,-1.596259E0,4.646847E0,1.4658244E0,-1.018418E0,2.5436914E-1,-3.4916604E-1,5.005165E-1],"split_indices":[0,0,0,0,0,0,0,0,0,0,0,0,0,0,0,0,0,0,0,0,0],"split_type":[0,0,0,0,0,0,0,0,0,0,0,0,0,0,0,0,0,0,0,0,0],"sum_hessian":[4.4E1,2.3E1,2.1E1,8E0,1.5E1,1.5E1,6E0,6E0,9E0,3E0,1.2E1,4E0,2E0,4E0,5E0,1E1,2E0,1E0,1E0,1E0,3E0],"tree_param":{"num_deleted":"0","num_feature":"1","num_nodes":"21","size_leaf_vector":"1"}},{"base_weights":[-3.5732037E1,-6.3829407E2,1.2999522E2,-8.038729E0,-3.5089025E0,-7.059567E1,2.7734402E2,-1.1633377E2,6.0923916E-1,3.390757E2,4.7140774E1,-7.032041E1,-1.6408398E2,1.3447797E0,3.8475528E2,6.834881E1,-2.7801368E-1,-1.1486399E0,-6.598544E-2,-1.799669E0,-3.7044334E-1,4.7073464E0,1.8353102E0,8.337932E-1,2.4025948E-1],"categories":[],"categories_nodes":[],"categories_segments":[],"categories_sizes":[],"default_left":[0,0,0,0,0,0,0,0,0,0,0,0,0,0,0,0,0,0,0,0,0,0,0,0,0],"id":72,"left_children":[1,3,5,-1,-1,7,9,11,-1,13,15,17,19,-1,21,23,-1,-1,-1,-1,-1,-1,-1,-1,-1],"loss_changes":[4.867858E6,7.6567E4,1.1673069E6,0E0,0E0,1.1590174E5,2.9576725E5,1.2353797E4,0E0,8.594225E4,1.3181229E4,2.5827902E4,1.0975469E3,0E0,1.0397375E5,6.591719E2,0E0,0E0,0E0,0E0,0E0,0E0,0E0,0E0,0E0],"parents":[2147483647,0,0,1,1,2,2,5,5,6,6,7,7,9,9,10,10,11,11,12,12,14,14,15,15],"right_children":[2,4,6,-1,-1,8,10,12,-1,14,16,18,20,-1,22,24,-1,-1,-1,-1,-1,-1,-1,-1,-1],"split_conditions":[1.2E1,5E0,3.2E1,-8.038729E0,-3.5089025E0,2.8E1,5.5E1,2.2E1,6.0923916E-1,3.6E1,6.3E1,1.7E1,2.6E1,1.3447797E0,4.9E1,6E1,-2.7801368E-1,-1.1486399E0,-6.598544E-2,-1.799669E0,-3.7044334E-1,4.7073464E0,1.8353102E0,8.337932E-1,2.4025948E-1],"split_indices":[0,0,0,0,0,0,0,0,0,0,0,0,0,0,0,0,0,0,0,0,0,0,0,0,0],"split_type":[0,0,0,0,0,0,0,0,0,0,0,0,0,0,0,0,0,0,0,0,0,0,0,0,0],"sum_hessian":[4.6E1,9E0,3.7E1,4E0,5E0,1.6E1,2.1E1,1.2E1,4E0,1.6E1,5E0,8E0,4E0,4E0,1.2E1,4E0,1E0,4E0,4E0,3E0,1E0,7E0,5E0,2E0,2E0],"tree_param":{"num_deleted":"0","num_feature":"1","num_nodes":"25","size_leaf_vector":"1"}},{"base_weights":[1.6969425E1,-6.693506E0,1.4663895E2,-8.2135506E1,2.635171E2,-2.407732E1,-1.3150768E2,3.0659244E2,6.022551E1,-8.951302E-1,3.6027523E1,-1.6213048E0,2.701621E-1,1.1985441E0,3.5228384E2,9.7817487E-1,-1.3917969E1,4.9761936E-1,-1.03109375E-1,4.1890287E0,1.885604E0,8.205078E-2,-2.7690235E-1],"categories":[],"categories_nodes":[],"categories_segments":[],"categories_sizes":[],"default_left":[0,0,0,0,0,0,0,0,0,0,0,0,0,0,0,0,0,0,0,0,0,0,0],"id":73,"left_children":[1,-1,3,5,7,9,11,13,15,-1,17,-1,-1,-1,19,-1,21,-1,-1,-1,-1,-1,-1],"loss_changes":[4.1964925E6,0E0,1.0886462E6,3.6814125E4,2.0435962E5,3.8267918E4,4.297857E4,1.20111E5,2.0158932E4,0E0,4.270011E3,0E0,0E0,0E0,6.1484375E4,0E0,1.4071964E3,0E0,0E0,0E0,0E0,0E0,0E0],"parents":[2147483647,0,0,2,2,3,3,4,4,5,5,6,6,7,7,8,8,10,10,14,14,16,16],"right_children":[2,-1,4,6,8,10,12,14,16,-1,18,-1,-1,-1,20,-1,22,-1,-1,-1,-1,-1,-1],"split_conditions":[9E0,-6.693506E0,2.9E1,2.1E1,5.6E1,1.5E1,2.7E1,3.6E1,6E1,-8.951302E-1,2E1,-1.6213048E0,2.701621E-1,1.1985441E0,4.9E1,9.7817487E-1,6.2E1,4.9761936E-1,-1.03109375E-1,4.1890287E0,1.885604E0,8.205078E-2,-2.7690235E-1],"split_indices":[0,0,0,0,0,0,0,0,0,0,0,0,0,0,0,0,0,0,0,0,0,0,0],"split_type":[0,0,0,0,0,0,0,0,0,0,0,0,0,0,0,0,0,0,0,0,0,0,0],"sum_hessian":[4.4E1,6E0,3.8E1,1.3E1,2.5E1,7E0,6E0,2E1,5E0,3E0,4E0,5E0,1E0,5E0,1.5E1,3E0,2E0,3E0,1E0,9E0,6E0,1E0,1E0],"tree_param":{"num_deleted":"0","num_feature":"1","num_nodes":"23","size_leaf_vector":"1"}},{"base_weights":[-9.564694E0,-5.917872E2,2.1043222E2,-7.931587E0,-3.2575727E0,-3.1336636E1,3.1382407E2,-1.0120192E2,5.9777784E-1,3.8380154E2,5.580078E0,-3.1990233E-1,-1.2129925E0,1.4296734E0,4.1883955E0,7.547656E-1,-6.670787E1,-1.0156327E0,8.172266E-2],"categories":[],"categories_nodes":[],"categories_segments":[],"categories_sizes":[],"default_left":[0,0,0,0,0,0,0,0,0,0,0,0,0,0,0,0,0,0,0],"id":74,"left_children":[1,3,5,-1,-1,7,9,11,-1,13,15,-1,-1,-1,-1,-1,17,-1,-1],"loss_changes":[5.3743265E6,2.28499E5,7.771574E5,0E0,0E0,7.5914664E4,4.605455E5,3.2207188E3,0E0,5.785075E4,3.5342027E4,0E0,0E0,0E0,0E0,0E0,1.0379926E4,0E0,0E0],"parents":[2147483647,0,0,1,1,2,2,5,5,6,6,7,7,9,9,10,10,16,16],"right_children":[2,4,6,-1,-1,8,10,12,-1,14,16,-1,-1,-1,-1,-1,18,-1,-1],"split_conditions":[1.6E1,5E0,3.2E1,-7.931587E0,-3.2575727E0,2.8E1,5.5E1,2.1E1,5.9777784E-1,3.7E1,5.8E1,-3.1990233E-1,-1.2129925E0,1.4296734E0,4.1883955E0,7.547656E-1,6.1E1,-1.0156327E0,8.172266E-2],"split_indices":[0,0,0,0,0,0,0,0,