{"learner":{"attributes":{"scikit_learn":"{\"_estimator_type\": \"regressor\"}"},"feature_names":["State","Year","Total population"],"feature_types":["c","int","int"],"gradient_booster":{"model":{"cats":{"enc":[{"offsets":[0,2,4,6,8,10,12,14,16,18,20,22,24,26,28,30,32,34,36,38,40,42,44,46,48,50,52,54,56,58,60,62,64,66,68,70,72,74,76,78,80,82,84,86,88,90,92,94,96,98,100,102],"values":[65,75,65,76,65,82,65,90,67,65,67,79,67,84,68,67,68,69,70,76,71,65,72,73,73,65,73,68,73,76,73,78,75,83,75,89,76,65,77,65,77,68,77,69,77,73,77,78,77,79,77,83,77,84,78,67,78,68,78,69,78,72,78,74,78,77,78,86,78,89,79,72,79,75,79,82,80,65,82,73,83,67,83,68,84,78,84,88,85,84,86,65,86,84,87,65,87,73,87,86,87,89]},{"offsets":[],"values":[]},{"offsets":[],"values":[]}],"feature_segments":[0,51,51,51],"sorted_idx":[0,1,2,3,4,5,6,7,8,9,10,11,12,13,14,15,16,17,18,19,20,21,22,23,24,25,26,27,28,29,30,31,32,33,34,35,36,37,38,39,40,41,42,43,44,45,46,47,48,49,50]},"gbtree_model_param":{"num_parallel_tree":"1","num_trees":"1000"},"iteration_indptr":[0,1,2,3,4,5,6,7,8,9,10,11,12,13,14,15,16,17,18,19,20,21,22,23,24,25,26,27,28,29,30,31,32,33,34,35,36,37,38,39,40,41,42,43,44,45,46,47,48,49,50,51,52,53,54,55,56,57,58,59,60,61,62,63,64,65,66,67,68,69,70,71,72,73,74,75,76,77,78,79,80,81,82,83,84,85,86,87,88,89,90,91,92,93,94,95,96,97,98,99,100,101,102,103,104,105,106,107,108,109,110,111,112,113,114,115,116,117,118,119,120,121,122,123,124,125,126,127,128,129,130,131,132,133,134,135,136,137,138,139,140,141,142,143,144,145,146,147,148,149,150,151,152,153,154,155,156,157,158,159,160,161,162,163,164,165,166,167,168,169,170,171,172,173,174,175,176,177,178,179,180,181,182,183,184,185,186,187,188,189,190,191,192,193,194,195,196,197,198,199,200,201,202,203,204,205,206,207,208,209,210,211,212,213,214,215,216,217,218,219,220,221,222,223,224,225,226,227,228,229,230,231,232,233,234,235,236,237,238,239,240,241,242,243,244,245,246,247,248,249,250,251,252,253,254,255,256,257,258,259,260,261,262,263,264,265,266,267,268,269,270,271,272,273,274,275,276,277,278,279,280,281,282,283,284,285,286,287,288,289,290,291,292,293,294,295,296,297,298,299,300,301,302,303,304,305,306,307,308,309,310,311,312,313,314,315,316,317,318,319,320,321,322,323,324,325,326,327,328,329,330,331,332,333,334,335,336,337,338,339,340,341,342,343,344,345,346,347,348,349,350,351,352,353,354,355,356,357,358,359,360,361,362,363,364,365,366,367,368,369,370,371,372,373,374,375,376,377,378,379,380,381,382,383,384,385,386,387,388,389,390,391,392,393,394,395,396,397,398,399,400,401,402,403,404,405,406,407,408,409,410,411,412,413,414,415,416,417,418,419,420,421,422,423,424,425,426,427,428,429,430,431,432,433,434,435,436,437,438,439,440,441,442,443,444,445,446,447,448,449,450,451,452,453,454,455,456,457,458,459,460,461,462,463,464,465,466,467,468,469,470,471,472,473,474,475,476,477,478,479,480,481,482,483,484,485,486,487,488,489,490,491,492,493,494,495,496,497,498,499,500,501,502,503,504,505,506,507,508,509,510,511,512,513,514,515,516,517,518,519,520,521,522,523,524,525,526,527,528,529,530,531,532,533,534,535,536,537,538,539,540,541,542,543,544,545,546,547,548,549,550,551,552,553,554,555,556,557,558,559,560,561,562,563,564,565,566,567,568,569,570,571,572,573,574,575,576,577,578,579,580,581,582,583,584,585,586,587,588,589,590,591,592,593,594,595,596,597,598,599,600,601,602,603,604,605,606,607,608,609,610,611,612,613,614,615,616,617,618,619,620,621,622,623,624,625,626,627,628,629,630,631,632,633,634,635,636,637,638,639,640,641,642,643,644,645,646,647,648,649,650,651,652,653,654,655,656,657,658,659,660,661,662,663,664,665,666,667,668,669,670,671,672,673,674,675,676,677,678,679,680,681,682,683,684,685,686,687,688,689,690,691,692,693,694,695,696,697,698,699,700,701,702,703,704,705,706,707,708,709,710,711,712,713,714,715,716,717,718,719,720,721,722,723,724,725,726,727,728,729,730,731,732,733,734,735,736,737,738,739,740,741,742,743,744,745,746,747,748,749,750,751,752,753,754,755,756,757,758,759,760,761,762,763,764,765,766,767,768,769,770,771,772,773,774,775,776,777,778,779,780,781,782,783,784,785,786,787,788,789,790,791,792,793,794,795,796,797,798,799,800,801,802,803,804,805,806,807,808,809,810,811,812,813,814,815,816,817,818,819,820,821,822,823,824,825,826,827,828,829,830,831,832,833,834,835,836,837,838,839,840,841,842,843,844,845,846,847,848,849,850,851,852,853,854,855,856,857,858,859,860,861,862,863,864,865,866,867,868,869,870,871,872,873,874,875,876,877,878,879,880,881,882,883,884,885,886,887,888,889,890,891,892,893,894,895,896,897,898,899,900,901,902,903,904,905,906,907,908,909,910,911,912,913,914,915,916,917,918,919,920,921,922,923,924,925,926,927,928,929,930,931,932,933,934,935,936,937,938,939,940,941,942,943,944,945,946,947,948,949,950,951,952,953,954,955,956,957,958,959,960,961,962,963,964,965,966,967,968,969,970,971,972,973,974,975,976,977,978,979,980,981,982,983,984,985,986,987,988,989,990,991,992,993,994,995,996,997,998,999,1000],"tree_info":[0,0,0,0,0,0,0,0,0,0,0,0,0,0,0,0,0,0,0,0,0,0,0,0,0,0,0,0,0,0,0,0,0,0,0,0,0,0,0,0,0,0,0,0,0,0,0,0,0,0,0,0,0,0,0,0,0,0,0,0,0,0,0,0,0,0,0,0,0,0,0,0,0,0,0,0,0,0,0,0,0,0,0,0,0,0,0,0,0,0,0,0,0,0,0,0,0,0,0,0,0,0,0,0,0,0,0,0,0,0,0,0,0,0,0,0,0,0,0,0,0,0,0,0,0,0,0,0,0,0,0,0,0,0,0,0,0,0,0,0,0,0,0,0,0,0,0,0,0,0,0,0,0,0,0,0,0,0,0,0,0,0,0,0,0,0,0,0,0,0,0,0,0,0,0,0,0,0,0,0,0,0,0,0,0,0,0,0,0,0,0,0,0,0,0,0,0,0,0,0,0,0,0,0,0,0,0,0,0,0,0,0,0,0,0,0,0,0,0,0,0,0,0,0,0,0,0,0,0,0,0,0,0,0,0,0,0,0,0,0,0,0,0,0,0,0,0,0,0,0,0,0,0,0,0,0,0,0,0,0,0,0,0,0,0,0,0,0,0,0,0,0,0,0,0,0,0,0,0,0,0,0,0,0,0,0,0,0,0,0,0,0,0,0,0,0,0,0,0,0,0,0,0,0,0,0,0,0,0,0,0,0,0,0,0,0,0,0,0,0,0,0,0,0,0,0,0,0,0,0,0,0,0,0,0,0,0,0,0,0,0,0,0,0,0,0,0,0,0,0,0,0,0,0,0,0,0,0,0,0,0,0,0,0,0,0,0,0,0,0,0,0,0,0,0,0,0,0,0,0,0,0,0,0,0,0,0,0,0,0,0,0,0,0,0,0,0,0,0,0,0,0,0,0,0,0,0,0,0,0,0,0,0,0,0,0,0,0,0,0,0,0,0,0,0,0,0,0,0,0,0,0,0,0,0,0,0,0,0,0,0,0,0,0,0,0,0,0,0,0,0,0,0,0,0,0,0,0,0,0,0,0,0,0,0,0,0,0,0,0,0,0,0,0,0,0,0,0,0,0,0,0,0,0,0,0,0,0,0,0,0,0,0,0,0,0,0,0,0,0,0,0,0,0,0,0,0,0,0,0,0,0,0,0,0,0,0,0,0,0,0,0,0,0,0,0,0,0,0,0,0,0,0,0,0,0,0,0,0,0,0,0,0,0,0,0,0,0,0,0,0,0,0,0,0,0,0,0,0,0,0,0,0,0,0,0,0,0,0,0,0,0,0,0,0,0,0,0,0,0,0,0,0,0,0,0,0,0,0,0,0,0,0,0,0,0,0,0,0,0,0,0,0,0,0,0,0,0,0,0,0,0,0,0,0,0,0,0,0,0,0,0,0,0,0,0,0,0,0,0,0,0,0,0,0,0,0,0,0,0,0,0,0,0,0,0,0,0,0,0,0,0,0,0,0,0,0,0,0,0,0,0,0,0,0,0,0,0,0,0,0,0,0,0,0,0,0,0,0,0,0,0,0,0,0,0,0,0,0,0,0,0,0,0,0,0,0,0,0,0,0,0,0,0,0,0,0,0,0,0,0,0,0,0,0,0,0,0,0,0,0,0,0,0,0,0,0,0,0,0,0,0,0,0,0,0,0,0,0,0,0,0,0,0,0,0,0,0,0,0,0,0,0,0,0,0,0,0,0,0,0,0,0,0,0,0,0,0,0,0,0,0,0,0,0,0,0,0,0,0,0,0,0,0,0,0,0,0,0,0,0,0,0,0,0,0,0,0,0,0,0,0,0,0,0,0,0,0,0,0,0,0,0,0,0,0,0,0,0,0,0,0,0,0,0,0,0,0,0,0,0,0,0,0,0,0,0,0,0,0,0,0,0,0,0,0,0,0,0,0,0,0,0,0,0,0,0,0,0,0,0,0,0,0,0,0,0,0,0,0,0,0,0,0,0,0,0,0,0,0,0,0,0,0,0,0,0,0,0,0,0,0,0,0,0,0,0,0,0,0,0,0,0,0,0,0,0,0,0,0,0,0,0,0,0,0,0,0,0,0,0,0,0,0,0,0,0,0,0,0,0,0,0,0,0,0,0,0,0,0,0,0,0,0,0,0,0,0,0,0,0,0,0,0,0,0,0,0,0,0,0,0,0,0,0,0,0,0,0,0,0,0,0,0,0,0,0,0,0,0,0,0,0,0,0,0,0,0,0,0,0,0,0,0,0,0,0,0,0,0],"trees":[{"base_weights":[-3.5906287E-6,1.7422871E2,-3.757574E1,3.8295788E1,1.2788225E2,1.0016849E1,-6.397113E1,1.7651648E1,8.266896E0,2.587419E0,-4.839691E-1,-3.1305704E0,-6.321385E0],"categories":[0,1,2,3,5,6,7,8,10,11,12,13,16,17,19,20,21,22,23,24,25,26,27,28,29,30,31,32,33,36,37,39,40,41,42,44,45,46,47,48,49,50,0,1,2,3,4,5,6,7,8,9,10,11,12,13,14,15,16,17,18,19,20,21,22,23,24,25,26,27,28,29,30,31,32,33,34,35,36,37,38,39,40,41,42,44,45,46,47,48,49,50,0,2,6,7,8,11,12,13,16,19,20,21,25,26,28,29,30,32,33,37,39,40,41,44,46,47,50,0,1,2,3,5,6,7,8,9,10,11,12,13,14,15,16,17,18,19,20,21,22,23,24,25,26,27,28,29,30,31,32,33,34,35,36,37,38,39,40,41,42,43,44,45,46,47,48,49,50,0,2,3,4,5,6,7,8,9,11,12,13,14,15,16,18,19,20,21,23,25,26,28,29,30,31,32,33,34,35,36,37,38,39,40,41,42,43,44,45,46,47,48,49,50,0,6,7,8,11,13,21,26,30,33,37,39,41,46],"categories_nodes":[0,1,2,4,5,6],"categories_segments":[0,42,92,119,169,214],"categories_sizes":[42,50,27,50,45,14],"default_left":[1,1,1,0,1,1,1,0,0,0,0,0,0],"id":0,"left_children":[1,3,5,-1,7,9,11,-1,-1,-1,-1,-1,-1],"loss_changes":[9.041092E6,3.68898E6,1.4283534E6,0E0,3.6180325E5,1.6455336E5,3.230715E5,0E0,0E0,0E0,0E0,0E0,0E0],"parents":[2147483647,0,0,1,1,2,2,4,4,5,5,6,6],"right_children":[2,4,6,-1,8,10,12,-1,-1,-1,-1,-1,-1],"split_conditions":[1E-45,1E-45,1E-45,3.8295788E1,1E-45,1E-45,1E-45,1.7651648E1,8.266896E0,2.587419E0,-4.839691E-1,-3.1305704E0,-6.321385E0],"split_indices":[0,0,0,0,0,0,0,0,0,0,0,0,0],"split_type":[1,1,1,0,1,1,1,0,0,0,0,0,0],"sum_hessian":[1.377E3,2.43E2,1.134E3,2.7E1,2.16E2,4.05E2,7.29E2,2.7E1,1.89E2,1.62E2,2.43E2,3.51E2,3.78E2],"tree_param":{"num_deleted":"0","num_feature":"3","num_nodes":"13","size_leaf_vector":"1"}},{"base_weights":[8.247167E-2,1.5168953E2,-3.7101734E1,3.5621685E1,1.1218709E2,-1.8434962E0,-6.460064E1,1.6419077E1,7.2719474E0,1.3492194E0,-1.3294183E0,-3.6547334E0,-6.3542066E0],"categories":[0,1,2,3,5,6,7,8,10,11,12,13,16,17,19,20,21,23,24,25,26,27,28,29,30,31,32,33,36,37,39,40,41,42,44,45,46,47,48,49,50,0,1,2,3,4,5,6,7,8,9,10,11,12,13,14,15,16,17,18,19,20,21,22,23,24,25,26,27,28,29,30,31,32,33,34,35,36,37,38,39,40,41,42,44,45,46,47,48,49,50,0,2,6,7,8,11,13,16,20,21,25,26,28,29,30,32,33,37,39,41,44,46,50,0,1,2,3,5,6,7,8,9,10,11,12,13,14,15,16,17,18,19,20,21,22,23,24,25,26,27,28,29,30,31,32,33,34,35,36,37,38,39,40,41,42,43,44,45,46,47,48,49,50,3,5,12,19,23,36,40,47,48,49,7,8,11,13,21,26,30,39,41,46],"categories_nodes":[0,1,2,4,5,6],"categories_segments":[0,41,91,114,164,174],"categories_sizes":[41,50,23,50,10,10],"default_left":[1,1,1,0,1,1,1,0,0,0,0,0,0],"id":1,"left_children":[1,3,5,-1,7,9,11,-1,-1,-1,-1,-1,-1],"loss_changes":[7.7852145E6,3.3668205E6,1.0750072E6,0E0,3.55751E5,1.5435322E5,1.9070125E5,0E0,0E0,0E0,0E0,0E0,0E0],"parents":[2147483647,0,0,1,1,2,2,4,4,5,5,6,6],"right_children":[2,4,6,-1,8,10,12,-1,-1,-1,-1,-1,-1],"split_conditions":[1E-45,1E-45,1E-45,3.5621685E1,1E-45,1E-45,1E-45,1.6419077E1,7.2719474E0,1.3492194E0,-1.3294183E0,-3.6547334E0,-6.3542066E0],"split_indices":[0,0,0,0,0,0,0,0,0,0,0,0,0],"split_type":[1,1,1,0,1,1,1,0,0,0,0,0,0],"sum_hessian":[1.377E3,2.7E2,1.107E3,2.7E1,2.43E2,4.86E2,6.21E2,2.7E1,2.16E2,2.16E2,2.7E2,3.51E2,2.7E2],"tree_param":{"num_deleted":"0","num_feature":"3","num_nodes":"13","size_leaf_vector":"1"}},{"base_weights":[1.4782174E-1,1.6126952E2,-3.0054092E1,3.3134308E1,1.1698861E2,1.1934672E1,-5.4900898E1,1.52725725E1,7.518032E0,3.09427E0,-1.1853313E-1,-2.56699E0,-5.3393197E0],"categories":[0,1,2,3,5,6,7,8,10,11,12,13,16,17,19,20,21,22,23,24,25,26,27,28,29,30,31,32,33,34,36,37,39,40,41,42,44,45,46,47,48,49,50,0,1,2,3,4,5,6,7,8,9,10,11,12,13,14,15,16,17,18,19,20,21,22,23,24,25,26,27,28,29,30,31,32,33,34,35,36,37,38,39,40,41,42,44,45,46,47,48,49,50,0,2,6,7,8,11,12,13,16,19,20,21,25,26,28,29,30,32,33,37,39,40,41,44,46,47,50,0,1,2,3,5,6,7,8,9,10,11,12,13,14,15,16,17,18,19,20,21,22,23,24,25,26,27,28,29,30,31,32,33,34,35,36,37,38,39,40,41,42,43,44,45,46,47,48,49,50,0,1,2,3,4,5,6,7,8,9,11,12,13,14,15,16,18,19,20,21,23,24,25,26,28,29,30,31,32,33,35,36,37,38,39,40,41,42,43,44,45,46,47,48,49,50,0,6,7,8,11,13,21,26,29,30,33,37,39,41,46],"categories_nodes":[0,1,2,4,5,6],"categories_segments":[0,43,93,120,170,216],"categories_sizes":[43,50,27,50,46,15],"default_left":[1,1,1,0,1,1,1,0,0,0,0,0,0],"id":2,"left_children":[1,3,5,-1,7,9,11,-1,-1,-1,-1,-1,-1],"loss_changes":[6.720161E6,2.60457E6,1.214653E6,0E0,2.3634625E5,1.7212188E5,2.4131725E5,0E0,0E0,0E0,0E0,0E0,0E0],"parents":[2147483647,0,0,1,1,2,2,4,4,5,5,6,6],"right_children":[2,4,6,-1,8,10,12,-1,-1,-1,-1,-1,-1],"split_conditions":[1E-45,1E-45,1E-45,3.3134308E1,1E-45,1E-45,1E-45,1.52725725E1,7.518032E0,3.09427E0,-1.1853313E-1,-2.56699E0,-5.3393197E0],"split_indices":[0,0,0,0,0,0,0,0,0,0,0,0,0],"split_type":[1,1,1,0,1,1,1,0,0,0,0,0,0],"sum_hessian":[1.377E3,2.16E2,1.161E3,2.7E1,1.89E2,4.32E2,7.29E2,2.7E1,1.62E2,1.35E2,2.97E2,3.24E2,4.05E2],"tree_param":{"num_deleted":"0","num_feature":"3","num_nodes":"13","size_leaf_vector":"1"}},{"base_weights":[2.1069218E-1,1.396941E2,-2.9871931E1,3.0820618E1,1.0232914E2,2.790803E0,-5.4302193E1,1.4206125E1,6.6026382E0,2.072741E0,-7.294053E-1,-3.1215818E0,-5.61938E0],"categories":[0,1,2,3,5,6,7,8,10,11,12,13,16,17,19,20,21,22,23,24,25,26,27,28,29,30,31,32,33,36,37,39,40,41,42,44,45,46,47,48,49,50,0,1,2,3,4,5,6,7,8,9,10,11,12,13,14,15,16,17,18,19,20,21,22,23,24,25,26,27,28,29,30,31,32,33,34,35,36,37,38,39,40,41,42,44,45,46,47,48,49,50,0,2,6,7,8,11,13,16,19,20,21,25,26,28,29,30,32,33,37,39,41,44,46,50,0,1,2,3,5,6,7,8,9,10,11,12,13,14,15,16,17,18,19,20,21,22,23,24,25,26,27,28,29,30,31,32,33,34,35,36,37,38,39,40,41,42,43,44,45,46,47,48,49,50,0,2,3,4,5,6,7,8,9,11,12,13,14,15,16,18,19,20,21,23,25,26,28,29,30,31,32,33,34,35,36,37,38,39,40,41,42,43,44,45,46,47,48,49,50,7,8,11,13,21,30,39,41,46],"categories_nodes":[0,1,2,4,5,6],"categories_segments":[0,42,92,116,166,211],"categories_sizes":[42,50,24,50,45,9],"default_left":[1,1,1,0,1,1,1,0,0,0,0,0,0],"id":3,"left_children":[1,3,5,-1,7,9,11,-1,-1,-1,-1,-1,-1],"loss_changes":[5.794668E6,2.39901E6,9.0678456E5,0E0,2.3801675E5,1.522931E5,1.6375162E5,0E0,0E0,0E0,0E0,0E0,0E0],"parents":[2147483647,0,0,1,1,2,2,4,4,5,5,6,6],"right_children":[2,4,6,-1,8,10,12,-1,-1,-1,-1,-1,-1],"split_conditions":[1E-45,1E-45,1E-45,3.0820618E1,1E-45,1E-45,1E-45,1.4206125E1,6.6026382E0,2.072741E0,-7.294053E-1,-3.1215818E0,-5.61938E0],"split_indices":[0,0,0,0,0,0,0,0,0,0,0,0,0],"split_type":[1,1,1,0,1,1,1,0,0,0,0,0,0],"sum_hessian":[1.377E3,2.43E2,1.134E3,2.7E1,2.16E2,4.86E2,6.48E2,2.7E1,1.89E2,1.62E2,3.24E2,4.05E2,2.43E2],"tree_param":{"num_deleted":"0","num_feature":"3","num_nodes":"13","size_leaf_vector":"1"}},{"base_weights":[2.5904217E-1,1.3920413E2,-2.578614E1,2.866849E1,1.0084477E2,1.0277226E1,-4.712667E1,1.3214146E1,6.4718976E0,3.402412E0,1.4765878E-1,-2.2789521E0,-4.6822367E0],"categories":[0,1,2,3,5,6,7,8,10,11,12,13,16,17,19,20,21,22,23,24,25,26,27,28,29,30,31,32,33,34,36,37,39,40,41,42,44,45,46,47,48,49,50,0,1,2,3,4,5,6,7,8,9,10,11,12,13,14,15,16,17,18,19,20,21,22,23,24,25,26,27,28,29,30,31,32,33,34,35,36,37,38,39,40,41,42,44,45,46,47,48,49,50,0,2,6,7,8,11,12,13,16,19,20,21,25,26,28,29,30,32,33,37,39,40,41,44,46,47,50,0,1,2,3,5,6,7,8,9,10,11,12,13,14,15,16,17,18,19,20,21,22,23,24,25,26,27,28,29,30,31,32,33,34,35,36,37,38,39,40,41,42,43,44,45,46,47,48,49,50,0,1,2,3,4,5,6,7,8,9,11,12,13,14,15,16,17,18,19,20,21,23,24,25,26,27,28,29,30,31,32,33,35,36,37,38,39,40,41,42,43,44,45,46,47,48,49,50,0,6,7,8,11,13,21,26,30,33,37,39,41,46],"categories_nodes":[0,1,2,4,5,6],"categories_segments":[0,43,93,120,170,218],"categories_sizes":[43,50,27,50,48,14],"default_left":[1,1,1,0,1,1,1,0,0,0,0,0,0],"id":4,"left_children":[1,3,5,-1,7,9,11,-1,-1,-1,-1,-1,-1],"loss_changes":[4.9975735E6,1.955308E6,8.9602675E5,0E0,1.7901725E5,1.26344875E5,1.8347675E5,0E0,0E0,0E0,0E0,0E0,0E0],"parents":[2147483647,0,0,1,1,2,2,4,4,5,5,6,6],"right_children":[2,4,6,-1,8,10,12,-1,-1,-1,-1,-1,-1],"split_conditions":[1E-45,1E-45,1E-45,2.866849E1,1E-45,1E-45,1E-45,1.3214146E1,6.4718976E0,3.402412E0,1.4765878E-1,-2.2789521E0,-4.6822367E0],"split_indices":[0,0,0,0,0,0,0,0,0,0,0,0,0],"split_type":[1,1,1,0,1,1,1,0,0,0,0,0,0],"sum_hessian":[1.377E3,2.16E2,1.161E3,2.7E1,1.89E2,4.32E2,7.29E2,2.7E1,1.62E2,8.1E1,3.51E2,3.51E2,3.78E2],"tree_param":{"num_deleted":"0","num_feature":"3","num_nodes":"13","size_leaf_vector":"1"}},{"base_weights":[3.047974E-1,1.2920744E2,-2.3858046E1,2.666664E1,9.348755E1,9.522795E0,-4.3611217E1,1.2291433E1,5.992425E0,2.0890079E0,-3.6340207E-1,-2.3925912E0,-4.7352962E0],"categories":[0,1,2,3,5,6,7,8,10,11,12,13,16,17,19,20,21,22,23,24,25,26,27,28,29,30,31,32,33,34,36,37,39,40,41,42,44,45,46,47,48,49,50,0,1,2,3,4,5,6,7,8,9,10,11,12,13,14,15,16,17,18,19,20,21,22,23,24,25,26,27,28,29,30,31,32,33,34,35,36,37,38,39,40,41,42,44,45,46,47,48,49,50,0,2,6,7,8,11,12,13,16,19,20,21,25,26,28,29,30,32,33,37,39,40,41,44,46,47,50,0,1,2,3,5,6,7,8,9,10,11,12,13,14,15,16,17,18,19,20,21,22,23,24,25,26,27,28,29,30,31,32,33,34,35,36,37,38,39,40,41,42,43,44,45,46,47,48,49,50,0,2,3,4,5,6,7,8,9,11,12,13,14,15,16,18,19,20,21,23,25,26,28,29,30,31,32,33,35,36,37,38,39,40,41,42,43,44,45,46,47,48,49,50,7,8,11,13,21,26,30,39,41,46],"categories_nodes":[0,1,2,4,5,6],"categories_segments":[0,43,93,120,170,214],"categories_sizes":[43,50,27,50,44,10],"default_left":[1,1,1,0,1,1,1,0,0,0,0,0,0],"id":5,"left_children":[1,3,5,-1,7,9,11,-1,-1,-1,-1,-1,-1],"loss_changes":[4.3012735E6,1.6960755E6,7.6768656E5,0E0,1.5652412E5,1.1457575E5,1.6311488E5,0E0,0E0,0E0,0E0,0E0,0E0],"parents":[2147483647,0,0,1,1,2,2,4,4,5,5,6,6],"right_children":[2,4,6,-1,8,10,12,-1,-1,-1,-1,-1,-1],"split_conditions":[1E-45,1E-45,1E-45,2.666664E1,1E-45,1E-45,1E-45,1.2291433E1,5.992425E0,2.0890079E0,-3.6340207E-1,-2.3925912E0,-4.7352962E0],"split_indices":[0,0,0,0,0,0,0,0,0,0,0,0,0],"split_type":[1,1,1,0,1,1,1,0,0,0,0,0,0],"sum_hessian":[1.377E3,2.16E2,1.161E3,2.7E1,1.89E2,4.32E2,7.29E2,2.7E1,1.62E2,1.89E2,2.43E2,4.59E2,2.7E2],"tree_param":{"num_deleted":"0","num_feature":"3","num_nodes":"13","size_leaf_vector":"1"}},{"base_weights":[3.392968E-1,1.4170403E2,-1.8711233E1,2.4804573E1,9.962306E1,1.91748E1,-3.765482E1,1.1433153E1,6.2915053E0,3.4082034E0,4.3524602E-1,-1.6709305E0,-3.963415E0],"categories":[0,1,2,3,5,6,7,8,10,11,12,13,15,16,17,18,19,20,21,22,23,24,25,26,27,28,29,30,31,32,33,34,36,37,39,40,41,42,44,45,46,47,48,49,50,0,1,2,3,4,5,6,7,8,9,10,11,12,13,14,15,16,17,18,19,20,21,22,23,24,25,26,27,28,29,30,31,32,33,34,35,36,37,38,39,40,41,42,44,45,46,47,48,49,50,0,2,3,5,6,7,8,11,12,13,16,19,20,21,23,25,26,28,29,30,32,33,37,39,40,41,44,46,47,50,0,1,2,3,5,6,7,8,9,10,11,12,13,14,15,16,17,18,19,20,21,22,23,24,25,26,27,28,29,30,31,32,33,34,35,36,37,38,39,40,41,42,43,44,45,46,47,48,49,50,0,1,2,3,4,5,6,7,8,9,11,12,13,14,16,17,19,20,21,23,24,25,26,27,28,29,30,31,32,33,35,36,37,38,39,40,41,42,43,44,45,46,47,48,49,50,0,6,7,8,11,13,21,26,29,30,33,37,39,41,46],"categories_nodes":[0,1,2,4,5,6],"categories_segments":[0,45,95,125,175,221],"categories_sizes":[45,50,30,50,46,15],"default_left":[1,1,1,0,1,1,1,0,0,0,0,0,0],"id":6,"left_children":[1,3,5,-1,7,9,11,-1,-1,-1,-1,-1,-1],"loss_changes":[3.7190505E6,1.2386085E6,8.7488175E5,0E0,8.8295375E4,1.4242802E5,1.87303E5,0E0,0E0,0E0,0E0,0E0,0E0],"parents":[2147483647,0,0,1,1,2,2,4,4,5,5,6,6],"right_children":[2,4,6,-1,8,10,12,-1,-1,-1,-1,-1,-1],"split_conditions":[1E-45,1E-45,1E-45,2.4804573E1,1E-45,1E-45,1E-45,1.1433153E1,6.2915053E0,3.4082034E0,4.3524602E-1,-1.6709305E0,-3.963415E0],"split_indices":[0,0,0,0,0,0,0,0,0,0,0,0,0],"split_type":[1,1,1,0,1,1,1,0,0,0,0,0,0],"sum_hessian":[1.377E3,1.62E2,1.215E3,2.7E1,1.35E2,4.05E2,8.1E2,2.7E1,1.08E2,1.35E2,2.7E2,4.05E2,4.05E2],"tree_param":{"num_deleted":"0","num_feature":"3","num_nodes":"13","size_leaf_vector":"1"}},{"base_weights":[3.729332E-1,1.3159488E2,-1.7310833E1,2.3072529E1,9.241009E1,1.7755575E1,-3.4844585E1,1.0634804E1,5.8282213E0,3.1563199E0,4.0284234E-1,-1.3848116E0,-3.5427263E0],"categories":[0,1,2,3,5,6,7,8,10,11,12,13,15,16,17,18,19,20,21,22,23,24,25,26,27,28,29,30,31,32,33,34,36,37,39,40,41,42,44,45,46,47,48,49,50,0,1,2,3,4,5,6,7,8,9,10,11,12,13,14,15,16,17,18,19,20,21,22,23,24,25,26,27,28,29,30,31,32,33,34,35,36,37,38,39,40,41,42,44,45,46,47,48,49,50,0,2,3,5,6,7,8,11,12,13,16,19,20,21,23,25,26,28,29,30,32,33,37,39,40,41,44,46,47,50,0,1,2,3,5,6,7,8,9,10,11,12,13,14,15,16,17,18,19,20,21,22,23,24,25,26,27,28,29,30,31,32,33,34,35,36,37,38,39,40,41,42,43,44,45,46,47,48,49,50,0,1,2,3,4,5,6,7,8,9,11,12,13,14,16,17,19,20,21,23,24,25,26,27,28,29,30,31,32,33,35,36,37,38,39,40,41,42,43,44,45,46,47,48,49,50,0,6,7,8,11,13,21,26,28,29,30,32,33,37,39,41,46],"categories_nodes":[0,1,2,4,5,6],"categories_segments":[0,45,95,125,175,221],"categories_sizes":[45,50,30,50,46,17],"default_left":[1,1,1,0,1,1,1,0,0,0,0,0,0],"id":7,"left_children":[1,3,5,-1,7,9,11,-1,-1,-1,-1,-1,-1],"loss_changes":[3.2045232E6,1.0744222E6,7.495046E5,0E0,7.742625E4,1.2217491E5,1.6307738E5,0E0,0E0,0E0,0E0,0E0,0E0],"parents":[2147483647,0,0,1,1,2,2,4,4,5,5,6,6],"right_children":[2,4,6,-1,8,10,12,-1,-1,-1,-1,-1,-1],"split_conditions":[1E-45,1E-45,1E-45,2.3072529E1,1E-45,1E-45,1E-45,1.0634804E1,5.8282213E0,3.1563199E0,4.0284234E-1,-1.3848116E0,-3.5427263E0],"split_indices":[0,0,0,0,0,0,0,0,0,0,0,0,0],"split_type":[1,1,1,0,1,1,1,0,0,0,0,0,0],"sum_hessian":[1.377E3,1.62E2,1.215E3,2.7E1,1.35E2,4.05E2,8.1E2,2.7E1,1.08E2,1.35E2,2.7E2,3.51E2,4.59E2],"tree_param":{"num_deleted":"0","num_feature":"3","num_nodes":"13","size_leaf_vector":"1"}},{"base_weights":[4.0031737E-1,1.1206666E2,-1.7523272E1,2.146143E1,7.991654E1,9.76963E0,-3.4687405E1,9.8922E0,5.0810194E0,2.4483995E0,7.2217504E-3,-1.917697E0,-3.9424531E0],"categories":[0,1,2,3,5,6,7,8,10,11,12,13,16,17,18,19,20,21,22,23,24,25,26,27,28,29,30,31,32,33,34,36,37,39,40,41,42,44,45,46,47,48,49,50,0,1,2,3,4,5,6,7,8,9,10,11,12,13,14,15,16,17,18,19,20,21,22,23,24,25,26,27,28,29,30,31,32,33,34,35,36,37,38,39,40,41,42,44,45,46,47,48,49,50,0,2,6,7,8,11,12,13,16,19,20,21,25,26,28,29,30,32,33,37,39,40,41,44,46,47,50,0,1,2,3,5,6,7,8,9,10,11,12,13,14,15,16,17,18,19,20,21,22,23,24,25,26,27,28,29,30,31,32,33,34,35,36,37,38,39,40,41,42,43,44,45,46,47,48,49,50,0,1,2,3,4,5,6,7,8,9,11,12,13,14,15,16,19,20,21,23,24,25,26,27,28,29,30,31,32,33,35,36,37,38,39,40,41,42,43,44,45,46,47,48,49,50,7,8,11,13,21,30,39,41,46],"categories_nodes":[0,1,2,4,5,6],"categories_segments":[0,44,94,121,171,217],"categories_sizes":[44,50,27,50,46,9],"default_left":[1,1,1,0,1,1,1,0,0,0,0,0,0],"id":8,"left_children":[1,3,5,-1,7,9,11,-1,-1,-1,-1,-1,-1],"loss_changes":[2.7639432E6,1.02326675E6,5.5814406E5,0E0,8.5870375E4,1.0200579E5,1.16479E5,0E0,0E0,0E0,0E0,0E0,0E0],"parents":[2147483647,0,0,1,1,2,2,4,4,5,5,6,6],"right_children":[2,4,6,-1,8,10,12,-1,-1,-1,-1,-1,-1],"split_conditions":[1E-45,1E-45,1E-45,2.146143E1,1E-45,1E-45,1E-45,9.8922E0,5.0810194E0,2.4483995E0,7.2217504E-3,-1.917697E0,-3.9424531E0],"split_indices":[0,0,0,0,0,0,0,0,0,0,0,0,0],"split_type":[1,1,1,0,1,1,1,0,0,0,0,0,0],"sum_hessian":[1.377E3,1.89E2,1.188E3,2.7E1,1.62E2,4.59E2,7.29E2,2.7E1,1.35E2,1.35E2,3.24E2,4.86E2,2.43E2],"tree_param":{"num_deleted":"0","num_feature":"3","num_nodes":"13","size_leaf_vector":"1"}},{"base_weights":[4.1819593E-1,1.2582245E2,-1.3393073E1,1.996283E1,8.653377E1,2.2754469E1,-2.7652082E1,9.201452E0,5.3862834E0,3.1197689E0,8.0282676E-1,-1.0222988E0,-3.0549254E0],"categories":[0,1,2,3,5,6,7,8,10,11,12,13,14,15,16,17,18,19,20,21,22,23,24,25,26,27,28,29,30,31,32,33,34,36,37,39,40,41,42,44,45,46,47,48,49,50,0,1,2,3,4,5,6,7,8,9,10,11,12,13,14,15,16,17,18,19,20,21,22,23,24,25,26,27,28,29,30,31,32,33,34,35,36,37,38,39,40,41,42,44,45,46,47,48,49,50,0,2,3,5,6,7,8,11,12,13,16,19,20,21,23,25,26,28,29,30,32,33,36,37,39,40,41,44,46,47,48,49,50,0,1,2,3,5,6,7,8,9,10,11,12,13,14,15,16,17,18,19,20,21,22,23,24,25,26,27,28,29,30,31,32,33,34,35,36,37,38,39,40,41,42,43,44,45,46,47,48,49,50,0,1,2,3,4,5,6,7,8,9,10,11,12,13,16,17,19,20,21,23,24,25,26,27,28,29,30,31,32,33,35,36,37,38,39,40,41,42,43,44,45,46,47,48,49,50,0,6,7,8,11,13,21,26,28,29,30,32,33,37,39,41,46],"categories_nodes":[0,1,2,4,5,6],"categories_segments":[0,46,96,129,179,225],"categories_sizes":[46,50,33,50,46,17],"default_left":[1,1,1,0,1,1,1,0,0,0,0,0,0],"id":9,"left_children":[1,3,5,-1,7,9,11,-1,-1,-1,-1,-1,-1],"loss_changes":[2.391787E6,7.093675E5,6.42451E5,0E0,4.0902625E4,7.925939E4,1.6266938E5,0E0,0E0,0E0,0E0,0E0,0E0],"parents":[2147483647,0,0,1,1,2,2,4,4,5,5,6,6],"right_children":[2,4,6,-1,8,10,12,-1,-1,-1,-1,-1,-1],"split_conditions":[1E-45,1E-45,1E-45,1.996283E1,1E-45,1E-45,1E-45,9.201452E0,5.3862834E0,3.1197689E0,8.0282676E-1,-1.0222988E0,-3.0549254E0],"split_indices":[0,0,0,0,0,0,0,0,0,0,0,0,0],"split_type":[1,1,1,0,1,1,1,0,0,0,0,0,0],"sum_hessian":[1.377E3,1.35E2,1.242E3,2.7E1,1.08E2,3.51E2,8.91E2,2.7E1,8.1E1,1.35E2,2.16E2,4.32E2,4.59E2],"tree_param":{"num_deleted":"0","num_feature":"3","num_nodes":"13","size_leaf_vector":"1"}},{"base_weights":[4.367176E-1,1.0572414E2,-1.3752279E1,1.8568874E1,7.415178E1,1.4237426E1,-2.774773E1,8.558938E0,4.6700034E0,2.5068693E0,3.351336E-1,-1.49642E0,-3.4219341E0],"categories":[0,1,2,3,5,6,7,8,10,11,12,13,15,16,17,18,19,20,21,22,23,24,25,26,27,28,29,30,31,32,33,34,36,37,39,40,41,42,44,45,46,47,48,49,50,0,1,2,3,4,5,6,7,8,9,10,11,12,13,14,15,16,17,18,19,20,21,22,23,24,25,26,27,28,29,30,31,32,33,34,35,36,37,38,39,40,41,42,44,45,46,47,48,49,50,0,2,3,5,6,7,8,11,12,13,16,19,20,21,23,25,26,28,29,30,32,33,37,39,40,41,44,46,47,50,0,1,2,3,5,6,7,8,9,10,11,12,13,14,15,16,17,18,19,20,21,22,23,24,25,26,27,28,29,30,31,32,33,34,35,36,37,38,39,40,41,42,43,44,45,46,47,48,49,50,0,1,2,3,4,5,6,7,8,9,11,12,13,14,16,17,19,20,21,23,24,25,26,27,28,29,30,31,32,33,35,36,37,38,39,40,41,42,43,44,45,46,47,48,49,50,7,8,11,13,21,30,39,41,46],"categories_nodes":[0,1,2,4,5,6],"categories_segments":[0,45,95,125,175,221],"categories_sizes":[45,50,30,50,46,9],"default_left":[1,1,1,0,1,1,1,0,0,0,0,0,0],"id":10,"left_children":[1,3,5,-1,7,9,11,-1,-1,-1,-1,-1,-1],"loss_changes":[2.0630275E6,6.978186E5,4.7752372E5,0E0,5.0865438E4,7.599027E4,1.1134594E5,0E0,0E0,0E0,0E0,0E0,0E0],"parents":[2147483647,0,0,1,1,2,2,4,4,5,5,6,6],"right_children":[2,4,6,-1,8,10,12,-1,-1,-1,-1,-1,-1],"split_conditions":[1E-45,1E-45,1E-45,1.8568874E1,1E-45,1E-45,1E-45,8.558938E0,4.6700034E0,2.5068693E0,3.351336E-1,-1.49642E0,-3.4219341E0],"split_indices":[0,0,0,0,0,0,0,0,0,0,0,0,0],"split_type":[1,1,1,0,1,1,1,0,0,0,0,0,0],"sum_hessian":[1.377E3,1.62E2,1.215E3,2.7E1,1.35E2,4.05E2,8.1E2,2.7E1,1.08E2,1.35E2,2.7E2,5.67E2,2.43E2],"tree_param":{"num_deleted":"0","num_feature":"3","num_nodes":"13","size_leaf_vector":"1"}},{"base_weights":[4.470706E-1,1.0878271E2,-1.1484502E1,1.7272253E1,7.4769325E1,1.957476E1,-2.3736406E1,7.961287E0,4.6502366E0,2.356999E0,3.412217E-1,-8.5990274E-1,-2.638933E0],"categories":[0,1,2,3,5,6,7,8,10,11,12,13,14,15,16,17,18,19,20,21,22,23,24,25,26,27,28,29,30,31,32,33,34,36,37,39,40,41,42,44,45,46,47,48,49,50,0,1,2,3,4,5,6,7,8,9,10,11,12,13,14,15,16,17,18,19,20,21,22,23,24,25,26,27,28,29,30,31,32,33,34,35,36,37,38,39,40,41,42,44,45,46,47,48,49,50,0,2,3,5,6,7,8,11,12,13,16,19,20,21,23,25,26,28,29,30,32,33,36,37,39,40,41,44,46,47,48,49,50,0,1,2,3,5,6,7,8,9,10,11,12,13,14,15,16,17,18,19,20,21,22,23,24,25,26,27,28,29,30,31,32,33,34,35,36,37,38,39,40,41,42,43,44,45,46,47,48,49,50,0,6,7,8,11,13,21,26,28,29,30,32,33,37,39,41,46],"categories_nodes":[0,1,2,4,6],"categories_segments":[0,46,96,129,179],"categories_sizes":[46,50,33,50,17],"default_left":[1,1,1,0,1,0,1,0,0,0,0,0,0],"id":11,"left_children":[1,3,5,-1,7,9,11,-1,-1,-1,-1,-1,-1],"loss_changes":[1.7850139E6,5.317966E5,4.7431494E5,0E0,3.0904625E4,6.2574984E4,1.2465569E5,0E0,0E0,0E0,0E0,0E0,0E0],"parents":[2147483647,0,0,1,1,2,2,4,4,5,5,6,6],"right_children":[2,4,6,-1,8,10,12,-1,-1,-1,-1,-1,-1],"split_conditions":[1E-45,1E-45,1E-45,1.7272253E1,1E-45,2.012E3,1E-45,7.961287E0,4.6502366E0,2.356999E0,3.412217E-1,-8.5990274E-1,-2.638933E0],"split_indices":[0,0,0,0,0,1,0,0,0,0,0,0,0],"split_type":[1,1,1,0,1,0,1,0,0,0,0,0,0],"sum_hessian":[1.377E3,1.35E2,1.242E3,2.7E1,1.08E2,3.51E2,8.91E2,2.7E1,8.1E1,1.95E2,1.56E2,4.32E2,4.59E2],"tree_param":{"num_deleted":"0","num_feature":"3","num_nodes":"13","size_leaf_vector":"1"}},{"base_weights":[4.5571953E-1,7.265747E1,-1.5116763E1,1.6066175E1,5.315975E1,-2.6628232E-1,-2.9914108E1,6.259786E0,3.1622803E0,1.1038406E0,-4.727112E-1,-1.6830372E0,-2.9710798E0],"categories":[0,1,2,3,5,6,7,8,10,11,12,13,16,17,19,20,21,22,23,24,25,26,27,28,29,30,31,32,33,36,37,39,40,41,42,44,45,46,47,48,49,50,0,1,2,3,4,5,6,7,8,9,10,11,12,13,14,15,16,17,18,19,20,21,22,23,24,25,26,27,28,29,30,31,32,33,34,35,36,37,38,39,40,41,42,44,45,46,47,48,49,50,0,2,6,7,8,11,13,21,25,26,28,29,30,32,33,37,39,41,44,46,50,0,1,2,3,5,6,7,8,9,10,11,12,13,14,15,16,17,18,19,20,21,22,23,24,25,26,27,28,29,30,31,32,33,34,35,36,37,39,40,41,42,43,44,45,46,47,48,49,50,0,2,3,4,5,6,7,8,9,11,12,13,14,15,16,18,19,20,21,23,25,26,28,29,30,31,32,33,34,35,36,37,38,39,40,41,42,43,44,45,46,47,48,49,50,7,8,11,13,21,30,39,41,46],"categories_nodes":[0,1,2,4,5,6],"categories_segments":[0,42,92,113,162,207],"categories_sizes":[42,50,21,49,45,9],"default_left":[1,1,1,0,1,1,1,0,0,0,0,0,0],"id":12,"left_children":[1,3,5,-1,7,9,11,-1,-1,-1,-1,-1,-1],"loss_changes":[1.5526898E6,6.534396E5,2.4961742E5,0E0,6.560456E4,5.1652926E4,3.9472406E4,0E0,0E0,0E0,0E0,0E0,0E0],"parents":[2147483647,0,0,1,1,2,2,4,4,5,5,6,6],"right_children":[2,4,6,-1,8,10,12,-1,-1,-1,-1,-1,-1],"split_conditions":[1E-45,1E-45,1E-45,1.6066175E1,1E-45,1E-45,1E-45,6.259786E0,3.1622803E0,1.1038406E0,-4.727112E-1,-1.6830372E0,-2.9710798E0],"split_indices":[0,0,0,0,0,0,0,0,0,0,0,0,0],"split_type":[1,1,1,0,1,1,1,0,0,0,0,0,0],"sum_hessian":[1.377E3,2.43E2,1.134E3,2.7E1,2.16E2,5.67E2,5.67E2,5.4E1,1.62E2,1.62E2,4.05E2,3.24E2,2.43E2],"tree_param":{"num_deleted":"0","num_feature":"3","num_nodes":"13","size_leaf_vector":"1"}},{"base_weights":[4.526726E-1,7.814316E1,-1.2017738E1,1.4944312E1,5.5773636E1,4.5227485E0,-2.5772982E1,5.1262455E0,2.1808705E0,1.4366947E0,-2.56541E-1,-1.4316126E0,-2.7500675E0],"categories":[0,1,2,3,5,6,7,8,10,11,12,13,16,17,18,19,20,21,22,23,24,25,26,27,28,29,30,31,32,33,34,36,37,39,40,41,42,44,45,46,47,48,49,50,0,1,2,3,4,5,6,7,8,9,10,11,12,13,14,15,16,17,18,19,20,21,22,23,24,25,26,27,28,29,30,31,32,33,34,35,36,37,38,39,40,41,42,44,45,46,47,48,49,50,0,2,6,7,8,11,13,16,19,20,21,25,26,28,29,30,32,33,37,39,41,44,46,50,0,1,2,3,4,5,6,7,8,9,11,12,13,14,15,16,19,20,21,23,25,26,28,29,30,31,32,33,35,36,37,38,39,40,41,42,43,44,45,46,47,48,49,50,7,8,11,13,21,30,39,41,46],"categories_nodes":[0,1,2,5,6],"categories_segments":[0,44,94,118,162],"categories_sizes":[44,50,24,44,9],"default_left":[1,1,1,0,0,1,1,0,0,0,0,0,0],"id":13,"left_children":[1,3,5,-1,7,9,11,-1,-1,-1,-1,-1,-1],"loss_changes":[1.3378979E6,4.95244E5,2.7098003E5,0E0,5.1084594E4,6.3130793E4,4.5938562E4,0E0,0E0,0E0,0E0,0E0,0E0],"parents":[2147483647,0,0,1,1,2,2,4,4,5,5,6,6],"right_children":[2,4,6,-1,8,10,12,-1,-1,-1,-1,-1,-1],"split_conditions":[1E-45,1E-45,1E-45,1.4944312E1,2.015E3,1E-45,1E-45,5.1262455E0,2.1808705E0,1.4366947E0,-2.56541E-1,-1.4316126E0,-2.7500675E0],"split_indices":[0,0,0,0,1,0,0,0,0,0,0,0,0],"split_type":[1,1,1,0,0,1,1,0,0,0,0,0,0],"sum_hessian":[1.377E3,1.89E2,1.188E3,2.7E1,1.62E2,5.4E2,6.48E2,1.08E2,5.4E1,1.89E2,3.51E2,4.05E2,2.43E2],"tree_param":{"num_deleted":"0","num_feature":"3","num_nodes":"13","size_leaf_vector":"1"}},{"base_weights":[4.4663984E-1,1.4209761E2,-5.540792E0,1.3900787E1,8.9051544E1,2.6784454E1,-1.7244827E1,7.0838685E0,2.7650678E0,2.9367635E0,8.2643074E-1,-5.606934E-1,-2.1062422E0],"categories":[0,1,2,3,5,6,7,8,9,10,11,12,13,14,15,16,17,18,19,20,21,22,23,24,25,26,27,28,29,30,31,32,33,34,35,36,37,38,39,40,41,42,44,45,46,47,48,49,50,0,1,2,3,4,5,6,7,8,9,10,11,12,13,14,15,16,17,18,19,20,21,22,23,24,25,26,27,28,29,30,31,32,33,34,35,36,37,38,39,40,41,42,44,45,46,47,48,49,50,0,2,3,4,5,6,7,8,11,12,13,16,19,20,21,23,25,26,28,29,30,31,32,33,36,37,39,40,41,42,43,44,45,46,47,48,49,50,0,6,7,8,11,13,21,26,28,29,30,32,33,37,39,41,46],"categories_nodes":[0,1,2,6],"categories_segments":[0,49,99,137],"categories_sizes":[49,50,38,17],"default_left":[1,1,1,0,0,0,1,0,0,0,0,0,0],"id":14,"left_children":[1,3,5,-1,7,9,11,-1,-1,-1,-1,-1,-1],"loss_changes":[1.1711398E6,9.5456E4,5.0221875E5,0E0,1.2076562E3,6.799164E4,1.0270666E5,0E0,0E0,0E0,0E0,0E0,0E0],"parents":[2147483647,0,0,1,1,2,2,4,4,5,5,6,6],"right_children":[2,4,6,-1,8,10,12,-1,-1,-1,-1,-1,-1],"split_conditions":[1E-45,1E-45,1E-45,1.3900787E1,2.02E3,2.012E3,1E-45,7.0838685E0,2.7650678E0,2.9367635E0,8.2643074E-1,-5.606934E-1,-2.1062422E0],"split_indices":[0,0,0,0,1,1,0,0,0,0,0,0,0],"split_type":[1,1,1,0,0,0,1,0,0,0,0,0,0],"sum_hessian":[1.377E3,5.4E1,1.323E3,2.7E1,2.7E1,3.51E2,9.72E2,2.3E1,4E0,1.95E2,1.56E2,5.13E2,4.59E2],"tree_param":{"num_deleted":"0","num_feature":"3","num_nodes":"13","size_leaf_vector":"1"}},{"base_weights":[4.4917595E-1,8.2776375E1,-8.618127E0,1.2930129E1,5.7642853E1,1.0132787E1,-1.9607853E1,5.443044E0,2.9603143E0,1.8744962E0,1.435576E-1,-1.0500962E0,-2.3888175E0],"categories":[0,1,2,3,5,6,7,8,10,11,12,13,14,15,16,17,18,19,20,21,22,23,24,25,26,27,28,29,30,31,32,33,34,36,37,39,40,41,42,44,45,46,47,48,49,50,0,1,2,3,4,5,6,7,8,9,10,11,12,13,14,15,16,17,18,19,20,21,22,23,24,25,26,27,28,29,30,31,32,33,34,35,36,37,38,39,40,41,42,44,45,46,47,48,49,50,0,2,3,5,6,7,8,11,12,13,16,19,20,21,25,26,28,29,30,32,33,37,39,40,41,44,46,47,50,0,1,2,3,4,5,6,7,8,9,11,12,13,16,17,19,20,21,23,24,25,26,27,28,29,30,31,32,33,35,36,37,38,39,40,41,42,43,44,45,46,47,48,49,50,7,8,11,13,21,30,39,41,46],"categories_nodes":[0,1,2,5,6],"categories_segments":[0,46,96,125,170],"categories_sizes":[46,50,29,45,9],"default_left":[1,1,1,0,0,1,1,0,0,0,0,0,0],"id":15,"left_children":[1,3,5,-1,7,9,11,-1,-1,-1,-1,-1,-1],"loss_changes":[1.0308305E6,2.8873075E5,2.567452E5,0E0,2.4116906E4,5.6207965E4,5.2991688E4,0E0,0E0,0E0,0E0,0E0,0E0],"parents":[2147483647,0,0,1,1,2,2,4,4,5,5,6,6],"right_children":[2,4,6,-1,8,10,12,-1,-1,-1,-1,-1,-1],"split_conditions":[1E-45,1E-45,1E-45,1.2930129E1,2.011E3,1E-45,1E-45,5.443044E0,2.9603143E0,1.8744962E0,1.435576E-1,-1.0500962E0,-2.3888175E0],"split_indices":[0,0,0,0,1,0,0,0,0,0,0,0,0],"split_type":[1,1,1,0,0,1,1,0,0,0,0,0,0],"sum_hessian":[1.377E3,1.35E2,1.242E3,2.7E1,1.08E2,4.59E2,7.83E2,5.6E1,5.2E1,1.62E2,2.97E2,5.4E2,2.43E2],"tree_param":{"num_deleted":"0","num_feature":"3","num_nodes":"13","size_leaf_vector":"1"}},{"base_weights":[4.4436774E-1,1.2400635E2,-4.7785454E0,1.2027251E1,7.90972E1,2.6169977E1,-1.3770813E1,6.286545E0,2.4787974E0,2.8574858E0,8.1837034E-1,-2.4121791E-1,-1.6705242E0],"categories":[0,1,2,3,5,6,7,8,9,10,11,12,13,14,15,16,17,18,19,20,21,22,23,24,25,26,27,28,29,30,31,32,33,34,35,36,37,38,39,40,41,42,44,45,46,47,48,49,50,0,1,2,3,4,5,6,7,8,9,10,11,12,13,14,15,16,17,18,19,20,21,22,23,24,25,26,27,28,29,30,31,32,33,34,35,36,37,38,39,40,41,42,44,45,46,47,48,49,50,0,1,2,3,4,5,6,7,8,11,12,13,16,19,20,21,23,24,25,26,28,29,30,31,32,33,36,37,39,40,41,42,43,44,45,46,47,48,49,50,0,2,6,7,8,11,13,21,25,26,28,29,30,32,33,37,39,41,44,46,50],"categories_nodes":[0,1,2,6],"categories_segments":[0,49,99,139],"categories_sizes":[49,50,40,21],"default_left":[1,1,1,0,0,0,1,0,0,0,0,0,0],"id":16,"left_children":[1,3,5,-1,7,9,11,-1,-1,-1,-1,-1,-1],"loss_changes":[8.911275E5,6.606606E4,3.6946478E5,0E0,7.667344E2,5.3595453E4,9.211342E4,0E0,0E0,0E0,0E0,0E0,0E0],"parents":[2147483647,0,0,1,1,2,2,4,4,5,5,6,6],"right_children":[2,4,6,-1,8,10,12,-1,-1,-1,-1,-1,-1],"split_conditions":[1E-45,1E-45,1E-45,1.2027251E1,2.02E3,2.012E3,1E-45,6.286545E0,2.4787974E0,2.8574858E0,8.1837034E-1,-2.4121791E-1,-1.6705242E0],"split_indices":[0,0,0,0,1,1,0,0,0,0,0,0,0],"split_type":[1,1,1,0,0,0,1,0,0,0,0,0,0],"sum_hessian":[1.377E3,5.4E1,1.323E3,2.7E1,2.7E1,2.97E2,1.026E3,2.3E1,4E0,1.65E2,1.32E2,4.59E2,5.67E2],"tree_param":{"num_deleted":"0","num_feature":"3","num_nodes":"13","size_leaf_vector":"1"}},{"base_weights":[4.4375497E-1,7.222784E1,-7.4624405E0,1.1187417E1,5.0631027E1,7.887656E0,-1.7325134E1,4.779894E0,2.6013358E0,1.7440037E0,1.4096235E-1,-9.197188E-1,-2.086852E0],"categories":[0,1,2,3,5,6,7,8,10,11,12,13,14,15,16,17,18,19,20,21,22,23,24,25,26,27,28,29,30,31,32,33,34,36,37,39,40,41,42,44,45,46,47,48,49,50,0,1,2,3,4,5,6,7,8,9,10,11,12,13,14,15,16,17,18,19,20,21,22,23,24,25,26,27,28,29,30,31,32,33,34,35,36,37,38,39,40,41,42,44,45,46,47,48,49,50,0,2,5,6,7,8,11,12,13,16,19,20,21,25,26,28,29,30,32,33,37,39,40,41,44,46,47,50,0,1,2,3,4,5,6,7,8,9,10,11,12,13,16,17,19,20,21,23,24,25,26,27,28,29,30,31,32,33,35,36,37,38,39,40,41,42,43,44,45,46,47,48,49,50,7,8,11,13,21,30,39,41,46],"categories_nodes":[0,1,2,5,6],"categories_segments":[0,46,96,124,170],"categories_sizes":[46,50,28,46,9],"default_left":[1,1,1,0,0,1,1,0,0,0,0,0,0],"id":17,"left_children":[1,3,5,-1,7,9,11,-1,-1,-1,-1,-1,-1],"loss_changes":[7.837142E5,2.1253575E5,1.8860658E5,0E0,1.85595E4,4.496461E4,3.9606062E4,0E0,0E0,0E0,0E0,0E0,0E0],"parents":[2147483647,0,0,1,1,2,2,4,4,5,5,6,6],"right_children":[2,4,6,-1,8,10,12,-1,-1,-1,-1,-1,-1],"split_conditions":[1E-45,1E-45,1E-45,1.1187417E1,2.011E3,1E-45,1E-45,4.779894E0,2.6013358E0,1.7440037E0,1.4096235E-1,-9.197188E-1,-2.086852E0],"split_indices":[0,0,0,0,1,0,0,0,0,0,0,0,0],"split_type":[1,1,1,0,0,1,1,0,0,0,0,0,0],"sum_hessian":[1.377E3,1.35E2,1.242E3,2.7E1,1.08E2,4.86E2,7.56E2,5.6E1,5.2E1,1.35E2,3.51E2,5.13E2,2.43E2],"tree_param":{"num_deleted":"0","num_feature":"3","num_nodes":"13","size_leaf_vector":"1"}},{"base_weights":[4.3577728E-1,1.0825567E2,-4.1217966E0,1.0406227E1,7.029574E1,1.9736334E1,-1.2760069E1,5.58178E0,2.2247906E0,2.1012564E0,2.2372244E-1,-4.53415E-1,-1.6563388E0],"categories":[0,1,2,3,5,6,7,8,9,10,11,12,13,14,15,16,17,18,19,20,21,22,23,24,25,26,27,28,29,30,31,32,33,34,35,36,37,38,39,40,41,42,44,45,46,47,48,49,50,0,1,2,3,4,5,6,7,8,9,10,11,12,13,14,15,16,17,18,19,20,21,22,23,24,25,26,27,28,29,30,31,32,33,34,35,36,37,38,39,40,41,42,44,45,46,47,48,49,50,0,2,3,4,5,6,7,8,11,12,13,16,19,20,21,23,25,26,28,29,30,31,32,33,36,37,39,40,41,42,43,44,45,46,47,48,49,50,0,6,7,8,11,13,21,26,29,30,33,37,39,41,46],"categories_nodes":[0,1,2,6],"categories_segments":[0,49,99,137],"categories_sizes":[49,50,38,15],"default_left":[1,1,1,0,0,0,1,0,0,0,0,0,0],"id":18,"left_children":[1,3,5,-1,7,9,11,-1,-1,-1,-1,-1,-1],"loss_changes":[6.78529E5,4.5315875E4,2.7357694E5,0E0,4.4871875E2,4.880272E4,6.0714484E4,0E0,0E0,0E0,0E0,0E0,0E0],"parents":[2147483647,0,0,1,1,2,2,4,4,5,5,6,6],"right_children":[2,4,6,-1,8,10,12,-1,-1,-1,-1,-1,-1],"split_conditions":[1E-45,1E-45,1E-45,1.0406227E1,2.02E3,2.015E3,1E-45,5.58178E0,2.2247906E0,2.1012564E0,2.2372244E-1,-4.53415E-1,-1.6563388E0],"split_indices":[0,0,0,0,1,1,0,0,0,0,0,0,0],"split_type":[1,1,1,0,0,0,1,0,0,0,0,0,0],"sum_hessian":[1.377E3,5.4E1,1.323E3,2.7E1,2.7E1,3.51E2,9.72E2,2.3E1,4E0,2.34E2,1.17E2,5.67E2,4.05E2],"tree_param":{"num_deleted":"0","num_feature":"3","num_nodes":"13","size_leaf_vector":"1"}},{"base_weights":[4.2981997E-1,5.7135677E1,-7.212432E0,9.679586E0,4.1076485E1,3.551878E0,-1.6613152E1,4.9171453E0,2.5405788E0,8.187621E-1,-3.300989E-1,-9.2942005E-1,-1.8647836E0],"categories":[0,1,2,3,5,6,7,8,10,11,12,13,15,16,17,18,19,20,21,22,23,24,25,26,27,28,29,30,31,32,33,34,36,37,39,40,41,42,44,45,46,47,48,49,50,0,1,2,3,4,5,6,7,8,9,10,11,12,13,14,15,16,17,18,19,20,21,22,23,24,25,26,27,28,29,30,31,32,33,34,35,36,37,38,39,40,41,42,44,45,46,47,48,49,50,0,2,6,7,8,11,13,16,19,20,21,25,26,28,29,30,32,33,37,39,41,44,46,50,0,1,2,3,5,6,7,8,9,10,11,12,13,14,15,16,17,18,19,20,21,22,23,24,25,26,27,28,29,30,31,32,33,34,35,36,37,38,39,40,41,42,43,44,45,46,47,48,49,50,7,8,13,21,30,39,41,46],"categories_nodes":[0,1,2,4,6],"categories_segments":[0,45,95,119,169],"categories_sizes":[45,50,24,50,8],"default_left":[1,1,1,0,1,0,1,0,0,0,0,0,0],"id":19,"left_children":[1,3,5,-1,7,9,11,-1,-1,-1,-1,-1,-1],"loss_changes":[5.9842825E5,1.7882788E5,1.23268984E5,0E0,1.9717766E4,3.342522E4,2.2019969E4,0E0,0E0,0E0,0E0,0E0,0E0],"parents":[2147483647,0,0,1,1,2,2,4,4,5,5,6,6],"right_children":[2,4,6,-1,8,10,12,-1,-1,-1,-1,-1,-1],"split_conditions":[1E-45,1E-45,1E-45,9.679586E0,1E-45,2.011E3,1E-45,4.9171453E0,2.5405788E0,8.187621E-1,-3.300989E-1,-9.2942005E-1,-1.8647836E0],"split_indices":[0,0,0,0,0,1,0,0,0,0,0,0,0],"split_type":[1,1,1,0,1,0,1,0,0,0,0,0,0],"sum_hessian":[1.377E3,1.62E2,1.215E3,2.7E1,1.35E2,5.67E2,6.48E2,2.7E1,1.08E2,2.94E2,2.73E2,4.32E2,2.16E2],"tree_param":{"num_deleted":"0","num_feature":"3","num_nodes":"13","size_leaf_vector":"1"}},{"base_weights":[4.190957E-1,5.877778E1,-6.008539E0,9.003685E0,4.1555737E1,7.584336E0,-1.3258898E1,4.1488523E0,2.1837456E0,1.3379079E0,-5.2413177E-2,-6.462734E-1,-1.5874116E0],"categories":[0,1,2,3,5,6,7,8,10,11,12,13,14,15,16,17,18,19,20,21,22,23,24,25,26,27,28,29,30,31,32,33,34,36,37,39,40,41,42,44,45,46,47,48,49,50,0,1,2,3,4,5,6,7,8,9,10,11,12,13,14,15,16,17,18,19,20,21,22,23,24,25,26,27,28,29,30,31,32,33,34,35,36,37,38,39,40,41,42,44,45,46,47,48,49,50,0,2,3,5,6,7,8,11,12,13,16,19,20,21,23,25,26,28,29,30,32,33,37,39,40,41,44,46,47,50,6,7,8,11,13,21,26,30,39,41,46],"categories_nodes":[0,1,2,6],"categories_segments":[0,46,96,126],"categories_sizes":[46,50,30,11],"default_left":[1,1,1,0,0,0,1,0,0,0,0,0,0],"id":20,"left_children":[1,3,5,-1,7,9,11,-1,-1,-1,-1,-1,-1],"loss_changes":[5.179807E5,1.345874E5,1.2280131E5,0E0,1.5609641E4,3.6888594E4,2.9437062E4,0E0,0E0,0E0,0E0,0E0,0E0],"parents":[2147483647,0,0,1,1,2,2,4,4,5,5,6,6],"right_children":[2,4,6,-1,8,10,12,-1,-1,-1,-1,-1,-1],"split_conditions":[1E-45,1E-45,1E-45,9.003685E0,2.009E3,2.009E3,1E-45,4.1488523E0,2.1837456E0,1.3379079E0,-5.2413177E-2,-6.462734E-1,-1.5874116E0],"split_indices":[0,0,0,0,1,1,0,0,0,0,0,0,0],"split_type":[1,1,1,0,0,0,1,0,0,0,0,0,0],"sum_hessian":[1.377E3,1.35E2,1.242E3,2.7E1,1.08E2,4.32E2,8.1E2,4.8E1,6E1,1.92E2,2.4E2,5.13E2,2.97E2],"tree_param":{"num_deleted":"0","num_feature":"3","num_nodes":"13","size_leaf_vector":"1"}},{"base_weights":[4.085307E-1,4.2307877E1,-7.4460473E0,8.374981E0,3.1333984E1,2.389777E-1,-1.5469567E1,2.94129E0,1.1134499E0,4.543811E-1,-5.2696323E-1,-9.525134E-1,-1.8012626E0],"categories":[0,1,2,3,5,6,7,8,10,11,12,13,16,17,19,20,21,22,23,24,25,26,27,28,29,30,31,32,33,34,36,37,39,40,41,42,44,45,46,47,48,49,50,0,1,2,3,4,5,6,7,8,9,10,11,12,13,14,15,16,17,18,19,20,21,22,23,24,25,26,27,28,29,30,31,32,33,34,35,36,37,38,39,40,41,42,44,45,46,47,48,49,50,0,2,6,7,8,11,13,21,25,26,28,29,30,32,33,37,39,41,44,46,50,7,8,39,41,46],"categories_nodes":[0,1,2,6],"categories_segments":[0,43,93,114],"categories_sizes":[43,50,21,5],"default_left":[1,1,1,0,0,0,1,0,0,0,0,0,0],"id":21,"left_children":[1,3,5,-1,7,9,11,-1,-1,-1,-1,-1,-1],"loss_changes":[4.5446128E5,1.5892906E5,7.171907E4,0E0,2.3661406E4,2.5283482E4,1.2858594E4,0E0,0E0,0E0,0E0,0E0,0E0],"parents":[2147483647,0,0,1,1,2,2,4,4,5,5,6,6],"right_children":[2,4,6,-1,8,10,12,-1,-1,-1,-1,-1,-1],"split_conditions":[1E-45,1E-45,1E-45,8.374981E0,2.015E3,2.012E3,1E-45,2.94129E0,1.1134499E0,4.543811E-1,-5.2696323E-1,-9.525134E-1,-1.8012626E0],"split_indices":[0,0,0,0,1,1,0,0,0,0,0,0,0],"split_type":[1,1,1,0,0,0,1,0,0,0,0,0,0],"sum_hessian":[1.377E3,2.16E2,1.161E3,2.7E1,1.89E2,5.94E2,5.67E2,1.26E2,6.3E1,3.3E2,2.64E2,4.32E2,1.35E2],"tree_param":{"num_deleted":"0","num_feature":"3","num_nodes":"13","size_leaf_vector":"1"}},{"base_weights":[3.9181894E-1,8.277191E1,-3.0904973E0,7.790175E0,5.5966427E1,2.0328632E1,-8.387638E0,4.460399E0,1.7028333E0,2.401534E0,7.983205E-1,-2.2000955E-1,-1.179156E0],"categories":[0,1,2,3,5,6,7,8,9,10,11,12,13,14,15,16,17,18,19,20,21,22,23,24,25,26,27,28,29,30,31,32,33,34,35,36,37,38,39,40,41,42,44,45,46,47,48,49,50,0,1,2,3,4,5,6,7,8,9,10,11,12,13,14,15,16,17,18,19,20,21,22,23,24,25,26,27,28,29,30,31,32,33,34,35,36,37,38,39,40,41,42,44,45,46,47,48,49,50,0,1,2,3,4,5,6,7,8,11,12,13,16,17,19,20,21,23,24,25,26,27,28,29,30,31,32,33,36,37,39,40,41,42,43,44,45,46,47,48,49,50,0,6,7,8,11,13,21,26,28,29,30,32,33,37,39,41,46],"categories_nodes":[0,1,2,6],"categories_segments":[0,49,99,141],"categories_sizes":[49,50,42,17],"default_left":[1,1,1,0,0,0,1,0,0,0,0,0,0],"id":22,"left_children":[1,3,5,-1,7,9,11,-1,-1,-1,-1,-1,-1],"loss_changes":[3.9611025E5,2.0042625E4,1.6471312E5,0E0,6.8089844E2,2.705914E4,4.3191375E4,0E0,0E0,0E0,0E0,0E0,0E0],"parents":[2147483647,0,0,1,1,2,2,4,4,5,5,6,6],"right_children":[2,4,6,-1,8,10,12,-1,-1,-1,-1,-1,-1],"split_conditions":[1E-45,1E-45,1E-45,7.790175E0,2.02E3,2.009E3,1E-45,4.460399E0,1.7028333E0,2.401534E0,7.983205E-1,-2.2000955E-1,-1.179156E0],"split_indices":[0,0,0,0,1,1,0,0,0,0,0,0,0],"split_type":[1,1,1,0,0,0,1,0,0,0,0,0,0],"sum_hessian":[1.377E3,5.4E1,1.323E3,2.7E1,2.7E1,2.43E2,1.08E3,2.3E1,4E0,1.08E2,1.35E2,6.21E2,4.59E2],"tree_param":{"num_deleted":"0","num_feature":"3","num_nodes":"13","size_leaf_vector":"1"}},{"base_weights":[3.8528132E-1,6.2992012E1,-3.6186705E0,7.2462068E0,4.332983E1,1.02864485E1,-9.948061E0,4.087263E0,2.1202645E0,1.4754269E0,2.0029141E-1,-4.921706E-1,-1.3222395E0],"categories":[0,1,2,3,5,6,7,8,9,10,11,12,13,14,15,16,17,18,19,20,21,22,23,24,25,26,27,28,29,30,31,32,33,34,35,36,37,39,40,41,42,44,45,46,47,48,49,50,0,1,2,3,4,5,6,7,8,9,10,11,12,13,14,15,16,17,18,19,20,21,22,23,24,25,26,27,28,29,30,31,32,33,34,35,36,37,38,39,40,41,42,44,45,46,47,48,49,50,0,2,3,5,6,7,8,11,12,13,16,19,20,21,23,25,26,28,29,30,32,33,36,37,39,40,41,44,46,47,48,49,50,7,8,11,13,21,26,30,39,41,46],"categories_nodes":[0,1,2,6],"categories_segments":[0,48,98,131],"categories_sizes":[48,50,33,10],"default_left":[1,1,1,0,0,0,1,0,0,0,0,0,0],"id":23,"left_children":[1,3,5,-1,7,9,11,-1,-1,-1,-1,-1,-1],"loss_changes":[3.461358E5,4.650047E4,1.1444286E5,0E0,6.3363047E3,2.8988148E4,2.2994594E4,0E0,0E0,0E0,0E0,0E0,0E0],"parents":[2147483647,0,0,1,1,2,2,4,4,5,5,6,6],"right_children":[2,4,6,-1,8,10,12,-1,-1,-1,-1,-1,-1],"split_conditions":[1E-45,1E-45,1E-45,7.2462068E0,2.011E3,2.009E3,1E-45,4.087263E0,2.1202645E0,1.4754269E0,2.0029141E-1,-4.921706E-1,-1.3222395E0],"split_indices":[0,0,0,0,1,1,0,0,0,0,0,0,0],"split_type":[1,1,1,0,0,0,1,0,0,0,0,0,0],"sum_hessian":[1.377E3,8.1E1,1.296E3,2.7E1,5.4E1,4.05E2,8.91E2,2.8E1,2.6E1,1.8E2,2.25E2,6.21E2,2.7E2],"tree_param":{"num_deleted":"0","num_feature":"3","num_nodes":"13","size_leaf_vector":"1"}},{"base_weights":[3.756965E-1,3.225364E1,-6.5000496E0,7.205464E1,2.0246502E1,-5.3550553E-1,-1.2441746E1,6.7402215E0,3.6952791E0,1.9858197E0,3.7837055E-1,2.3724464E-1,-6.9404584E-1,-7.996022E-1,-1.6957308E0],"categories":[0,1,2,3,5,6,7,8,10,11,12,13,16,17,19,20,21,22,23,24,25,26,27,28,29,30,31,32,33,36,37,39,40,41,42,44,45,46,47,48,49,50,0,1,2,3,5,6,7,8,9,10,11,12,13,14,15,16,17,18,19,20,21,22,23,24,25,26,27,28,29,30,31,32,33,34,35,36,37,38,39,40,41,42,44,45,46,47,48,49,50,0,2,6,7,8,11,13,21,25,26,28,29,30,32,33,37,39,41,44,46,50,0,1,2,3,4,5,6,7,8,9,10,11,12,13,14,15,16,17,18,19,20,21,22,23,24,25,26,27,28,29,30,31,32,33,34,35,36,37,38,39,40,41,42,44,45,46,47,48,49,50,7,39,46],"categories_nodes":[0,1,2,3,6],"categories_segments":[0,42,91,112,162],"categories_sizes":[42,49,21,50,3],"default_left":[1,1,1,1,0,0,1,0,0,0,0,0,0,0,0],"id":24,"left_children":[1,3,5,7,9,11,13,-1,-1,-1,-1,-1,-1,-1,-1],"loss_changes":[3.026749E5,1.1416683E5,4.0245965E4,1.3874625E4,1.7824805E4,1.840736E4,9.818461E3,0E0,0E0,0E0,0E0,0E0,0E0,0E0,0E0],"parents":[2147483647,0,0,1,1,2,2,3,3,4,4,5,5,6,6],"right_children":[2,4,6,8,10,12,14,-1,-1,-1,-1,-1,-1,-1,-1],"split_conditions":[1E-45,1E-45,1E-45,1E-45,2.016E3,2.016E3,1E-45,6.7402215E0,3.6952791E0,1.9858197E0,3.7837055E-1,2.3724464E-1,-6.9404584E-1,-7.996022E-1,-1.6957308E0],"split_indices":[0,0,0,0,1,1,0,0,0,0,0,0,0,0,0],"split_type":[1,1,1,1,0,0,1,0,0,0,0,0,0,0,0],"sum_hessian":[1.377E3,2.43E2,1.134E3,5.4E1,1.89E2,5.67E2,5.67E2,2.7E1,2.7E1,1.33E2,5.6E1,3.99E2,1.68E2,4.86E2,8.1E1],"tree_param":{"num_deleted":"0","num_feature":"3","num_nodes":"15","size_leaf_vector":"1"}},{"base_weights":[3.6180064E-1,4.1960014E1,-4.219935E0,6.269567E0,3.0220816E1,6.892008E0,-8.602999E0,3.0543861E0,1.5581039E0,7.925225E-1,-6.832919E-1,-4.3954873E-1,-1.1856292E0],"categories":[0,1,2,3,5,6,7,8,10,11,12,13,14,15,16,17,18,19,20,21,22,23,24,25,26,27,28,29,30,31,32,33,34,36,37,39,40,41,42,44,45,46,47,48,49,50,0,1,2,3,4,5,6,7,8,9,10,11,12,13,14,15,16,17,18,19,20,21,22,23,24,25,26,27,28,29,30,31,32,33,34,35,36,37,38,39,40,41,42,44,45,46,47,48,49,50,0,2,3,5,6,7,8,11,12,13,16,19,20,21,23,25,26,28,29,30,32,33,36,37,39,40,41,44,46,47,48,49,50,7,8,11,13,21,30,39,41,46],"categories_nodes":[0,1,2,6],"categories_segments":[0,46,96,129],"categories_sizes":[46,50,33,9],"default_left":[1,1,1,0,0,0,1,0,0,0,0,0,0],"id":25,"left_children":[1,3,5,-1,7,9,11,-1,-1,-1,-1,-1,-1],"loss_changes":[2.6318053E5,6.1906484E4,6.0706797E4,0E0,9.222641E3,2.0952033E4,1.7460117E4,0E0,0E0,0E0,0E0,0E0,0E0],"parents":[2147483647,0,0,1,1,2,2,4,4,5,5,6,6],"right_children":[2,4,6,-1,8,10,12,-1,-1,-1,-1,-1,-1],"split_conditions":[1E-45,1E-45,1E-45,6.269567E0,2.009E3,2.019E3,1E-45,3.0543861E0,1.5581039E0,7.925225E-1,-6.832919E-1,-4.3954873E-1,-1.1856292E0],"split_indices":[0,0,0,0,1,1,0,0,0,0,0,0,0],"split_type":[1,1,1,0,0,0,1,0,0,0,0,0,0],"sum_hessian":[1.377E3,1.35E2,1.242E3,2.7E1,1.08E2,3.51E2,8.91E2,4.8E1,6E1,2.86E2,6.5E1,6.48E2,2.43E2],"tree_param":{"num_deleted":"0","num_feature":"3","num_nodes":"13","size_leaf_vector":"1"}},{"base_weights":[3.4824914E-1,2.6423317E1,-6.0477066E0,6.292853E1,1.6803415E1,-1.7436426E0,-1.1517658E1,5.831776E0,3.2820115E0,1.9599135E0,6.7757636E-1,1.14094414E-1,-6.169138E-1,-7.329359E-1,-1.4848361E0],"categories":[0,1,2,3,5,6,7,8,10,11,12,13,16,17,19,20,21,23,24,25,26,27,28,29,30,31,32,33,36,37,39,40,41,42,44,45,46,47,48,49,50,0,1,2,3,5,6,7,8,9,10,11,12,13,14,15,16,17,18,19,20,21,22,23,24,25,26,27,28,29,30,31,32,33,34,35,36,37,38,39,40,41,42,44,45,46,47,48,49,50,0,6,7,8,11,13,21,25,26,28,29,30,32,33,37,39,41,46,0,1,2,3,4,5,6,7,8,9,10,11,12,13,14,15,16,17,18,19,20,21,22,23,24,25,26,27,28,29,30,31,32,33,34,35,36,37,38,39,40,41,42,44,45,46,47,48,49,50,7,39,46],"categories_nodes":[0,1,2,3,6],"categories_segments":[0,41,90,108,158],"categories_sizes":[41,49,18,50,3],"default_left":[1,1,1,1,0,0,1,0,0,0,0,0,0,0,0],"id":26,"left_children":[1,3,5,7,9,11,13,-1,-1,-1,-1,-1,-1,-1,-1],"loss_changes":[2.303023E5,9.340522E4,2.6069043E4,9.112016E3,1.5327547E4,1.3209377E4,6.664832E3,0E0,0E0,0E0,0E0,0E0,0E0,0E0,0E0],"parents":[2147483647,0,0,1,1,2,2,3,3,4,4,5,5,6,6],"right_children":[2,4,6,8,10,12,14,-1,-1,-1,-1,-1,-1,-1,-1],"split_conditions":[1E-45,1E-45,1E-45,1E-45,2.009E3,2.015E3,1E-45,5.831776E0,3.2820115E0,1.9599135E0,6.7757636E-1,1.14094414E-1,-6.169138E-1,-7.329359E-1,-1.4848361E0],"split_indices":[0,0,0,0,1,1,0,0,0,0,0,0,0,0,0],"split_type":[1,1,1,1,0,0,1,0,0,0,0,0,0,0,0],"sum_hessian":[1.377E3,2.7E2,1.107E3,5.4E1,2.16E2,6.21E2,4.86E2,2.7E1,2.7E1,9.6E1,1.2E2,4.14E2,2.07E2,4.05E2,8.1E1],"tree_param":{"num_deleted":"0","num_feature":"3","num_nodes":"15","size_leaf_vector":"1"}},{"base_weights":[3.3522648E-1,4.7849636E1,-2.7035766E0,5.4245563E0,3.3464725E1,1.0282655E1,-6.5771794E0,2.810791E0,5.633899E-1,1.0001944E0,-5.317613E-1,-2.6312774E-1,-9.143023E-1],"categories":[0,1,2,3,5,6,7,8,9,10,11,12,13,14,15,16,17,18,19,20,21,22,23,24,25,26,27,28,29,30,31,32,33,34,35,36,37,39,40,41,42,44,45,46,47,48,49,50,0,1,2,3,4,5,6,7,8,9,10,11,12,13,14,15,16,17,18,19,20,21,22,23,24,25,26,27,28,29,30,31,32,33,34,35,36,37,38,39,40,41,42,44,45,46,47,48,49,50,0,1,2,3,4,5,6,7,8,11,12,13,16,19,20,21,23,25,26,28,29,30,31,32,33,36,37,38,39,40,41,42,43,44,45,46,47,48,49,50,0,6,7,8,11,13,21,26,30,37,39,41,46],"categories_nodes":[0,1,2,6],"categories_segments":[0,48,98,138],"categories_sizes":[48,50,40,13],"default_left":[1,1,1,0,0,0,1,0,0,0,0,0,0],"id":27,"left_children":[1,3,5,-1,7,9,11,-1,-1,-1,-1,-1,-1],"loss_changes":[1.9936831E5,2.4384344E4,6.542921E4,0E0,5.268535E3,1.6049219E4,1.71585E4,0E0,0E0,0E0,0E0,0E0,0E0],"parents":[2147483647,0,0,1,1,2,2,4,4,5,5,6,6],"right_children":[2,4,6,-1,8,10,12,-1,-1,-1,-1,-1,-1],"split_conditions":[1E-45,1E-45,1E-45,5.4245563E0,2.02E3,2.02E3,1E-45,2.810791E0,5.633899E-1,1.0001944E0,-5.317613E-1,-2.6312774E-1,-9.143023E-1],"split_indices":[0,0,0,0,1,1,0,0,0,0,0,0,0],"split_type":[1,1,1,0,0,0,1,0,0,0,0,0,0],"sum_hessian":[1.377E3,8.1E1,1.296E3,2.7E1,5.4E1,2.97E2,9.99E2,4.6E1,8E0,2.53E2,4.4E1,6.48E2,3.51E2],"tree_param":{"num_deleted":"0","num_feature":"3","num_nodes":"13","size_leaf_vector":"1"}},{"base_weights":[3.2181767E-1,3.0915451E1,-3.8014357E0,5.4724293E1,1.8232487E1,2.123988E0,-8.534045E0,4.600859E0,1.9574448E0,1.6739035E0,-1.06037315E-2,3.4305942E-1,-6.4011914E-1,-4.9490768E-1,-1.0880411E0],"categories":[0,1,2,3,5,6,7,8,10,11,12,13,15,16,17,18,19,20,21,22,23,24,25,26,27,28,29,30,31,32,33,34,36,37,39,40,41,42,44,45,46,47,48,49,50,0,1,2,3,5,6,7,8,9,10,11,12,13,14,15,16,17,18,19,20,21,22,23,24,25,26,27,28,29,30,31,32,33,34,35,36,37,38,39,40,41,42,44,45,46,47,48,49,50,0,2,6,7,8,11,13,16,19,20,21,25,26,28,29,30,32,33,37,39,41,44,46,47,50,7,8,30,39,41,46],"categories_nodes":[0,1,2,6],"categories_segments":[0,45,94,119],"categories_sizes":[45,49,25,6],"default_left":[1,1,1,0,0,0,1,0,0,0,0,0,0,0,0],"id":28,"left_children":[1,3,5,7,9,11,13,-1,-1,-1,-1,-1,-1,-1,-1],"loss_changes":[1.7418942E5,4.7527016E4,3.416424E4,7.4105625E3,8.265086E3,1.4232839E4,7.6344805E3,0E0,0E0,0E0,0E0,0E0,0E0,0E0,0E0],"parents":[2147483647,0,0,1,1,2,2,3,3,4,4,5,5,6,6],"right_children":[2,4,6,8,10,12,14,-1,-1,-1,-1,-1,-1,-1,-1],"split_conditions":[1E-45,1E-45,1E-45,3.7945E4,2.019E3,2.019E3,1E-45,4.600859E0,1.9574448E0,1.6739035E0,-1.06037315E-2,3.4305942E-1,-6.4011914E-1,-4.9490768E-1,-1.0880411E0],"split_indices":[0,0,0,2,1,1,0,0,0,0,0,0,0,0,0],"split_type":[1,1,1,0,0,0,1,0,0,0,0,0,0,0,0],"sum_hessian":[1.377E3,1.62E2,1.215E3,5.4E1,1.08E2,5.4E2,6.75E2,4.2E1,1.2E1,8.8E1,2E1,4.4E2,1E2,5.13E2,1.62E2],"tree_param":{"num_deleted":"0","num_feature":"3","num_nodes":"15","size_leaf_vector":"1"}},{"base_weights":[3.0688003E-1,2.1558807E1,-4.906049E0,5.0854206E1,1.3835596E1,-7.2347474E-1,-8.503722E0,4.271481E0,1.8316082E0,1.6517153E0,5.2740914E-1,2.3129691E-1,-4.1011488E-1,-5.3992164E-1,-1.2295996E0],"categories":[0,1,2,3,5,6,7,8,10,11,12,13,16,17,19,20,21,23,24,25,26,27,28,29,30,31,32,33,36,37,39,40,41,42,44,45,46,47,48,49,50,0,1,2,3,5,6,7,8,9,10,11,12,13,14,15,16,17,18,19,20,21,22,23,24,25,26,27,28,29,30,31,32,33,34,35,36,37,38,39,40,41,42,44,45,46,47,48,49,50,0,2,6,7,8,11,13,20,21,25,26,28,29,30,32,33,37,39,41,44,46,50,7,39,46],"categories_nodes":[0,1,2,6],"categories_segments":[0,41,90,112],"categories_sizes":[41,49,22,3],"default_left":[1,1,1,0,0,0,1,0,0,0,0,0,0,0,0],"id":29,"left_children":[1,3,5,7,9,11,13,-1,-1,-1,-1,-1,-1,-1,-1],"loss_changes":[1.5298375E5,6.013403E4,1.6675414E4,6.246E3,1.1833281E4,9.337314E3,5.9002734E3,0E0,0E0,0E0,0E0,0E0,0E0,0E0,0E0],"parents":[2147483647,0,0,1,1,2,2,3,3,4,4,5,5,6,6],"right_children":[2,4,6,8,10,12,14,-1,-1,-1,-1,-1,-1,-1,-1],"split_conditions":[1E-45,1E-45,1E-45,3.7945E4,2.009E3,2.012E3,1E-45,4.271481E0,1.8316082E0,1.6517153E0,5.2740914E-1,2.3129691E-1,-4.1011488E-1,-5.3992164E-1,-1.2295996E0],"split_indices":[0,0,0,2,1,1,0,0,0,0,0,0,0,0,0],"split_type":[1,1,1,0,0,0,1,0,0,0,0,0,0,0,0],"sum_hessian":[1.377E3,2.7E2,1.107E3,5.4E1,2.16E2,5.13E2,5.94E2,4.2E1,1.2E1,9.6E1,1.2E2,2.85E2,2.28E2,5.13E2,8.1E1],"tree_param":{"num_deleted":"0","num_feature":"3","num_nodes":"15","size_leaf_vector":"1"}},{"base_weights":[2.9305047E-1,2.0002796E1,-4.5416083E0,4.7258106E1,1.281792E1,-2.0704808E0,-9.822151E0,4.42624E0,2.4180374E0,1.2950401E0,1.5358812E-1,-4.9996946E-2,-7.492001E-1,-6.299949E-1,-1.2798746E0],"categories":[0,1,2,3,5,6,7,8,10,11,12,13,16,17,19,20,21,23,24,25,26,27,28,29,30,31,32,33,36,37,39,40,41,42,44,45,46,47,48,49,50,0,1,2,3,5,6,7,8,9,10,11,12,13,14,15,16,17,18,19,20,21,22,23,24,25,26,27,28,29,30,31,32,33,34,35,36,37,38,39,40,41,42,44,45,46,47,48,49,50,0,6,7,8,11,13,21,26,30,37,39,41,46,0,1,2,3,4,5,6,7,8,9,10,11,12,13,14,15,16,17,18,19,20,21,22,23,24,25,26,27,28,29,30,31,32,33,34,35,36,37,38,39,40,41,42,44,45,46,47,48,49,50,7,46],"categories_nodes":[0,1,2,3,6],"categories_segments":[0,41,90,103,153],"categories_sizes":[41,49,13,50,2],"default_left":[1,1,1,1,0,0,1,0,0,0,0,0,0,0,0],"id":30,"left_children":[1,3,5,7,9,11,13,-1,-1,-1,-1,-1,-1,-1,-1],"loss_changes":[1.3158647E5,5.205317E4,1.4430553E4,6.0832344E3,1.0375645E4,8.413309E3,3.3495312E3,0E0,0E0,0E0,0E0,0E0,0E0,0E0,0E0],"parents":[2147483647,0,0,1,1,2,2,3,3,4,4,5,5,6,6],"right_children":[2,4,6,8,10,12,14,-1,-1,-1,-1,-1,-1,-1,-1],"split_conditions":[1E-45,1E-45,1E-45,1E-45,2.016E3,2.02E3,1E-45,4.42624E0,2.4180374E0,1.2950401E0,1.5358812E-1,-4.9996946E-2,-7.492001E-1,-6.299949E-1,-1.2798746E0],"split_indices":[0,0,0,0,1,1,0,0,0,0,0,0,0,0,0],"split_type":[1,1,1,1,0,0,1,0,0,0,0,0,0,0,0],"sum_hessian":[1.377E3,2.7E2,1.107E3,5.4E1,2.16E2,7.56E2,3.51E2,2.7E1,2.7E1,1.52E2,6.4E1,6.44E2,1.12E2,2.97E2,5.4E1],"tree_param":{"num_deleted":"0","num_feature":"3","num_nodes":"15","size_leaf_vector":"1"}},{"base_weights":[2.7916855E-1,2.7708643E1,-2.7420504E0,4.1171646E0,2.00374E1,4.2843375E0,-5.81889E0,2.0796204E0,9.891537E-1,8.4644747E-1,-1.027946E-1,-3.1934977E-1,-8.467914E-1],"categories":[0,1,2,3,5,6,7,8,10,11,12,13,14,15,16,17,18,19,20,21,22,23,24,25,26,27,28,29,30,31,32,33,34,36,37,39,40,41,42,44,45,46,47,48,49,50,0,1,2,3,4,5,6,7,8,9,10,11,12,13,14,15,16,17,18,19,20,21,22,23,24,25,26,27,28,29,30,31,32,33,34,35,36,37,38,39,40,41,42,44,45,46,47,48,49,50,0,2,3,5,6,7,8,11,12,13,16,19,20,21,23,25,26,28,29,30,32,33,36,37,39,40,41,44,46,47,48,50,7,8,13,30,39,41,46],"categories_nodes":[0,1,2,6],"categories_segments":[0,46,96,128],"categories_sizes":[46,50,32,7],"default_left":[1,1,1,0,0,0,1,0,0,0,0,0,0],"id":31,"left_children":[1,3,5,-1,7,9,11,-1,-1,-1,-1,-1,-1],"loss_changes":[1.1443031E5,2.6372406E4,2.6943984E4,0E0,5.0625547E3,1.5076557E4,7.300078E3,0E0,0E0,0E0,0E0,0E0,0E0],"parents":[2147483647,0,0,1,1,2,2,4,4,5,5,6,6],"right_children":[2,4,6,-1,8,10,12,-1,-1,-1,-1,-1,-1],"split_conditions":[1E-45,1E-45,1E-45,4.1171646E0,2.009E3,2.009E3,1E-45,2.0796204E0,9.891537E-1,8.4644747E-1,-1.027946E-1,-3.1934977E-1,-8.467914E-1],"split_indices":[0,0,0,0,1,1,0,0,0,0,0,0,0],"split_type":[1,1,1,0,0,0,1,0,0,0,0,0,0],"sum_hessian":[1.377E3,1.35E2,1.242E3,2.7E1,1.08E2,3.78E2,8.64E2,4.8E1,6E1,1.68E2,2.1E2,6.75E2,1.89E2],"tree_param":{"num_deleted":"0","num_feature":"3","num_nodes":"13","size_leaf_vector":"1"}},{"base_weights":[2.6803997E-1,1.9890621E1,-3.4106004E0,4.1262516E1,1.2350332E1,4.326187E-1,-6.7431903E0,3.4630675E0,1.4948282E0,1.1375265E0,-2.8248537E-1,3.6440894E-1,-2.3377818E-1,-4.429097E-1,-1.126071E0],"categories":[0,1,2,3,5,6,7,8,10,11,12,13,16,17,19,20,21,22,23,24,25,26,27,28,29,30,31,32,33,34,36,37,39,40,41,42,44,45,46,47,48,49,50,0,1,2,3,5,6,7,8,9,10,11,12,13,14,15,16,17,18,19,20,21,22,23,24,25,26,27,28,29,30,31,32,33,34,35,36,37,38,39,40,41,42,44,45,46,47,48,49,50,0,2,6,7,8,11,13,16,20,21,25,26,28,29,30,32,33,37,39,41,44,46,50,7,46],"categories_nodes":[0,1,2,6],"categories_segments":[0,43,92,115],"categories_sizes":[43,49,23,2],"default_left":[1,1,1,0,0,0,1,0,0,0,0,0,0,0,0],"id":32,"left_children":[1,3,5,7,9,11,13,-1,-1,-1,-1,-1,-1,-1,-1],"loss_changes":[9.9677984E4,3.411154E4,1.4901391E4,4.0267656E3,7.5591934E3,8.545864E3,4.139385E3,0E0,0E0,0E0,0E0,0E0,0E0,0E0,0E0],"parents":[2147483647,0,0,1,1,2,2,3,3,4,4,5,5,6,6],"right_children":[2,4,6,8,10,12,14,-1,-1,-1,-1,-1,-1,-1,-1],"split_conditions":[1E-45,1E-45,1E-45,3.7945E4,2.02E3,2.009E3,1E-45,3.4630675E0,1.4948282E0,1.1375265E0,-2.8248537E-1,3.6440894E-1,-2.3377818E-1,-4.429097E-1,-1.126071E0],"split_indices":[0,0,0,2,1,1,0,0,0,0,0,0,0,0,0],"split_type":[1,1,1,0,0,0,1,0,0,0,0,0,0,0,0],"sum_hessian":[1.377E3,2.16E2,1.161E3,5.4E1,1.62E2,5.4E2,6.21E2,4.2E1,1.2E1,1.38E2,2.4E1,2.4E2,3E2,5.67E2,5.4E1],"tree_param":{"num_deleted":"0","num_feature":"3","num_nodes":"15","size_leaf_vector":"1"}},{"base_weights":[2.5428113E-1,1.6252047E1,-3.6698852E0,3.8344887E1,1.0427719E1,-7.8835716E0,-1.5730126E0,3.5878532E0,1.9655443E0,9.677524E-1,-2.7966857E-1,-4.9627033E-1,-1.0530993E0,8.669399E-2,-3.6506608E-1],"categories":[0,1,2,3,5,6,7,8,10,11,12,13,16,17,19,20,21,23,24,25,26,27,28,29,30,31,32,33,36,37,39,40,41,42,44,45,46,47,48,49,50,0,1,2,3,5,6,7,8,9,10,11,12,13,14,15,16,17,18,19,20,21,22,23,24,25,26,27,28,29,30,31,32,33,34,35,36,37,38,39,40,41,42,44,45,46,47,48,49,50,0,1,2,3,4,5,6,7,8,9,10,11,12,13,14,15,16,17,18,19,20,21,22,23,24,25,26,27,28,29,30,31,32,33,34,35,36,37,38,39,40,41,42,44,45,46,47,48,49,50,7,46,49],"categories_nodes":[0,1,3,5],"categories_segments":[0,41,90,140],"categories_sizes":[41,49,50,3],"default_left":[1,1,0,1,0,1,0,0,0,0,0,0,0,0,0],"id":33,"left_children":[1,3,5,7,9,11,13,-1,-1,-1,-1,-1,-1,-1,-1],"loss_changes":[8.669E4,3.420015E4,9.773838E3,3.9451562E3,7.7364375E3,2.6844395E3,6.691241E3,0E0,0E0,0E0,0E0,0E0,0E0,0E0,0E0],"parents":[2147483647,0,0,1,1,2,2,3,3,4,4,5,5,6,6],"right_children":[2,4,6,8,10,12,14,-1,-1,-1,-1,-1,-1,-1,-1],"split_conditions":[1E-45,1E-45,1.796E3,1E-45,2.02E3,1E-45,2.012E3,3.5878532E0,1.9655443E0,9.677524E-1,-2.7966857E-1,-4.9627033E-1,-1.0530993E0,8.669399E-2,-3.6506608E-1],"split_indices":[0,0,2,0,1,0,1,0,0,0,0,0,0,0,0],"split_type":[1,1,0,1,0,1,0,0,0,0,0,0,0,0,0],"sum_hessian":[1.377E3,2.7E2,1.107E3,5.4E1,2.16E2,3.66E2,7.41E2,2.7E1,2.7E1,1.84E2,3.2E1,3.07E2,5.9E1,4.06E2,3.35E2],"tree_param":{"num_deleted":"0","num_feature":"3","num_nodes":"15","size_leaf_vector":"1"}},{"base_weights":[2.4161099E-1,2.949109E1,-1.6291056E0,3.3373237E0,2.0666586E1,5.268499E0,-4.4745746E0,2.1937644E0,9.3005574E-1,5.4922414E-1,-4.7924832E-1,-2.4255441E-1,-6.881591E-1],"categories":[0,1,2,3,5,6,7,8,9,10,11,12,13,14,15,16,17,18,19,20,21,22,23,24,25,26,27,28,29,30,31,32,33,34,35,36,37,39,40,41,42,44,45,46,47,48,49,50,0,1,2,3,4,5,6,7,8,9,10,11,12,13,14,15,16,17,18,19,20,21,22,23,24,25,26,27,28,29,30,31,32,33,34,35,36,37,38,39,40,41,42,44,45,46,47,48,49,50,0,2,3,5,6,7,8,11,12,13,16,19,20,21,23,25,26,28,29,30,32,33,36,37,39,40,41,42,44,46,47,48,49,50,7,8,13,30,39,41,46],"categories_nodes":[0,1,2,6],"categories_segments":[0,48,98,132],"categories_sizes":[48,50,34,7],"default_left":[1,1,1,0,0,0,1,0,0,0,0,0,0],"id":34,"left_children":[1,3,5,-1,7,9,11,-1,-1,-1,-1,-1,-1],"loss_changes":[7.55515E4,9.152086E3,2.552289E4,0E0,3.247795E3,9.195431E3,5.3056465E3,0E0,0E0,0E0,0E0,0E0,0E0],"parents":[2147483647,0,0,1,1,2,2,4,4,5,5,6,6],"right_children":[2,4,6,-1,8,10,12,-1,-1,-1,-1,-1,-1],"split_conditions":[1E-45,1E-45,1E-45,3.3373237E0,2.009E3,2.02E3,1E-45,2.1937644E0,9.3005574E-1,5.4922414E-1,-4.7924832E-1,-2.4255441E-1,-6.881591E-1],"split_indices":[0,0,0,0,1,1,0,0,0,0,0,0,0],"split_type":[1,1,1,0,0,0,1,0,0,0,0,0,0],"sum_hessian":[1.377E3,8.1E1,1.296E3,2.7E1,5.4E1,3.78E2,9.18E2,2.4E1,3E1,3.22E2,5.6E1,7.29E2,1.89E2],"tree_param":{"num_deleted":"0","num_feature":"3","num_nodes":"13","size_leaf_vector":"1"}},{"base_weights":[2.316119E-1,1.9061575E1,-2.3062494E0,1.0323223E1,3.1723879E1,1.9467809E0,-4.88677E0,1.1400597E0,-3.5462922E-1,3.1042852E0,1.7181779E0,5.045301E-1,-1.4250286E-1,-2.9077208E-1,-7.055611E-1],"categories":[0,1,2,3,5,6,7,8,10,11,12,13,15,16,17,18,19,20,21,22,23,24,25,26,27,28,29,30,31,32,33,34,36,37,39,40,41,42,44,45,46,47,48,49,50,0,2,5,6,7,8,11,12,13,16,19,20,21,25,26,28,29,30,32,33,37,39,40,41,44,46,47,50,0,1,2,3,4,5,6,7,8,9,10,11,12,13,14,15,16,17,18,19,20,21,22,23,24,25,26,27,28,29,30,31,32,33,34,35,36,37,38,39,40,41,42,44,45,46,47,48,49,50,7,8,39,41,46],"categories_nodes":[0,2,4,6],"categories_segments":[0,45,73,123],"categories_sizes":[45,28,50,5],"default_left":[1,0,1,0,1,0,1,0,0,0,0,0,0,0,0],"id":35,"left_children":[1,3,5,7,9,11,13,-1,-1,-1,-1,-1,-1,-1,-1],"loss_changes":[6.598734E4,1.7491227E4,1.3375641E4,7.485282E3,3.7273984E3,8.502845E3,3.3873672E3,0E0,0E0,0E0,0E0,0E0,0E0,0E0,0E0],"parents":[2147483647,0,0,1,1,2,2,3,3,4,4,5,5,6,6],"right_children":[2,4,6,8,10,12,14,-1,-1,-1,-1,-1,-1,-1,-1],"split_conditions":[1E-45,1.9636E4,1E-45,2.016E3,1E-45,2.009E3,1E-45,1.1400597E0,-3.5462922E-1,3.1042852E0,1.7181779E0,5.045301E-1,-1.4250286E-1,-2.9077208E-1,-7.055611E-1],"split_indices":[0,2,0,1,0,1,0,0,0,0,0,0,0,0,0],"split_type":[1,0,1,0,1,0,1,0,0,0,0,0,0,0,0],"sum_hessian":[1.377E3,1.62E2,1.215E3,9.8E1,6.4E1,4.59E2,7.56E2,7.4E1,2.4E1,2.7E1,3.7E1,2.04E2,2.55E2,6.21E2,1.35E2],"tree_param":{"num_deleted":"0","num_feature":"3","num_nodes":"15","size_leaf_vector":"1"}},{"base_weights":[2.2145315E-1,1.3297503E1,-2.986057E0,3.1013954E1,8.624494E0,-1.0272205E0,-6.0279007E0,2.6097448E0,1.1021317E0,1.0827134E0,2.8610298E-1,1.4608064E-2,-5.9398013E-1,-3.884695E-1,-8.6767435E-1],"categories":[0,1,2,3,5,6,7,8,10,11,12,13,16,17,19,20,21,23,24,25,26,27,28,29,30,31,32,33,36,37,39,40,41,42,44,45,46,47,48,49,50,0,1,2,3,5,6,7,8,9,10,11,12,13,14,15,16,17,18,19,20,21,22,23,24,25,26,27,28,29,30,31,32,33,34,35,36,37,38,39,40,41,42,44,45,46,47,48,49,50,0,6,7,8,11,13,21,26,29,30,32,33,37,39,41,46,7,46],"categories_nodes":[0,1,2,6],"categories_segments":[0,41,90,106],"categories_sizes":[41,49,16,2],"default_left":[1,1,1,0,0,0,1,0,0,0,0,0,0,0,0],"id":36,"left_children":[1,3,5,7,9,11,13,-1,-1,-1,-1,-1,-1,-1,-1],"loss_changes":[5.7916832E4,2.1983688E4,6.5955654E3,2.4341133E3,5.9836055E3,5.705196E3,1.9201904E3,0E0,0E0,0E0,0E0,0E0,0E0,0E0,0E0],"parents":[2147483647,0,0,1,1,2,2,3,3,4,4,5,5,6,6],"right_children":[2,4,6,8,10,12,14,-1,-1,-1,-1,-1,-1,-1,-1],"split_conditions":[1E-45,1E-45,1E-45,3.7945E4,2.009E3,2.02E3,1E-45,2.6097448E0,1.1021317E0,1.0827134E0,2.8610298E-1,1.4608064E-2,-5.9398013E-1,-3.884695E-1,-8.6767435E-1],"split_indices":[0,0,0,2,1,1,0,0,0,0,0,0,0,0,0],"split_type":[1,1,1,0,0,0,1,0,0,0,0,0,0,0,0],"sum_hessian":[1.377E3,2.7E2,1.107E3,5.4E1,2.16E2,6.75E2,4.32E2,4.2E1,1.2E1,9.6E1,1.2E2,5.75E2,1E2,3.78E2,5.4E1],"tree_param":{"num_deleted":"0","num_feature":"3","num_nodes":"15","size_leaf_vector":"1"}},{"base_weights":[2.0955005E-1,1.2337548E1,-2.7654135E0,2.8820475E1,7.990213E0,-4.2297995E-1,-4.9869742E0,2.7052867E0,1.4687132E0,1.0031668E0,2.6499707E-1,7.167338E-2,-6.135029E-1,-3.2571545E-1,-8.049229E-1],"categories":[0,1,2,3,5,6,7,8,10,11,12,13,16,17,19,20,21,23,24,25,26,27,28,29,30,31,32,33,36,37,39,40,41,42,44,45,46,47,48,49,50,0,1,2,3,5,6,7,8,9,10,11,12,13,14,15,16,17,18,19,20,21,22,23,24,25,26,27,28,29,30,31,32,33,34,35,36,37,38,39,40,41,42,44,45,46,47,48,49,50,0,2,6,7,8,11,13,21,25,26,28,29,30,32,33,37,39,41,44,46,50,0,1,2,3,4,5,6,7,8,9,10,11,12,13,14,15,16,17,18,19,20,21,22,23,24,25,26,27,28,29,30,31,32,33,34,35,36,37,38,39,40,41,42,44,45,46,47,48,49,50,7,46],"categories_nodes":[0,1,2,3,6],"categories_segments":[0,41,90,111,161],"categories_sizes":[41,49,21,50,2],"default_left":[1,1,1,1,0,0,1,0,0,0,0,0,0,0,0],"id":37,"left_children":[1,3,5,7,9,11,13,-1,-1,-1,-1,-1,-1,-1,-1],"loss_changes":[4.982304E4,1.9030086E4,5.7668604E3,2.3377656E3,5.137926E3,5.8118223E3,2.0124111E3,0E0,0E0,0E0,0E0,0E0,0E0,0E0,0E0],"parents":[2147483647,0,0,1,1,2,2,3,3,4,4,5,5,6,6],"right_children":[2,4,6,8,10,12,14,-1,-1,-1,-1,-1,-1,-1,-1],"split_conditions":[1E-45,1E-45,1E-45,1E-45,2.009E3,2.02E3,1E-45,2.7052867E0,1.4687132E0,1.0031668E0,2.6499707E-1,7.167338E-2,-6.135029E-1,-3.2571545E-1,-8.049229E-1],"split_indices":[0,0,0,0,1,1,0,0,0,0,0,0,0,0,0],"split_type":[1,1,1,1,0,0,1,0,0,0,0,0,0,0,0],"sum_hessian":[1.377E3,2.7E2,1.107E3,5.4E1,2.16E2,5.4E2,5.67E2,2.7E1,2.7E1,9.6E1,1.2E2,4.6E2,8E1,5.13E2,5.4E1],"tree_param":{"num_deleted":"0","num_feature":"3","num_nodes":"15","size_leaf_vector":"1"}},{"base_weights":[1.993015E-1,2.2400478E1,-1.2206495E0,2.5163848E0,1.5825672E1,5.8182716E0,-2.8529663E0,1.3875387E0,-1.34028625E-2,5.8408535E-1,-3.9902878E-1,-4.1909432E-1,-1.03794284E-1],"categories":[0,1,2,3,5,6,7,8,9,10,11,12,13,14,15,16,17,18,19,20,21,22,23,24,25,26,27,28,29,30,31,32,33,34,35,36,37,39,40,41,42,44,45,46,47,48,49,50,0,1,2,3,4,5,6,7,8,9,10,11,12,13,14,15,16,17,18,19,20,21,22,23,24,25,26,27,28,29,30,31,32,33,34,35,36,37,38,39,40,41,42,44,45,46,47,48,49,50,0,1,2,3,4,5,6,7,8,11,12,13,16,19,20,21,23,24,25,26,27,28,29,30,31,32,33,36,37,38,39,40,41,42,43,44,45,46,47,48,49,50],"categories_nodes":[0,1,2],"categories_segments":[0,48,98],"categories_sizes":[48,50,42],"default_left":[1,1,1,0,0,0,0,0,0,0,0,0,0],"id":38,"left_children":[1,3,5,-1,7,9,11,-1,-1,-1,-1,-1,-1],"loss_changes":[4.352709E4,5.023414E3,1.4946894E4,0E0,2.4039287E3,5.457666E3,4.2232812E3,0E0,0E0,0E0,0E0,0E0,0E0],"parents":[2147483647,0,0,1,1,2,2,4,4,5,5,6,6],"right_children":[2,4,6,-1,8,10,12,-1,-1,-1,-1,-1,-1],"split_conditions":[1E-45,1E-45,1E-45,2.5163848E0,2.02E3,2.02E3,1.796E3,1.3875387E0,-1.34028625E-2,5.8408535E-1,-3.9902878E-1,-4.1909432E-1,-1.03794284E-1],"split_indices":[0,0,0,0,1,1,2,0,0,0,0,0,0],"split_type":[1,1,1,0,0,0,0,0,0,0,0,0,0],"sum_hessian":[1.377E3,8.1E1,1.296E3,2.7E1,5.4E1,2.43E2,1.053E3,4.6E1,8E0,2.07E2,3.6E1,3.66E2,6.87E2],"tree_param":{"num_deleted":"0","num_feature":"3","num_nodes":"13","size_leaf_vector":"1"}},{"base_weights":[1.8950723E-1,-1.0047626E0,2.324388E1,6.454606E0,-2.4690156E0,2.3406737E0,1.6476177E1,7.9627067E-1,-1.6237348E-1,-8.989462E-2,-4.10553E-1,1.3434105E0,-4.3219045E-1],"categories":[0,1,2,3,4,5,6,7,8,9,11,12,13,16,17,19,20,21,23,24,25,26,27,28,29,30,31,32,33,36,37,39,40,41,42,43,44,45,46,47,48,49,50,0,1,2,3,4,5,6,7,8,9,10,11,12,13,14,15,16,17,18,19,20,21,22,23,24,25,26,27,28,29,30,31,32,33,34,35,36,37,38,39,40,41,42,44,45,46,47,48,49,50,6,7,8,11,13,21,26,30,37,39,41,46,34],"categories_nodes":[1,2,4,6],"categories_segments":[0,43,93,105],"categories_sizes":[43,50,12,1],"default_left":[0,1,1,0,1,0,1,0,0,0,0,0,0],"id":39,"left_children":[1,3,5,7,9,-1,11,-1,-1,-1,-1,-1,-1],"loss_changes":[3.801491E4,1.4372989E4,2.6371602E3,7.795534E3,4.1824697E3,0E0,1.5157295E3,0E0,0E0,0E0,0E0,0E0,0E0],"parents":[2147483647,0,0,1,1,2,2,3,3,4,4,6,6],"right_children":[2,4,6,8,10,-1,12,-1,-1,-1,-1,-1,-1],"split_conditions":[1.974E4,1E-45,1E-45,2.015E3,1E-45,2.3406737E0,1E-45,7.9627067E-1,-1.6237348E-1,-8.989462E-2,-4.10553E-1,1.3434105E0,-4.3219045E-1],"split_indices":[2,0,0,1,0,0,0,0,0,0,0,0,0],"split_type":[0,1,1,0,1,0,1,0,0,0,0,0,0],"sum_hessian":[1.377E3,1.311E3,6.6E1,2.14E2,1.097E3,2.7E1,3.9E1,1.44E2,7E1,7.73E2,3.24E2,3.7E1,2E0],"tree_param":{"num_deleted":"0","num_feature":"3","num_nodes":"13","size_leaf_vector":"1"}},{"base_weights":[1.8020439E-1,1.4959941E1,-1.4477572E0,7.6545634E0,2.25868E1,2.2055588E0,-3.2165344E0,9.023905E-1,-3.86137E-1,2.1772285E0,1.2478215E0,5.146774E-1,-1.1606435E-1,-2.0035839E-1,-6.0878044E-1],"categories":[0,1,2,3,5,6,7,8,10,11,12,13,14,15,16,17,18,19,20,21,22,23,24,25,26,27,28,29,30,31,32,33,34,36,37,39,40,41,42,44,45,46,47,48,49,50,0,2,3,5,6,7,8,11,12,13,16,19,20,21,23,25,26,28,29,30,32,33,36,37,39,40,41,44,46,47,50,0,1,2,3,4,5,6,7,8,9,10,11,12,13,14,15,16,17,18,19,20,21,22,23,24,25,26,27,28,29,30,31,32,33,34,35,36,37,38,39,40,41,42,44,45,46,47,48,49,50,7,39,46],"categories_nodes":[0,2,4,6],"categories_segments":[0,46,77,127],"categories_sizes":[46,31,50,3],"default_left":[1,0,1,0,1,0,1,0,0,0,0,0,0,0,0],"id":40,"left_children":[1,3,5,7,9,11,13,-1,-1,-1,-1,-1,-1,-1,-1],"loss_changes":[3.322322E4,7.287459E3,8.0527954E3,4.2150264E3,1.5638086E3,7.1345337E3,2.197794E3,0E0,0E0,0E0,0E0,0E0,0E0,0E0,0E0],"parents":[2147483647,0,0,1,1,2,2,3,3,4,4,5,5,6,6],"right_children":[2,4,6,8,10,12,14,-1,-1,-1,-1,-1,-1,-1,-1],"split_conditions":[1E-45,1.9636E4,1E-45,2.015E3,1E-45,2.009E3,1E-45,9.023905E-1,-3.86137E-1,2.1772285E0,1.2478215E0,5.146774E-1,-1.1606435E-1,-2.0035839E-1,-6.0878044E-1],"split_indices":[0,2,0,1,0,1,0,0,0,0,0,0,0,0,0],"split_type":[1,0,1,0,1,0,1,0,0,0,0,0,0,0,0],"sum_hessian":[1.377E3,1.35E2,1.242E3,7.1E1,6.4E1,4.05E2,8.37E2,5.3E1,1.8E1,2.7E1,3.7E1,1.8E2,2.25E2,7.56E2,8.1E1],"tree_param":{"num_deleted":"0","num_feature":"3","num_nodes":"15","size_leaf_vector":"1"}},{"base_weights":[1.7180833E-1,1.1588349E1,-1.6608832E0,6.5165453E0,2.0996567E1,9.631659E-1,-3.311177E0,8.2771903E-1,-4.8715326E-1,2.1292245E0,1.2007186E0,1.5623987E-1,-4.0144008E-1,-2.149855E-1,-6.426805E-1],"categories":[0,1,2,3,5,6,7,8,10,11,12,13,16,17,18,19,20,21,22,23,24,25,26,27,28,29,30,31,32,33,34,36,37,39,40,41,42,44,45,46,47,48,49,50,0,2,6,7,8,11,12,13,16,19,20,21,25,26,28,29,30,32,33,37,39,40,41,44,46,47,50,7,46],"categories_nodes":[0,2,6],"categories_segments":[0,44,71],"categories_sizes":[44,27,2],"default_left":[1,0,1,0,0,0,1,0,0,0,0,0,0,0,0],"id":41,"left_children":[1,3,5,7,9,11,13,-1,-1,-1,-1,-1,-1,-1,-1],"loss_changes":[2.8891309E4,8.840227E3,5.159617E3,7.61225E3,1.5243555E3,3.283317E3,1.660103E3,0E0,0E0,0E0,0E0,0E0,0E0,0E0,0E0],"parents":[2147483647,0,0,1,1,2,2,3,3,4,4,5,5,6,6],"right_children":[2,4,6,8,10,12,14,-1,-1,-1,-1,-1,-1,-1,-1],"split_conditions":[1E-45,1.9636E4,1E-45,2.016E3,2.008E3,2.02E3,1E-45,8.2771903E-1,-4.8715326E-1,2.1292245E0,1.2007186E0,1.5623987E-1,-4.0144008E-1,-2.149855E-1,-6.426805E-1],"split_indices":[0,2,0,1,1,1,0,0,0,0,0,0,0,0,0],"split_type":[1,0,1,0,0,0,1,0,0,0,0,0,0,0,0],"sum_hessian":[1.377E3,1.89E2,1.188E3,1.25E2,6.4E1,4.59E2,7.29E2,9.3E1,3.2E1,2.2E1,4.2E1,3.91E2,6.8E1,6.75E2,5.4E1],"tree_param":{"num_deleted":"0","num_feature":"3","num_nodes":"15","size_leaf_vector":"1"}},{"base_weights":[1.626477E-1,1.7022839E1,-9.157199E-1,2.5532509E1,1.2008087E1,3.299181E0,-2.484916E0,2.5308878E0,1.4392537E0,1.3853344E0,4.504773E-1,3.5122088E-1,-3.4021595E-1,-5.6375526E-2,-2.8975463E-1],"categories":[0,1,2,3,5,6,7,8,9,10,11,12,13,14,15,16,17,18,19,20,21,22,23,24,25,26,27,28,29,30,31,32,33,34,35,36,37,39,40,41,42,44,45,46,47,48,49,50,0,1,2,3,4,5,6,7,8,9,10,11,12,13,14,15,16,17,18,19,20,21,22,23,24,25,26,27,28,29,30,31,32,33,34,35,36,37,38,39,40,41,42,44,45,46,47,48,49,50,0,2,3,4,5,6,7,8,11,12,13,16,19,20,21,23,25,26,28,29,30,31,32,33,36,37,38,39,40,41,42,43,44,46,47,48,49,50],"categories_nodes":[0,1,2],"categories_segments":[0,48,98],"categories_sizes":[48,50,38],"default_left":[1,1,1,0,0,0,0,0,0,0,0,0,0,0,0],"id":42,"left_children":[1,3,5,7,9,11,13,-1,-1,-1,-1,-1,-1,-1,-1],"loss_changes":[2.5103441E4,2.9287383E3,8.601376E3,2.1542383E2,1.9503159E3,3.8698298E3,2.2568003E3,0E0,0E0,0E0,0E0,0E0,0E0,0E0,0E0],"parents":[2147483647,0,0,1,1,2,2,3,3,4,4,5,5,6,6],"right_children":[2,4,6,8,10,12,14,-1,-1,-1,-1,-1,-1,-1,-1],"split_conditions":[1E-45,1E-45,1E-45,2.005E3,2.009E3,2.02E3,2.009E3,2.5308878E0,1.4392537E0,1.3853344E0,4.504773E-1,3.5122088E-1,-3.4021595E-1,-5.6375526E-2,-2.8975463E-1],"split_indices":[0,0,0,1,1,1,1,0,0,0,0,0,0,0,0],"split_type":[1,1,1,0,0,0,0,0,0,0,0,0,0,0,0],"sum_hessian":[1.377E3,8.1E1,1.296E3,2.7E1,5.4E1,3.51E2,9.45E2,8E0,1.9E1,2.4E1,3E1,2.99E2,5.2E1,4.2E2,5.25E2],"tree_param":{"num_deleted":"0","num_feature":"3","num_nodes":"15","size_leaf_vector":"1"}},{"base_weights":[1.5838246E-1,1.0122975E1,-1.4412427E0,5.643377E0,1.843605E1,5.718691E-1,-3.1154335E0,7.308148E-1,-4.6100715E-1,1.7918524E0,1.0075574E0,1.0928536E-1,-3.3223608E-1,-1.9194251E-1,-5.140012E-1],"categories":[0,1,2,3,5,6,7,8,10,11,12,13,16,17,18,19,20,21,22,23,24,25,26,27,28,29,30,31,32,33,34,36,37,39,40,41,42,44,45,46,47,48,49,50,0,2,6,7,8,11,13,16,19,20,21,25,26,28,29,30,32,33,37,39,41,44,46,50,0,1,2,3,4,5,6,7,8,9,10,11,12,13,14,15,16,17,18,19,20,21,22,23,24,25,26,27,28,29,30,31,32,33,34,35,36,37,38,39,40,41,42,44,45,46,47,48,49,50,7,39,46],"categories_nodes":[0,2,4,6],"categories_segments":[0,44,68,118],"categories_sizes":[44,24,50,3],"default_left":[1,0,1,0,1,0,1,0,0,0,0,0,0,0,0],"id":43,"left_children":[1,3,5,7,9,11,13,-1,-1,-1,-1,-1,-1,-1,-1],"loss_changes":[2.2009904E4,6.9046113E3,4.0142598E3,6.2601436E3,1.159041E3,2.4127966E3,1.3162905E3,0E0,0E0,0E0,0E0,0E0,0E0,0E0,0E0],"parents":[2147483647,0,0,1,1,2,2,3,3,4,4,5,5,6,6],"right_children":[2,4,6,8,10,12,14,-1,-1,-1,-1,-1,-1,-1,-1],"split_conditions":[1E-45,1.9636E4,1E-45,2.016E3,1E-45,2.02E3,1E-45,7.308148E-1,-4.6100715E-1,1.7918524E0,1.0075574E0,1.0928536E-1,-3.3223608E-1,-1.9194251E-1,-5.140012E-1],"split_indices":[0,2,0,1,0,1,0,0,0,0,0,0,0,0,0],"split_type":[1,0,1,0,1,0,1,0,0,0,0,0,0,0,0],"sum_hessian":[1.377E3,1.89E2,1.188E3,1.25E2,6.4E1,5.4E2,6.48E2,9.3E1,3.2E1,2.7E1,3.7E1,4.6E2,8E1,5.67E2,8.1E1],"tree_param":{"num_deleted":"0","num_feature":"3","num_nodes":"15","size_leaf_vector":"1"}},{"base_weights":[1.496078E-1,7.2311993E0,-1.8075964E0,4.5810857E0,1.7013176E1,-7.1090525E-1,-3.9849331E0,6.1715007E-1,-3.971761E-2,-1.9618149E-1,1.3306882E0,1.4183857E-1,-2.1290174E-1,-9.507986E-2,-4.9937585E-1],"categories":[0,1,2,3,5,6,7,8,11,12,13,16,17,19,20,21,23,24,25,26,27,28,29,30,31,32,33,36,37,39,40,41,42,44,45,46,47,48,49,50,0,2,3,5,6,7,8,11,12,13,21,25,26,28,29,30,33,37,39,41,46,47,0,1,6,7,8,16,17,19,20,21,26,30,31,32,39,40,42,46,49,50],"categories_nodes":[0,5,6],"categories_segments":[0,40,62],"categories_sizes":[40,22,20],"default_left":[1,0,0,0,0,1,1,0,0,0,0,0,0,0,0],"id":44,"left_children":[1,3,5,7,9,11,13,-1,-1,-1,-1,-1,-1,-1,-1],"loss_changes":[1.913925E4,7.595204E3,2.5780051E3,4.445398E3,9.947285E2,4.0082185E3,2.6127573E3,0E0,0E0,0E0,0E0,0E0,0E0,0E0,0E0],"parents":[2147483647,0,0,1,1,2,2,3,3,4,4,5,5,6,6],"right_children":[2,4,6,8,10,12,14,-1,-1,-1,-1,-1,-1,-1,-1],"split_conditions":[1E-45,2.0219E4,2.015E3,2.012E3,1.999E3,1E-45,1E-45,6.1715007E-1,-3.971761E-2,-1.9618149E-1,1.3306882E0,1.4183857E-1,-2.1290174E-1,-9.507986E-2,-4.9937585E-1],"split_indices":[0,2,1,1,1,0,0,0,0,0,0,0,0,0,0],"split_type":[1,0,0,0,0,1,1,0,0,0,0,0,0,0,0],"sum_hessian":[1.377E3,2.97E2,1.08E3,2.36E2,6.1E1,7.2E2,3.6E2,1.37E2,9.9E1,2E0,5.9E1,3.24E2,3.96E2,1.8E2,1.8E2],"tree_param":{"num_deleted":"0","num_feature":"3","num_nodes":"15","size_leaf_vector":"1"}},{"base_weights":[1.3990359E-1,1.393495E1,-7.4242973E-1,2.0681032E1,8.655293E0,3.5781558E0,-1.744381E0,6.825806E-1,1.7992048E0,1.4750238E-2,1.071095E0,3.7224758E-1,-3.171349E-1,-1.3554822E-2,-2.2428174E-1],"categories":[0,1,2,3,5,6,7,8,9,10,11,12,13,14,15,16,17,18,19,20,21,22,23,24,25,26,27,28,29,30,31,32,33,34,35,36,37,39,40,41,42,44,45,46,47,48,49,50,0,1,2,3,4,5,6,7,8,11,12,13,16,19,20,21,23,24,25,26,27,28,29,30,31,32,33,36,37,38,39,40,41,42,43,44,45,46,47,48,49,50],"categories_nodes":[0,2],"categories_segments":[0,48],"categories_sizes":[48,42],"default_left":[1,0,1,0,0,0,0,0,0,0,0,0,0,0,0],"id":45,"left_children":[1,3,5,7,9,11,13,-1,-1,-1,-1,-1,-1,-1,-1],"loss_changes":[1.6805645E4,2.59821E3,5.631546E3,9.042158E2,2.3737812E3,2.6912332E3,2.0544539E3,0E0,0E0,0E0,0E0,0E0,0E0,0E0,0E0],"parents":[2147483647,0,0,1,1,2,2,3,3,4,4,5,5,6,6],"right_children":[2,4,6,8,10,12,14,-1,-1,-1,-1,-1,-1,-1,-1],"split_conditions":[1E-45,2.008E3,1E-45,2E3,2.6084E4,2.02E3,2.009E3,6.825806E-1,1.7992048E0,1.4750238E-2,1.071095E0,3.7224758E-1,-3.171349E-1,-1.3554822E-2,-2.2428174E-1],"split_indices":[0,1,0,1,2,1,1,0,0,0,0,0,0,0,0],"split_type":[1,0,1,0,0,0,0,0,0,0,0,0,0,0,0],"sum_hessian":[1.377E3,8.1E1,1.296E3,3.3E1,4.8E1,2.43E2,1.053E3,9E0,2.4E1,2E1,2.8E1,2.07E2,3.6E1,4.68E2,5.85E2],"tree_param":{"num_deleted":"0","num_feature":"3","num_nodes":"15","size_leaf_vector":"1"}},{"base_weights":[1.3431928E-1,1.119527E1,-8.2317334E-1,1.8996925E1,5.4185004E0,1.8094074E0,-2.0585244E0,7.267177E-1,1.6283926E0,-8.057758E-2,9.9611753E-1,3.707186E-1,-5.3914633E-2,-1.02071E-1,-3.3821517E-1],"categories":[0,1,2,3,5,6,7,8,9,10,11,12,13,14,15,16,17,18,19,20,21,22,23,24,25,26,27,28,29,30,31,32,33,34,36,37,39,40,41,42,44,45,46,47,48,49,50,0,2,3,5,6,7,8,11,12,13,16,19,20,21,23,25,26,28,29,30,32,33,36,37,39,40,41,44,46,47,48,50,7,8,13,30,39,41,46],"categories_nodes":[0,2,6],"categories_segments":[0,47,79],"categories_sizes":[47,32,7],"default_left":[1,0,1,0,0,0,1,0,0,0,0,0,0,0,0],"id":46,"left_children":[1,3,5,7,9,11,13,-1,-1,-1,-1,-1,-1,-1,-1],"loss_changes":[1.4623113E4,4.7516514E3,4.1409463E3,7.4162695E2,3.3980928E3,3.231503E3,1.468387E3,0E0,0E0,0E0,0E0,0E0,0E0,0E0,0E0],"parents":[2147483647,0,0,1,1,2,2,3,3,4,4,5,5,6,6],"right_children":[2,4,6,8,10,12,14,-1,-1,-1,-1,-1,-1,-1,-1],"split_conditions":[1E-45,2.008E3,1E-45,2E3,2.6084E4,2.009E3,1E-45,7.267177E-1,1.6283926E0,-8.057758E-2,9.9611753E-1,3.707186E-1,-5.3914633E-2,-1.02071E-1,-3.3821517E-1],"split_indices":[0,1,0,1,2,1,0,0,0,0,0,0,0,0,0],"split_type":[1,0,1,0,0,0,1,0,0,0,0,0,0,0,0],"sum_hessian":[1.377E3,1.08E2,1.269E3,4.4E1,6.4E1,4.05E2,8.64E2,1.2E1,3.2E1,3.6E1,2.8E1,1.8E2,2.25E2,6.75E2,1.89E2],"tree_param":{"num_deleted":"0","num_feature":"3","num_nodes":"15","size_leaf_vector":"1"}},{"base_weights":[1.2881057E-1,1.2109509E1,-6.37488E-1,1.9095709E1,8.059173E0,3.4359982E0,-1.4570305E0,2.0421402E0,1.0053223E0,7.546535E-1,-2.3748414E-1,3.4387958E-1,-2.289126E-1,-4.327351E-2,-2.6479384E-1],"categories":[0,1,2,3,5,6,7,8,9,10,11,12,13,14,15,16,17,18,19,20,21,22,23,24,25,26,27,28,29,30,31,32,33,34,35,36,37,39,40,41,42,44,45,46,47,48,49,50,0,1,2,3,4,5,6,7,8,9,10,11,12,13,14,15,16,17,18,19,20,21,22,23,24,25,26,27,28,29,30,31,32,33,34,35,36,37,38,39,40,41,42,44,45,46,47,48,49,50,0,1,2,3,4,5,6,7,8,11,12,13,16,17,19,20,21,23,24,25,26,27,28,29,30,31,32,33,36,37,38,39,40,41,42,43,44,45,46,47,48,49,50],"categories_nodes":[0,1,2],"categories_segments":[0,48,98],"categories_sizes":[48,50,43],"default_left":[1,1,1,0,0,0,0,0,0,0,0,0,0,0,0],"id":47,"left_children":[1,3,5,7,9,11,13,-1,-1,-1,-1,-1,-1,-1,-1],"loss_changes":[1.2675751E4,2.0408154E3,4.3432505E3,6.123721E2,1.3227988E3,1.6532461E3,1.9703943E3,0E0,0E0,0E0,0E0,0E0,0E0,0E0,0E0],"parents":[2147483647,0,0,1,1,2,2,3,3,4,4,5,5,6,6],"right_children":[2,4,6,8,10,12,14,-1,-1,-1,-1,-1,-1,-1,-1],"split_conditions":[1E-45,1E-45,1E-45,2.005E3,2.02E3,2.02E3,2.016E3,2.0421402E0,1.0053223E0,7.546535E-1,-2.3748414E-1,3.4387958E-1,-2.289126E-1,-4.327351E-2,-2.6479384E-1],"split_indices":[0,0,0,1,1,1,1,0,0,0,0,0,0,0,0],"split_type":[1,1,1,0,0,0,0,0,0,0,0,0,0,0,0],"sum_hessian":[1.377E3,8.1E1,1.296E3,2.7E1,5.4E1,2.16E2,1.08E3,8E0,1.9E1,4.6E1,8E0,1.84E2,3.2E1,7.6E2,3.2E2],"tree_param":{"num_deleted":"0","num_feature":"3","num_nodes":"15","size_leaf_vector":"1"}},{"base_weights":[1.2404143E-1,-5.239088E-1,1.263155E1,3.7540798E0,-1.3637612E0,1.6878786E1,6.4733133E0,5.379979E-1,-5.0204657E-2,-4.1445725E-2,-2.5276306E-1,1.9196132E0,9.733652E-1,6.952535E-1,-2.9136044E-1],"categories":[0,1,2,3,4,5,6,7,8,9,11,12,13,16,17,19,20,21,23,24,25,26,27,28,29,30,31,32,33,36,37,39,40,41,42,43,44,45,46,47,48,49,50,0,1,2,3,4,5,6,7,8,10,11,12,13,14,15,16,17,18,19,20,21,22,23,24,25,26,27,28,29,30,31,32,33,34,35,36,37,38,39,40,41,42,44,45,46,47,48,49,50,6,7,8,9,11,13,21,30,37,39,41,46],"categories_nodes":[1,2,4],"categories_segments":[0,43,92],"categories_sizes":[43,49,12],"default_left":[0,1,1,0,1,0,0,0,0,0,0,0,0,0,0],"id":48,"left_children":[1,3,5,7,9,11,13,-1,-1,-1,-1,-1,-1,-1,-1],"loss_changes":[1.1188986E4,4.7276895E3,1.5600498E3,3.2765728E3,1.7849027E3,6.6156055E2,9.700603E2,0E0,0E0,0E0,0E0,0E0,0E0,0E0,0E0],"parents":[2147483647,0,0,1,1,2,2,3,3,4,4,5,5,6,6],"right_children":[2,4,6,8,10,12,14,-1,-1,-1,-1,-1,-1,-1,-1],"split_conditions":[1.974E4,1E-45,1E-45,2.012E3,1E-45,2.005E3,2.02E3,5.379979E-1,-5.0204657E-2,-4.1445725E-2,-2.5276306E-1,1.9196132E0,9.733652E-1,6.952535E-1,-2.9136044E-1],"split_indices":[2,0,0,1,0,1,1,0,0,0,0,0,0,0,0],"split_type":[0,1,1,0,1,0,0,0,0,0,0,0,0,0,0],"sum_hessian":[1.377E3,1.311E3,6.6E1,2.14E2,1.097E3,3.7E1,2.9E1,1.2E2,9.4E1,7.83E2,3.14E2,8E0,2.9E1,2.3E1,6E0],"tree_param":{"num_deleted":"0","num_feature":"3","num_nodes":"15","size_leaf_vector":"1"}},{"base_weights":[1.1979938E-1,-4.6141243E-1,1.2275316E1,3.5248325E0,-1.2578225E0,1.5804752E1,7.0473747E0,5.824417E-1,-6.9205335E-4,-3.4937363E-2,-2.3763731E-1,1.8583633E0,9.268642E-1,8.383553E-1,1.7204447E-1],"categories":[0,1,2,3,4,5,6,7,8,9,11,12,13,16,17,19,20,21,23,24,25,26,27,28,29,30,31,32,33,36,37,39,40,41,42,44,45,46,47,48,49,50,0,1,2,3,4,5,6,7,8,10,11,12,13,14,15,16,17,18,19,20,21,22,23,24,25,26,27,28,29,30,31,32,33,34,35,36,37,38,39,40,41,42,44,45,46,47,48,49,50],"categories_nodes":[1,2],"categories_segments":[0,42],"categories_sizes":[42,49],"default_left":[0,1,1,0,0,0,0,0,0,0,0,0,0,0,0],"id":49,"left_children":[1,3,5,7,9,11,13,-1,-1,-1,-1,-1,-1,-1,-1],"loss_changes":[9.753867E3,4.1931025E3,9.396924E2,3.2975352E3,1.6616091E3,5.009619E2,5.1813306E2,0E0,0E0,0E0,0E0,0E0,0E0,0E0,0E0],"parents":[2147483647,0,0,1,1,2,2,3,3,4,4,5,5,6,6],"right_children":[2,4,6,8,10,12,14,-1,-1,-1,-1,-1,-1,-1,-1],"split_conditions":[2.0219E4,1E-45,1E-45,2.009E3,2.016E3,2.005E3,2.01E3,5.824417E-1,-6.9205335E-4,-3.4937363E-2,-2.3763731E-1,1.8583633E0,9.268642E-1,8.383553E-1,1.7204447E-1],"split_indices":[2,0,0,1,1,1,1,0,0,0,0,0,0,0,0],"split_type":[0,1,1,0,0,0,0,0,0,0,0,0,0,0,0],"sum_hessian":[1.377E3,1.316E3,6.1E1,2.18E2,1.098E3,3.4E1,2.7E1,9.8E1,1.2E2,7.78E2,3.2E2,6E0,2.8E1,1.3E1,1.4E1],"tree_param":{"num_deleted":"0","num_feature":"3","num_nodes":"15","size_leaf_vector":"1"}},{"base_weights":[1.1676716E-1,8.632842E0,-6.2044907E-1,1.518261E1,3.8062513E0,8.7266165E-1,-2.0496292E0,5.0968945E-1,1.3307164E0,-1.2850168E-1,7.908003E-1,1.22382745E-1,-2.5755447E-1,-1.2477282E-1,-4.5633617E-1],"categories":[0,1,2,3,5,6,7,8,9,10,11,12,13,14,15,16,17,18,19,20,21,22,23,24,25,26,27,28,29,30,31,32,33,34,36,37,39,40,41,42,44,45,46,47,48,49,50,0,2,6,7,8,11,13,16,19,20,21,25,26,28,29,30,32,33,37,39,41,44,46,50,7,46],"categories_nodes":[0,2,6],"categories_segments":[0,47,71],"categories_sizes":[47,24,2],"default_left":[1,0,1,0,0,0,1,0,0,0,0,0,0,0,0],"id":50,"left_children":[1,3,5,7,9,11,13,-1,-1,-1,-1,-1,-1,-1,-1],"loss_changes":[8.668335E3,3.3618564E3,2.715795E3,7.465742E2,2.4906543E3,2.0479604E3,9.920781E2,0E0,0E0,0E0,0E0,0E0,0E0,0E0,0E0],"parents":[2147483647,0,0,1,1,2,2,3,3,4,4,5,5,6,6],"right_children":[2,4,6,8,10,12,14,-1,-1,-1,-1,-1,-1,-1,-1],"split_conditions":[1E-45,2.008E3,1E-45,2E3,2.6084E4,2.02E3,1E-45,5.0968945E-1,1.3307164E0,-1.2850168E-1,7.908003E-1,1.22382745E-1,-2.5755447E-1,-1.2477282E-1,-4.5633617E-1],"split_indices":[0,1,0,1,2,1,0,0,0,0,0,0,0,0,0],"split_type":[1,0,1,0,0,0,1,0,0,0,0,0,0,0,0],"sum_hessian":[1.377E3,1.08E2,1.269E3,4.4E1,6.4E1,6.21E2,6.48E2,1.2E1,3.2E1,3.6E1,2.8E1,5.29E2,9.2E1,5.94E2,5.4E1],"tree_param":{"num_deleted":"0","num_feature":"3","num_nodes":"15","size_leaf_vector":"1"}},{"base_weights":[1.1060108E-1,5.941566E0,-8.254792E-1,1.4945201E1,4.277002E0,-2.6961746E0,1.198061E-2,1.650705E0,7.618459E-1,4.5051435E-1,-4.0249562E-1,-1.429119E-1,-4.4203714E-1,1.3718152E-1,-1.0438829E-1],"categories":[0,1,2,3,5,6,7,8,10,11,12,13,16,17,18,19,20,21,22,23,24,25,26,27,28,29,30,31,32,33,34,36,37,39,40,41,42,44,45,46,47,48,49,50,0,1,2,3,4,5,6,7,8,9,10,11,12,13,14,15,16,17,18,19,20,21,22,23,24,25,26,27,28,29,30,31,32,33,34,35,36,37,38,39,40,41,42,44,45,46,47,48,49,50,7,29,46,49],"categories_nodes":[0,1,5],"categories_segments":[0,44,94],"categories_sizes":[44,50,4],"default_left":[1,1,0,0,0,1,0,0,0,0,0,0,0,0,0],"id":51,"left_children":[1,3,5,7,9,11,13,-1,-1,-1,-1,-1,-1,-1,-1],"loss_changes":[7.536738E3,2.7347002E3,1.8643567E3,5.3358496E2,2.8003308E3,9.0796387E2,2.1070317E3,0E0,0E0,0E0,0E0,0E0,0E0,0E0,0E0],"parents":[2147483647,0,0,1,1,2,2,3,3,4,4,5,5,6,6],"right_children":[2,4,6,8,10,12,14,-1,-1,-1,-1,-1,-1,-1,-1],"split_conditions":[1E-45,1E-45,1.796E3,2.005E3,2.02E3,1E-45,2.009E3,1.650705E0,7.618459E-1,4.5051435E-1,-4.0249562E-1,-1.429119E-1,-4.4203714E-1,1.3718152E-1,-1.0438829E-1],"split_indices":[0,0,2,1,1,0,1,0,0,0,0,0,0,0,0],"split_type":[1,1,0,0,0,1,0,0,0,0,0,0,0,0,0],"sum_hessian":[1.377E3,1.89E2,1.188E3,2.7E1,1.62E2,3.66E2,8.22E2,8E0,1.9E1,1.38E2,2.4E1,2.96E2,7E1,3.58E2,4.64E2],"tree_param":{"num_deleted":"0","num_feature":"3","num_nodes":"15","size_leaf_vector":"1"}},{"base_weights":[1.0507341E-1,-3.7915453E-1,1.0232094E1,1.978864E0,-1.3386478E0,1.6331873E1,7.2677455E0,2.8704673E-1,-1.8252772E-1,-5.6694698E-2,-2.299187E-1,1.5938256E0,8.0940896E-1,-6.4814633E-1,7.222133E-1],"categories":[0,2,3,4,5,6,7,8,9,11,12,13,16,19,20,21,23,25,26,28,29,30,32,33,36,37,39,40,41,42,44,46,47,48,49,50,6,7,8,9,13,30,39,41,46],"categories_nodes":[1,4],"categories_segments":[0,36],"categories_sizes":[36,9],"default_left":[0,1,0,0,1,0,0,0,0,0,0,0,0,0,0],"id":52,"left_children":[1,3,5,7,9,11,13,-1,-1,-1,-1,-1,-1,-1,-1],"loss_changes":[6.77008E3,2.9872769E3,9.017661E2,3.1343364E3,9.3929065E2,5.9078125E1,1.8948843E3,0E0,0E0,0E0,0E0,0E0,0E0,0E0,0E0],"parents":[2147483647,0,0,1,1,2,2,3,3,4,4,5,5,6,6],"right_children":[2,4,6,8,10,12,14,-1,-1,-1,-1,-1,-1,-1,-1],"split_conditions":[2.0219E4,1E-45,2.3832E4,2.016E3,1E-45,2.005E3,2.6084E4,2.8704673E-1,-1.8252772E-1,-5.6694698E-2,-2.299187E-1,1.5938256E0,8.0940896E-1,-6.4814633E-1,7.222133E-1],"split_indices":[2,0,2,1,0,1,2,0,0,0,0,0,0,0,0],"split_type":[0,1,0,0,1,0,0,0,0,0,0,0,0,0,0],"sum_hessian":[1.377E3,1.316E3,6.1E1,3.8E2,9.36E2,1.7E1,4.4E1,2.68E2,1.12E2,7.02E2,2.34E2,6E0,1.1E1,5E0,3.9E1],"tree_param":{"num_deleted":"0","num_feature":"3","num_nodes":"15","size_leaf_vector":"1"}},{"base_weights":[1.00521185E-1,8.2955E0,-4.2365777E-1,1.2749504E1,4.845877E0,1.2044977E0,-1.4011116E0,2.903978E-1,1.164349E0,-1.8790883E-1,6.104711E-1,2.750799E-1,-5.8392655E-2,-8.488452E-2,-3.747365E-1],"categories":[0,1,2,3,5,6,7,8,9,10,11,12,13,14,15,16,17,18,19,20,21,22,23,24,25,26,27,28,29,30,31,32,33,34,35,36,37,39,40,41,42,44,45,46,47,48,49,50,0,2,3,5,6,7,8,11,12,13,16,19,20,21,23,25,26,28,29,30,32,33,37,39,40,41,44,46,47,50,7,46],"categories_nodes":[0,2,6],"categories_segments":[0,48,78],"categories_sizes":[48,30,2],"default_left":[1,0,1,0,0,0,1,0,0,0,0,0,0,0,0],"id":53,"left_children":[1,3,5,7,9,11,13,-1,-1,-1,-1,-1,-1,-1,-1],"loss_changes":[5.9307104E3,1.1516992E3,2.0690732E3,7.420547E2,1.2514541E3,2.3894724E3,7.749496E2,0E0,0E0,0E0,0E0,0E0,0E0,0E0,0E0],"parents":[2147483647,0,0,1,1,2,2,3,3,4,4,5,5,6,6],"right_children":[2,4,6,8,10,12,14,-1,-1,-1,-1,-1,-1,-1,-1],"split_conditions":[1E-45,2.008E3,1E-45,2E3,2.013E3,2.009E3,1E-45,2.903978E-1,1.164349E0,-1.8790883E-1,6.104711E-1,2.750799E-1,-5.8392655E-2,-8.488452E-2,-3.747365E-1],"split_indices":[0,1,0,1,1,1,0,0,0,0,0,0,0,0,0],"split_type":[1,0,1,0,0,0,1,0,0,0,0,0,0,0,0],"sum_hessian":[1.377E3,8.1E1,1.296E3,3.3E1,4.8E1,4.86E2,8.1E2,9E0,2.4E1,1.5E1,3.3E1,2.16E2,2.7E2,7.56E2,5.4E1],"tree_param":{"num_deleted":"0","num_feature":"3","num_nodes":"15","size_leaf_vector":"1"}},{"base_weights":[9.535257E-2,-3.5111326E-1,8.713278E0,1.9948687E-1,-3.567893E0,1.2492649E1,3.3964386E0,2.1287508E-1,-7.3349446E-2,-9.968741E-2,-6.9298935E-1,1.425438E0,7.1892315E-1,4.229549E-1,-3.34644E-1],"categories":[0,1,2,3,4,5,6,7,8,10,11,12,13,14,15,16,17,18,19,20,21,22,23,24,25,26,27,28,29,30,31,32,33,34,35,36,37,38,39,40,41,42,44,45,46,47,48,49,50,0,2,3,4,5,6,7,8,9,11,12,13,16,18,21,23,24,25,26,28,29,30,32,33,36,37,39,40,41,43,44,45,46,47,48,50,7,10,14,15,17,19,20,31,32,35,42,49,50],"categories_nodes":[2,3,4],"categories_segments":[0,49,85],"categories_sizes":[49,36,13],"default_left":[0,0,1,1,1,0,0,0,0,0,0,0,0,0,0],"id":54,"left_children":[1,3,5,7,9,11,13,-1,-1,-1,-1,-1,-1,-1,-1],"loss_changes":[5.311972E3,2.3269556E3,1.2815518E3,3.4949248E3,2.4134502E3,3.7405566E2,5.9673047E2,0E0,0E0,0E0,0E0,0E0,0E0,0E0,0E0],"parents":[2147483647,0,0,1,1,2,2,3,3,4,4,5,5,6,6],"right_children":[2,4,6,8,10,12,14,-1,-1,-1,-1,-1,-1,-1,-1],"split_conditions":[1.974E4,2.02E3,1E-45,1E-45,1E-45,2.005E3,2.02E3,2.1287508E-1,-7.3349446E-2,-9.968741E-2,-6.9298935E-1,1.425438E0,7.1892315E-1,4.229549E-1,-3.34644E-1],"split_indices":[2,1,0,0,0,1,1,0,0,0,0,0,0,0,0],"split_type":[0,0,1,1,1,0,0,0,0,0,0,0,0,0,0],"sum_hessian":[1.377E3,1.311E3,6.6E1,1.121E3,1.9E2,3.7E1,2.9E1,3.45E2,7.76E2,1.38E2,5.2E1,8E0,2.9E1,2.3E1,6E0],"tree_param":{"num_deleted":"0","num_feature":"3","num_nodes":"15","size_leaf_vector":"1"}},{"base_weights":[9.049192E-2,4.3569684E0,-7.0939875E-1,1.1983575E1,3.1533792E0,5.593823E-1,-1.7230152E0,5.056427E-1,1.3048236E0,3.0934846E-1,-1.7505479E-1,3.0632013E-1,-1.317514E-1,1.6878916E-2,-2.8142938E-1],"categories":[0,1,2,3,5,6,7,8,10,11,12,13,16,17,19,20,21,22,23,24,25,26,27,28,29,30,31,32,33,34,36,37,39,40,41,42,44,45,46,47,48,49,50,0,1,2,3,4,5,6,7,8,9,10,11,12,13,14,15,16,17,18,19,20,21,22,23,24,25,26,27,28,29,30,31,32,33,34,35,36,37,38,39,40,41,42,44,45,46,47,48,49,50,2,3,4,5,6,7,8,9,11,12,13,14,15,18,23,24,25,26,28,29,30,33,35,36,37,38,39,41,43,44,46,47,48,50,0,1,6,7,8,16,19,20,21,26,30,31,32,33,34,37,39,40,42,46,49],"categories_nodes":[0,1,5,6],"categories_segments":[0,43,93,127],"categories_sizes":[43,50,34,21],"default_left":[1,1,0,0,0,1,1,0,0,0,0,0,0,0,0],"id":55,"left_children":[1,3,5,7,9,11,13,-1,-1,-1,-1,-1,-1,-1,-1],"loss_changes":[4.712315E3,1.9255103E3,1.497612E3,5.883989E2,1.0372407E3,4.2432363E3,2.5595146E3,0E0,0E0,0E0,0E0,0E0,0E0,0E0,0E0],"parents":[2147483647,0,0,1,1,2,2,3,3,4,4,5,5,6,6],"right_children":[2,4,6,8,10,12,14,-1,-1,-1,-1,-1,-1,-1,-1],"split_conditions":[1E-45,1E-45,2.009E3,2.013E3,2.02E3,1E-45,1E-45,5.056427E-1,1.3048236E0,3.0934846E-1,-1.7505479E-1,3.0632013E-1,-1.317514E-1,1.6878916E-2,-2.8142938E-1],"split_indices":[0,0,1,1,1,0,0,0,0,0,0,0,0,0,0],"split_type":[1,1,0,0,0,1,1,0,0,0,0,0,0,0,0],"sum_hessian":[1.377E3,2.16E2,1.161E3,2.7E1,1.89E2,5.16E2,6.45E2,1.6E1,1.1E1,1.61E2,2.8E1,2.04E2,3.12E2,3.3E2,3.15E2],"tree_param":{"num_deleted":"0","num_feature":"3","num_nodes":"15","size_leaf_vector":"1"}},{"base_weights":[8.639653E-2,-2.924945E-1,8.010295E0,2.1327445E-1,-3.2250247E0,1.3819572E1,5.2625375E0,4.075708E-1,-2.0461015E-2,-9.8614626E-2,-6.5052754E-1,1.4713745E-1,1.0695266E0,-6.8344706E-1,5.5950934E-1],"categories":[0,1,2,3,4,5,6,7,8,9,10,11,12,13,16,17,18,19,20,21,22,23,24,25,26,27,28,29,30,31,32,33,34,36,37,39,40,41,42,44,45,46,47,48,49,50,7,10,14,15,17,19,20,31,32,35,42,49],"categories_nodes":[3,4],"categories_segments":[0,46],"categories_sizes":[46,12],"default_left":[0,0,0,1,1,0,0,0,0,0,0,0,0,0,0],"id":56,"left_children":[1,3,5,7,9,11,13,-1,-1,-1,-1,-1,-1,-1,-1],"loss_changes":[4.1448496E3,1.9562106E3,8.601846E2,2.860603E3,1.9963154E3,4.3354004E1,1.5891339E3,0E0,0E0,0E0,0E0,0E0,0E0,0E0,0E0],"parents":[2147483647,0,0,1,1,2,2,3,3,4,4,5,5,6,6],"right_children":[2,4,6,8,10,12,14,-1,-1,-1,-1,-1,-1,-1,-1],"split_conditions":[2.0219E4,2.02E3,2.3832E4,1E-45,1E-45,2E3,2.6084E4,4.075708E-1,-2.0461015E-2,-9.8614626E-2,-6.5052754E-1,1.4713745E-1,1.0695266E0,-6.8344706E-1,5.5950934E-1],"split_indices":[2,1,2,0,0,1,2,0,0,0,0,0,0,0,0],"split_type":[0,0,0,1,1,0,0,0,0,0,0,0,0,0,0],"sum_hessian":[1.377E3,1.316E3,6.1E1,1.124E3,1.92E2,1.7E1,4.4E1,9.4E1,1.03E3,1.44E2,4.8E1,1E0,1.6E1,5E0,3.9E1],"tree_param":{"num_deleted":"0","num_feature":"3","num_nodes":"15","size_leaf_vector":"1"}},{"base_weights":[8.0976985E-2,-2.8572157E-1,7.1591134E0,5.0254005E-1,-1.895591E0,1.0513117E1,2.4776824E0,3.0121824E-1,-6.850827E-2,1.3108222E-1,-2.8993854E-1,1.2622517E0,5.8478546E-1,5.0583667E-1,-1.0149657E-1],"categories":[0,1,2,3,4,5,6,7,8,10,11,12,13,14,15,16,17,18,19,20,21,22,23,24,25,26,27,28,29,30,31,32,33,34,35,36,37,38,39,40,41,42,44,45,46,47,48,49,50,0,2,3,4,5,6,7,8,9,11,12,13,18,21,22,23,24,25,26,27,28,29,30,32,33,36,37,39,40,41,43,44,45,46,47,48,50,0,1,6,7,8,10,11,15,16,17,19,20,21,26,27,30,31,32,33,35,36,37,38,39,40,41,42,44,46,49,50],"categories_nodes":[2,3,4],"categories_segments":[0,49,86],"categories_sizes":[49,37,31],"default_left":[0,0,1,1,1,0,0,0,0,0,0,0,0,0,0],"id":57,"left_children":[1,3,5,7,9,11,13,-1,-1,-1,-1,-1,-1,-1,-1],"loss_changes":[3.583344E3,1.6681E3,1.0156079E3,4.400568E3,3.1145562E3,4.066548E2,5.2498065E2,0E0,0E0,0E0,0E0,0E0,0E0,0E0,0E0],"parents":[2147483647,0,0,1,1,2,2,3,3,4,4,5,5,6,6],"right_children":[2,4,6,8,10,12,14,-1,-1,-1,-1,-1,-1,-1,-1],"split_conditions":[1.974E4,2.015E3,1E-45,1E-45,1E-45,2.005E3,2.01E3,3.0121824E-1,-6.850827E-2,1.3108222E-1,-2.8993854E-1,1.2622517E0,5.8478546E-1,5.0583667E-1,-1.0149657E-1],"split_indices":[2,1,0,0,0,1,1,0,0,0,0,0,0,0,0],"split_type":[0,0,1,1,1,0,0,0,0,0,0,0,0,0,0],"sum_hessian":[1.377E3,1.311E3,6.6E1,8.81E2,4.3E2,3.7E1,2.9E1,2.52E2,6.29E2,1.51E2,2.79E2,8E0,2.9E1,1.3E1,1.6E1],"tree_param":{"num_deleted":"0","num_feature":"3","num_nodes":"15","size_leaf_vector":"1"}},{"base_weights":[7.827664E-2,5.2557187E0,-3.6993358E-1,1.0058638E1,1.2128571E0,-1.8430719E0,2.2990598E-1,2.528685E-1,8.9946675E-1,-2.3168892E-1,4.740999E-1,-1.0148202E-1,-3.974918E-1,-2.8509703E-1,4.0541776E-2],"categories":[0,1,2,3,5,6,7,8,9,10,11,12,13,14,15,16,17,18,19,20,21,22,23,24,25,26,27,28,29,30,31,32,33,34,36,37,39,40,41,42,44,45,46,47,48,49,50,7,29,49],"categories_nodes":[0,5],"categories_segments":[0,47],"categories_sizes":[47,3],"default_left":[1,0,0,0,0,1,0,0,0,0,0,0,0,0,0],"id":58,"left_children":[1,3,5,7,9,11,13,-1,-1,-1,-1,-1,-1,-1,-1],"loss_changes":[3.2039717E3,2.11153E3,1.1239623E3,5.6585254E2,1.401622E3,6.089636E2,1.1374377E3,0E0,0E0,0E0,0E0,0E0,0E0,0E0,0E0],"parents":[2147483647,0,0,1,1,2,2,3,3,4,4,5,5,6,6],"right_children":[2,4,6,8,10,12,14,-1,-1,-1,-1,-1,-1,-1,-1],"split_conditions":[1E-45,2.009E3,1.796E3,2E3,2.6084E4,1E-45,1.999E3,2.528685E-1,8.9946675E-1,-2.3168892E-1,4.740999E-1,-1.0148202E-1,-3.974918E-1,-2.8509703E-1,4.0541776E-2],"split_indices":[0,1,2,1,2,0,1,0,0,0,0,0,0,0,0],"split_type":[1,0,0,0,0,1,0,0,0,0,0,0,0,0,0],"sum_hessian":[1.377E3,1.08E2,1.269E3,4.8E1,6E1,3.66E2,9.03E2,1.2E1,3.6E1,3.3E1,2.7E1,3.23E2,4.3E1,6.3E1,8.4E2],"tree_param":{"num_deleted":"0","num_feature":"3","num_nodes":"15","size_leaf_vector":"1"}},{"base_weights":[7.334967E-2,7.075426E0,-2.2269787E-1,5.1459446E0,1.2006049E0,9.0997785E-1,-1.1288488E0,7.8764117E-1,2.9479133E-4,4.7754803E-1,-6.6043705E-2,2.2896193E-1,-1.7593315E-1],"categories":[0,1,2,3,4,5,6,7,8,9,10,11,12,13,14,15,16,17,18,19,20,21,22,23,24,25,26,27,28,29,30,31,32,33,34,35,36,37,39,40,41,42,44,45,46,47,48,49,50,0,2,3,5,6,7,8,9,11,12,13,14,16,17,18,21,23,24,25,26,27,28,29,30,32,33,36,37,38,39,40,41,43,44,45,46,47,48,50,0,1,4,6,7,8,10,11,13,15,16,17,19,20,21,22,23,25,26,27,30,31,32,33,34,35,37,38,39,40,41,42,43,44,45,46,47,48,49,50],"categories_nodes":[0,5,6],"categories_segments":[0,49,88],"categories_sizes":[49,39,40],"default_left":[1,0,0,0,0,1,1,0,0,0,0,0,0],"id":59,"left_children":[1,3,5,7,-1,9,11,-1,-1,-1,-1,-1,-1],"loss_changes":[2.8617458E3,8.00427E2,1.3620015E3,1.3493923E3,0E0,5.776504E3,3.7647612E3,0E0,0E0,0E0,0E0,0E0,0E0],"parents":[2147483647,0,0,1,1,2,2,3,3,5,5,6,6],"right_children":[2,4,6,8,-1,10,12,-1,-1,-1,-1,-1,-1],"split_conditions":[1E-45,2.8291E4,2.009E3,2.008E3,1.2006049E0,1E-45,1E-45,7.8764117E-1,2.9479133E-4,4.7754803E-1,-6.6043705E-2,2.2896193E-1,-1.7593315E-1],"split_indices":[0,2,1,1,0,0,0,0,0,0,0,0,0],"split_type":[1,0,0,0,0,1,1,0,0,0,0,0,0],"sum_hessian":[1.377E3,5.4E1,1.323E3,4.7E1,7E0,5.88E2,7.35E2,2.2E1,2.5E1,1.44E2,4.44E2,1.65E2,5.7E2],"tree_param":{"num_deleted":"0","num_feature":"3","num_nodes":"13","size_leaf_vector":"1"}},{"base_weights":[7.14059E-2,6.6157846E0,-2.0529449E-1,4.7921576E0,1.1305685E0,2.0596664E-1,-2.5482402E0,7.334907E-1,2.7423436E-4,9.863968E-2,-8.663837E-2,1.6909814E-1,-3.3555678E-1],"categories":[0,1,2,3,4,5,6,7,8,9,10,11,12,13,14,15,16,17,18,19,20,21,22,23,24,25,26,27,28,29,30,31,32,33,34,35,36,37,39,40,41,42,44,45,46,47,48,49,50,0,2,5,6,7,8,11,13,18,21,25,26,28,29,30,33,37,38,39,41,43,44,46,47,1,2,3,4,6,7,8,10,11,12,14,15,16,17,19,20,21,23,26,27,30,31,32,33,35,36,37,39,40,42,44,46,48,49,50],"categories_nodes":[0,5,6],"categories_segments":[0,49,73],"categories_sizes":[49,24,35],"default_left":[1,0,0,0,0,1,1,0,0,0,0,0,0],"id":60,"left_children":[1,3,5,7,-1,9,11,-1,-1,-1,-1,-1,-1],"loss_changes":[2.4998542E3,7.193279E2,1.2777699E3,1.1702294E3,0E0,1.7076267E3,1.8516014E3,0E0,0E0,0E0,0E0,0E0,0E0],"parents":[2147483647,0,0,1,1,2,2,3,3,5,5,6,6],"right_children":[2,4,6,8,-1,10,12,-1,-1,-1,-1,-1,-1],"split_conditions":[1E-45,2.8291E4,2.02E3,2.008E3,1.1305685E0,1E-45,1E-45,7.334907E-1,2.7423436E-4,9.863968E-2,-8.663837E-2,1.6909814E-1,-3.3555678E-1],"split_indices":[0,2,1,1,0,0,0,0,0,0,0,0,0],"split_type":[1,0,0,0,0,1,1,0,0,0,0,0,0],"sum_hessian":[1.377E3,5.4E1,1.323E3,4.7E1,7E0,1.127E3,1.96E2,2.2E1,2.5E1,6.21E2,5.06E2,5.6E1,1.4E2],"tree_param":{"num_deleted":"0","num_feature":"3","num_nodes":"13","size_leaf_vector":"1"}},{"base_weights":[6.853155E-2,-2.1126257E-1,5.9198265E0,7.271817E-1,-1.2384118E0,-5.0619864E0,6.835949E0,3.0088535E-1,-9.035551E-2,1.1700831E-1,-2.2091061E-1,6.755067E-2,-4.961092E-1,9.2336124E-1,3.1694356E-1],"categories":[2,3,4,5,6,7,8,9,11,12,13,14,18,21,23,24,25,26,28,29,30,33,36,37,39,41,44,45,46,47,48,50,0,1,6,7,8,10,11,15,16,17,19,20,21,25,26,27,30,31,32,33,34,35,37,39,40,41,42,44,46,49,4],"categories_nodes":[3,4,5],"categories_segments":[0,32,62],"categories_sizes":[32,30,1],"default_left":[0,0,0,1,1,1,0,0,0,0,0,0,0,0,0],"id":61,"left_children":[1,3,5,7,9,11,13,-1,-1,-1,-1,-1,-1,-1,-1],"loss_changes":[2.2601418E3,1.2722507E3,7.0303E2,4.3881543E3,3.0188604E3,6.746857E1,7.391343E2,0E0,0E0,0E0,0E0,0E0,0E0,0E0,0E0],"parents":[2147483647,0,0,1,1,2,2,3,3,4,4,5,5,6,6],"right_children":[2,4,6,8,10,12,14,-1,-1,-1,-1,-1,-1,-1,-1],"split_conditions":[2.0219E4,2.011E3,2E3,1E-45,1E-45,1E-45,2.008E3,3.0088535E-1,-9.035551E-2,1.1700831E-1,-2.2091061E-1,6.755067E-2,-4.961092E-1,9.2336124E-1,3.1694356E-1],"split_indices":[2,1,1,0,0,0,1,0,0,0,0,0,0,0,0],"split_type":[0,0,0,1,1,1,0,0,0,0,0,0,0,0,0],"sum_hessian":[1.377E3,1.316E3,6.1E1,6.88E2,6.28E2,4E0,5.7E1,2.54E2,4.34E2,2.38E2,3.9E2,1E0,3E0,1.6E1,4.1E1],"tree_param":{"num_deleted":"0","num_feature":"3","num_nodes":"15","size_leaf_vector":"1"}},{"base_weights":[6.4723216E-2,2.8538744E0,-4.5820406E-1,8.003258E0,2.0421474E0,4.734045E-1,-1.2026504E0,2.4119748E-1,1.0050409E0,-2.9196447E-1,2.1158205E-1,1.8404268E-1,-1.5208961E-1,8.198594E-3,-2.3958157E-1],"categories":[0,1,2,3,5,6,7,8,10,11,12,13,16,17,19,20,21,22,23,24,25,26,27,28,29,30,31,32,33,34,36,37,39,40,41,42,44,45,46,47,48,49,50,0,1,2,3,4,5,6,7,8,9,10,11,12,13,14,15,16,17,18,19,20,21,22,23,24,25,26,27,28,29,30,31,32,33,34,35,36,37,38,39,40,41,42,44,45,46,47,48,49,50,2,3,